DATE: 2007-06-11 UNITS: metal CONTRIBUTOR: MI Mendelev, mendelev@ameslab.gov CITATION: Mendelev, Han, Srolovitz, Ackland, Sun and Asta, Phil Mag A, 83, 3977-3994 (2003)
Sunday, Jun 10, 2007  The potential was taken from v9_4_bcc (in C:\SIMULATION.MD\Fe\Results\ab_initio+Interstitials)
################################################
1  Fe  
10000 2.9999999999999999e-02 10000 5.2999999999999998e-04 5.3000000000
26 5.58450000000000E+0001 2.85532400000000E+0000 bcc
0.0000000000000000e+00
-1.7320539930000001e-01
-2.4495024820000000e-01
-3.0000286640000001e-01
-3.4641525719999999e-01
-3.8730629670000000e-01
-4.2427553410000002e-01
-4.5827317519999999e-01
-4.8991833159999998e-01
-5.1964103949999996e-01
-5.4775440590000002e-01
-5.7449480119999996e-01
-6.0004586169999996e-01
-6.2455362360000000e-01
-6.4813649259999995e-01
-6.7089205210000002e-01
-6.9290185490000000e-01
-7.1423488469999996e-01
-7.3495011160000001e-01
-7.5509841619999996e-01
-7.7472406270000005e-01
-7.9386584469999999e-01
-8.1255798670000001e-01
-8.3083086429999997e-01
-8.4871158410000003e-01
-8.6622445619999999e-01
-8.8339138169999998e-01
-9.0023217470000005e-01
-9.1676483040000001e-01
-9.3300575019999998e-01
-9.4896993360000004e-01
-9.6467113910000002e-01
-9.8012202459999997e-01
-9.9533426599999997e-01
-1.0103186611999999e+00
-1.0250852193000000e+00
-1.0396432395999999e+00
-1.0540013797000001e+00
-1.0681677159000000e+00
-1.0821497966000000e+00
-1.0959546892000001e+00
-1.1095890220000000e+00
-1.1230590215000000e+00
-1.1363705459000000e+00
-1.1495291140999999e+00
-1.1625399337000000e+00
-1.1754079243000000e+00
-1.1881377395999999e+00
-1.2007337868000001e+00
-1.2132002450999999e+00
-1.2255410811000000e+00
-1.2377600642000000e+00
-1.2498607800999999e+00
-1.2618466424999999e+00
-1.2737209051000000e+00
-1.2854866716000000e+00
-1.2971469051000000e+00
-1.3087044372000001e+00
-1.3201619755000000e+00
-1.3315221119000000e+00
-1.3427873284000000e+00
-1.3539600043000000e+00
-1.3650424216999999e+00
-1.3760367710000001e+00
-1.3869451559999999e+00
-1.3977695987000001e+00
-1.4085120436000000e+00
-1.4191743619999999e+00
-1.4297583550999999e+00
-1.4402657587000001e+00
-1.4506982455999999e+00
-1.4610574291000000e+00
-1.4713448660999999e+00
-1.4815620592000001e+00
-1.4917104603000000e+00
-1.5017914718000001e+00
-1.5118064498999999e+00
-1.5217567062999999e+00
-1.5316435100000001e+00
-1.5414680895999999e+00
-1.5512316353000000e+00
-1.5609352995000001e+00
-1.5705801995999999e+00
-1.5801674191999999e+00
-1.5896980087999999e+00
-1.5991729883000001e+00
-1.6085933471000000e+00
-1.6179600464999999e+00
-1.6272740200000000e+00
-1.6365361745000000e+00
-1.6457473918000001e+00
-1.6549085291000001e+00
-1.6640204201000000e+00
-1.6730838758000000e+00
-1.6820996858999999e+00
-1.6910686184999999e+00
-1.6999914221000001e+00
-1.7088688256000000e+00
-1.7177015390000001e+00
-1.7264902544000000e+00
-1.7352356463000000e+00
-1.7439383724999999e+00
-1.7525990747000000e+00
-1.7612183785000000e+00
-1.7697968948000000e+00
-1.7783352196000000e+00
-1.7868339348000000e+00
-1.7952936085000000e+00
-1.8037147958999999e+00
-1.8120980389000001e+00
-1.8204438673000001e+00
-1.8287527989000001e+00
-1.8370253397000000e+00
-1.8452619845000000e+00
-1.8534632173000001e+00
-1.8616295113000001e+00
-1.8697613295000000e+00
-1.8778591252000001e+00
-1.8859233416000001e+00
-1.8939544129000001e+00
-1.9019527638000000e+00
-1.9099188106000000e+00
-1.9178529608999999e+00
-1.9257556137000000e+00
-1.9336271601999999e+00
-1.9414679835999999e+00
-1.9492784594000001e+00
-1.9570589559000000e+00
-1.9648098339000000e+00
-1.9725314474000000e+00
-1.9802241432000001e+00
-1.9878882619000000e+00
-1.9955241371000001e+00
-2.0031320966999999e+00
-2.0107124619999999e+00
-2.0182655482000000e+00
-2.0257916652999999e+00
-2.0332911170000001e+00
-2.0407642017000001e+00
-2.0482112125000000e+00
-2.0556324369999999e+00
-2.0630281578999998e+00
-2.0703986527999998e+00
-2.0777441943000001e+00
-2.0850650505999999e+00
-2.0923614849000001e+00
-2.0996337557999998e+00
-2.1068821179000001e+00
-2.1141068213000000e+00
-2.1213081115999999e+00
-2.1284862307000001e+00
-2.1356414160999999e+00
-2.1427739017000000e+00
-2.1498839175000000e+00
-2.1569716894000002e+00
-2.1640374403000000e+00
-2.1710813886999998e+00
-2.1781037503000000e+00
-2.1851047370000001e+00
-2.1920845574999999e+00
-2.1990434171000000e+00
-2.2059815180000002e+00
-2.2128990592000002e+00
-2.2197962366000001e+00
-2.2266732434000001e+00
-2.2335302694000001e+00
-2.2403675018999998e+00
-2.2471851252000001e+00
-2.2539833208000002e+00
-2.2607622676000001e+00
-2.2675221418999998e+00
-2.2742631173999999e+00
-2.2809853650999998e+00
-2.2876890536999999e+00
-2.2943743494000000e+00
-2.3010414159999999e+00
-2.3076904149000002e+00
-2.3143215055000002e+00
-2.3209348446000000e+00
-2.3275305870000000e+00
-2.3341088851000000e+00
-2.3406698895000000e+00
-2.3472137488000002e+00
-2.3537406090999999e+00
-2.3602506148000000e+00
-2.3667439083000001e+00
-2.3732206301000001e+00
-2.3796809189000001e+00
-2.3861249113000000e+00
-2.3925527422999999e+00
-2.3989645450000001e+00
-2.4053604506999999e+00
-2.4117405893999999e+00
-2.4181050887000000e+00
-2.4244540752999999e+00
-2.4307876735999998e+00
-2.4371060069000001e+00
-2.4434091966999998e+00
-2.4496973629999999e+00
-2.4559706242999999e+00
-2.4622290975999999e+00
-2.4684728983999999e+00
-2.4747021407999998e+00
-2.4809169377000000e+00
-2.4871174000999998e+00
-2.4933036381000000e+00
-2.4994757604000002e+00
-2.5056338741999999e+00
-2.5117780855000000e+00
-2.5179084989999998e+00
-2.5240252181999998e+00
-2.5301283454000001e+00
-2.5362179816000001e+00
-2.5422942267000002e+00
-2.5483571791999999e+00
-2.5544069367000000e+00
-2.5604435956999998e+00
-2.5664672513000002e+00
-2.5724779979000001e+00
-2.5784759285000001e+00
-2.5844611350000002e+00
-2.5904337086000000e+00
-2.5963937390999998e+00
-2.6023413155999999e+00
-2.6082765260000000e+00
-2.6141994572999998e+00
-2.6201101954000001e+00
-2.6260088254000000e+00
-2.6318954315999998e+00
-2.6377700970000002e+00
-2.6436329040000000e+00
-2.6494839339000000e+00
-2.6553232675000000e+00
-2.6611509840999998e+00
-2.6669671626000002e+00
-2.6727718812000001e+00
-2.6785652167000000e+00
-2.6843472457000002e+00
-2.6901180435000001e+00
-2.6958776849000001e+00
-2.7016262438999998e+00
-2.7073637934999999e+00
-2.7130904064000001e+00
-2.7188061540000001e+00
-2.7245111073000001e+00
-2.7302053365000001e+00
-2.7358889112000000e+00
-2.7415619001999998e+00
-2.7472243713000002e+00
-2.7528763921000001e+00
-2.7585180292999998e+00
-2.7641493490000002e+00
-2.7697704166000001e+00
-2.7753812968000000e+00
-2.7809820536999998e+00
-2.7865727508000000e+00
-2.7921534509999999e+00
-2.7977242164999998e+00
-2.8032851088999999e+00
-2.8088361894000000e+00
-2.8143775184000002e+00
-2.8199091556000000e+00
-2.8254311605000000e+00
-2.8309435918000001e+00
-2.8364465075999998e+00
-2.8419399657000000e+00
-2.8474240230999999e+00
-2.8528987361999998e+00
-2.8583641611999999e+00
-2.8638203536000000e+00
-2.8692673683000001e+00
-2.8747052596999998e+00
-2.8801340820000001e+00
-2.8855538886000001e+00
-2.8909647324000001e+00
-2.8963666659000000e+00
-2.9017597411999998e+00
-2.9071440099000001e+00
-2.9125195228999998e+00
-2.9178863312000001e+00
-2.9232444845000001e+00
-2.9285940330000000e+00
-2.9339350255999999e+00
-2.9392675115000002e+00
-2.9445915389000001e+00
-2.9499071557000001e+00
-2.9552144097999999e+00
-2.9605133480000001e+00
-2.9658040173000000e+00
-2.9710864640999999e+00
-2.9763607342000000e+00
-2.9816268730000002e+00
-2.9868849260000001e+00
-2.9921349377999999e+00
-2.9973769526999998e+00
-3.0026110147999998e+00
-3.0078371679000000e+00
-3.0130554548999999e+00
-3.0182659190000001e+00
-3.0234686028000000e+00
-3.0286635481999999e+00
-3.0338507973000000e+00
-3.0390303914999999e+00
-3.0442023718000000e+00
-3.0493667794000001e+00
-3.0545236544000001e+00
-3.0596730371000000e+00
-3.0648149672999998e+00
-3.0699494844999999e+00
-3.0750766278000001e+00
-3.0801964362000001e+00
-3.0853089481999998e+00
-3.0904142019999998e+00
-3.0955122354000002e+00
-3.1006030862000000e+00
-3.1056867917000002e+00
-3.1107633889000001e+00
-3.1158329144999999e+00
-3.1208954051000002e+00
-3.1259508967000000e+00
-3.1309994252000002e+00
-3.1360410262000000e+00
-3.1410757350999998e+00
-3.1461035868999998e+00
-3.1511246163000002e+00
-3.1561388578999998e+00
-3.1611463459000002e+00
-3.1661471144000002e+00
-3.1711411968999998e+00
-3.1761286270000002e+00
-3.1811094379000000e+00
-3.1860836625000002e+00
-3.1910513335999999e+00
-3.1960124837000001e+00
-3.2009671447999999e+00
-3.2059153490000001e+00
-3.2108571281999998e+00
-3.2157925135999998e+00
-3.2207215368000002e+00
-3.2256442285000002e+00
-3.2305606197999999e+00
-3.2354707410999999e+00
-3.2403746229000001e+00
-3.2452722951999999e+00
-3.2501637879000000e+00
-3.2550491308999998e+00
-3.2599283535999999e+00
-3.2648014852000000e+00
-3.2696685548000000e+00
-3.2745295912999999e+00
-3.2793846231999999e+00
-3.2842336791000002e+00
-3.2890767872000000e+00
-3.2939139756000002e+00
-3.2987452720000001e+00
-3.3035707040000002e+00
-3.3083902993000001e+00
-3.3132040850000002e+00
-3.3180120882000002e+00
-3.3228143358000000e+00
-3.3276108545000000e+00
-3.3324016706999999e+00
-3.3371868109000000e+00
-3.3419663009999998e+00
-3.3467401671000001e+00
-3.3515084351000000e+00
-3.3562711304000001e+00
-3.3610282785000001e+00
-3.3657799047000001e+00
-3.3705260340000001e+00
-3.3752666914999998e+00
-3.3800019017000000e+00
-3.3847316895000001e+00
-3.3894560788999999e+00
-3.3941750946000000e+00
-3.3988887603000002e+00
-3.4035971001999998e+00
-3.4083001380000000e+00
-3.4129978972999999e+00
-3.4176904014999998e+00
-3.4223776738999998e+00
-3.4270597378000001e+00
-3.4317366160999998e+00
-3.4364083316000000e+00
-3.4410749071000000e+00
-3.4457363651000001e+00
-3.4503927280000002e+00
-3.4550440181000002e+00
-3.4596902574000001e+00
-3.4643314681000001e+00
-3.4689676718000002e+00
-3.4735988902999999e+00
-3.4782251452000001e+00
-3.4828464578000000e+00
-3.4874628494000000e+00
-3.4920743412999999e+00
-3.4966809542999999e+00
-3.5012827093999999e+00
-3.5058796274000001e+00
-3.5104717288999998e+00
-3.5150590342000001e+00
-3.5196415639000000e+00
-3.5242193380000000e+00
-3.5287923767999998e+00
-3.5333607002999998e+00
-3.5379243281999999e+00
-3.5424832803999999e+00
-3.5470375764000002e+00
-3.5515872357000000e+00
-3.5561322777000002e+00
-3.5606727218000001e+00
-3.5652085868999999e+00
-3.5697398920999999e+00
-3.5742666564999999e+00
-3.5787888985000000e+00
-3.5833066373000002e+00
-3.5878198910000001e+00
-3.5923286782999999e+00
-3.5968330174999998e+00
-3.6013329268000001e+00
-3.6058284243999998e+00
-3.6103195282999998e+00
-3.6148062563000001e+00
-3.6192886262999999e+00
-3.6237666560999999e+00
-3.6282403632000002e+00
-3.6327097650000000e+00
-3.6371748789999998e+00
-3.6416357224999998e+00
-3.6460923127000000e+00
-3.6505446666000001e+00
-3.6549928013000001e+00
-3.6594367336000002e+00
-3.6638764803999999e+00
-3.6683120582000002e+00
-3.6727434838000002e+00
-3.6771707735999999e+00
-3.6815939439999998e+00
-3.6860130115000000e+00
-3.6904279921000001e+00
-3.6948389019999999e+00
-3.6992457572999999e+00
-3.7036485737999998e+00
-3.7080473675999999e+00
-3.7124421542000001e+00
-3.7168329495000001e+00
-3.7212197689000002e+00
-3.7256026280999999e+00
-3.7299815425000000e+00
-3.7343565272000001e+00
-3.7387275977000001e+00
-3.7430947689999998e+00
-3.7474580563000002e+00
-3.7518174745000001e+00
-3.7561730386000001e+00
-3.7605247633999999e+00
-3.7648726635999998e+00
-3.7692167538999999e+00
-3.7735570488999999e+00
-3.7778935632000001e+00
-3.7822263109000001e+00
-3.7865553068000000e+00
-3.7908805648000001e+00
-3.7952020993000000e+00
-3.7995199243000002e+00
-3.8038340540000002e+00
-3.8081445022999998e+00
-3.8124512830000001e+00
-3.8167544100000002e+00
-3.8210538971000001e+00
-3.8253497578000002e+00
-3.8296420057999998e+00
-3.8339306547000001e+00
-3.8382157179999998e+00
-3.8424972087999998e+00
-3.8467751406000001e+00
-3.8510495266999998e+00
-3.8553203801999998e+00
-3.8595877141999999e+00
-3.8638515415999999e+00
-3.8681118756999999e+00
-3.8723687291000002e+00
-3.8766221148000000e+00
-3.8808720454999999e+00
-3.8851185340000001e+00
-3.8893615926999998e+00
-3.8936012344000002e+00
-3.8978374714999999e+00
-3.9020703165000001e+00
-3.9062997817000000e+00
-3.9105258795000002e+00
-3.9147486221999999e+00
-3.9189680218000000e+00
-3.9231840904999999e+00
-3.9273968405000002e+00
-3.9316062836999999e+00
-3.9358124320000001e+00
-3.9400152974000000e+00
-3.9442148915000002e+00
-3.9484112263000002e+00
-3.9526043135000002e+00
-3.9567941646999998e+00
-3.9609807913999999e+00
-3.9651642051999998e+00
-3.9693444174999999e+00
-3.9735214398999998e+00
-3.9776952837000001e+00
-3.9818659600999999e+00
-3.9860334804000002e+00
-3.9901978558000000e+00
-3.9943590974999998e+00
-3.9985172164999998e+00
-4.0026722239000003e+00
-4.0068241306000001e+00
-4.0109729475000000e+00
-4.0151186856000001e+00
-4.0192613557000003e+00
-4.0234009683999998e+00
-4.0275375346000004e+00
-4.0316710649000003e+00
-4.0358015698000003e+00
-4.0399290601000004e+00
-4.0440535460999998e+00
-4.0481750384000001e+00
-4.0522935471999997e+00
-4.0564090831000001e+00
-4.0605216561999997e+00
-4.0646312769000001e+00
-4.0687379553999996e+00
-4.0728417017999998e+00
-4.0769425263999999e+00
-4.0810404388999997e+00
-4.0851354497000001e+00
-4.0892275685000001e+00
-4.0933168053999998e+00
-4.0974031702999998e+00
-4.1014866729000001e+00
-4.1055673229999998e+00
-4.1096451302999997e+00
-4.1137201047999996e+00
-4.1177922558000004e+00
-4.1218615930000002e+00
-4.1259281260999998e+00
-4.1299918645000000e+00
-4.1340528175999998e+00
-4.1381109950999999e+00
-4.1421664062000003e+00
-4.1462190601000000e+00
-4.1502689663999996e+00
-4.1543161342000001e+00
-4.1583605727000004e+00
-4.1624022913000003e+00
-4.1664412987999997e+00
-4.1704776045000003e+00
-4.1745112173000001e+00
-4.1785421463999999e+00
-4.1825704007000004e+00
-4.1865959890999997e+00
-4.1906189206000004e+00
-4.1946392038000004e+00
-4.1986568477999997e+00
-4.2026718611999998e+00
-4.2066842526999997e+00
-4.2106940311000001e+00
-4.2147012050999999e+00
-4.2187057831999999e+00
-4.2227077739999999e+00
-4.2267071860999996e+00
-4.2307040278999999e+00
-4.2346983079999996e+00
-4.2386900347000003e+00
-4.2426792165000000e+00
-4.2466658617000004e+00
-4.2506499786000003e+00
-4.2546315755000004e+00
-4.2586106607999996e+00
-4.2625872424000004e+00
-4.2665613285999999e+00
-4.2705329276999997e+00
-4.2745020476000004e+00
-4.2784686965000001e+00
-4.2824328824000002e+00
-4.2863946132999997e+00
-4.2903538971000001e+00
-4.2943107418000004e+00
-4.2982651552000002e+00
-4.3022171454000002e+00
-4.3061667200000002e+00
-4.3101138869000000e+00
-4.3140586538000001e+00
-4.3180010285000003e+00
-4.3219410185999996e+00
-4.3258786318000002e+00
-4.3298138759000002e+00
-4.3337467583000002e+00
-4.3376772867000000e+00
-4.3416054685000001e+00
-4.3455313112000002e+00
-4.3494548225000003e+00
-4.3533760095999998e+00
-4.3572948800000004e+00
-4.3612114411000000e+00
-4.3651257003000001e+00
-4.3690376648000004e+00
-4.3729473419999998e+00
-4.3768547389999997e+00
-4.3807598632999998e+00
-4.3846627217999998e+00
-4.3885633218000004e+00
-4.3924616705000004e+00
-4.3963577749000002e+00
-4.4002516421999998e+00
-4.4041432794000004e+00
-4.4080326936000001e+00
-4.4119198916000002e+00
-4.4158048803999996e+00
-4.4196876670999998e+00
-4.4235682585999996e+00
-4.4274466616000003e+00
-4.4313228831000000e+00
-4.4351969299000000e+00
-4.4390688088000001e+00
-4.4429385265999999e+00
-4.4468060898999999e+00
-4.4506715056999999e+00
-4.4545347803000004e+00
-4.4583959207000001e+00
-4.4622549333999997e+00
-4.4661118250999996e+00
-4.4699666023000004e+00
-4.4738192716000000e+00
-4.4776698394999999e+00
-4.4815183124000004e+00
-4.4853646969999996e+00
-4.4892089995999997e+00
-4.4930512267999996e+00
-4.4968913847999996e+00
-4.5007294800000004e+00
-4.5045655188999998e+00
-4.5083995078000001e+00
-4.5122314528000000e+00
-4.5160613606000002e+00
-4.5198892370000001e+00
-4.5237150884000004e+00
-4.5275389211999997e+00
-4.5313607413000003e+00
-4.5351805550000002e+00
-4.5389983683999997e+00
-4.5428141876000003e+00
-4.5466280187999999e+00
-4.5504398678999998e+00
-4.5542497410999996e+00
-4.5580576441999998e+00
-4.5618635835000001e+00
-4.5656675647000000e+00
-4.5694695939000001e+00
-4.5732696768999999e+00
-4.5770678197999999e+00
-4.5808640282999997e+00
-4.5846583082999999e+00
-4.5884506656999999e+00
-4.5922411062000004e+00
-4.5960296357999999e+00
-4.5998162600999999e+00
-4.6036009848999999e+00
-4.6073838158999996e+00
-4.6111647588000002e+00
-4.6149438193999996e+00
-4.6187210032000001e+00
-4.6224963159000003e+00
-4.6262697631999998e+00
-4.6300413506000000e+00
-4.6338110837000004e+00
-4.6375789680999997e+00
-4.6413450094000002e+00
-4.6451092128999996e+00
-4.6488715843000001e+00
-4.6526321289999997e+00
-4.6563908524000004e+00
-4.6601477601000001e+00
-4.6639028574000001e+00
-4.6676561497000000e+00
-4.6714076424000002e+00
-4.6751573408000002e+00
-4.6789052502999997e+00
-4.6826513761999999e+00
-4.6863957237999996e+00
-4.6901382984000000e+00
-4.6938791051999997e+00
-4.6976181496000002e+00
-4.7013554365000001e+00
-4.7050909714999998e+00
-4.7088247594999997e+00
-4.7125568058000002e+00
-4.7162871154000001e+00
-4.7200156935999997e+00
-4.7237425455000004e+00
-4.7274676760999998e+00
-4.7311910905000003e+00
-4.7349127937000004e+00
-4.7386327908999997e+00
-4.7423510869000003e+00
-4.7460676869000000e+00
-4.7497825958000002e+00
-4.7534958185000002e+00
-4.7572073600999998e+00
-4.7609172254000001e+00
-4.7646254193999997e+00
-4.7683319469000001e+00
-4.7720368128999997e+00
-4.7757400221999999e+00
-4.7794415796000003e+00
-4.7831414899000002e+00
-4.7868397580000002e+00
-4.7905363887999997e+00
-4.7942313867999999e+00
-4.7979247569999997e+00
-4.8016165039000001e+00
-4.8053066324999998e+00
-4.8089951474000001e+00
-4.8126820531999996e+00
-4.8163673547999997e+00
-4.8200510565999997e+00
-4.8237331634000000e+00
-4.8274136797000002e+00
-4.8310926102999998e+00
-4.8347699597000000e+00
-4.8384457324000003e+00
-4.8421199331000002e+00
-4.8457925663000001e+00
-4.8494636366000003e+00
-4.8531331484000004e+00
-4.8568011061999998e+00
-4.8604675146999998e+00
-4.8641323780999999e+00
-4.8677957009000004e+00
-4.8714574877999999e+00
-4.8751177429999997e+00
-4.8787764709000001e+00
-4.8824336758999998e+00
-4.8860893625999999e+00
-4.8897435351000000e+00
-4.8933961977999996e+00
-4.8970473550999998e+00
-4.9006970114000001e+00
-4.9043451709000001e+00
-4.9079918380000001e+00
-4.9116370168000003e+00
-4.9152807117000004e+00
-4.9189229268999997e+00
-4.9225636667000003e+00
-4.9262029352000001e+00
-4.9298407368000001e+00
-4.9334770754999999e+00
-4.9371119555999998e+00
-4.9407453813000002e+00
-4.9443773566000004e+00
-4.9480078858000001e+00
-4.9516369728000003e+00
-4.9552646220999996e+00
-4.9588908374000003e+00
-4.9625156229999998e+00
-4.9661389829999996e+00
-4.9697609212999998e+00
-4.9733814419000000e+00
-4.9770005491999996e+00
-4.9806182468999998e+00
-4.9842345390000000e+00
-4.9878494296999998e+00
-4.9914629228000003e+00
-4.9950750224000000e+00
-4.9986857323000002e+00
-5.0022950565000004e+00
-5.0059029989999999e+00
-5.0095095637000000e+00
-5.0131147544000001e+00
-5.0167185750999996e+00
-5.0203210296999998e+00
-5.0239221220000001e+00
-5.0275218557999999e+00
-5.0311202350000004e+00
-5.0347172635000002e+00
-5.0383129449000004e+00
-5.0419072832999996e+00
-5.0455002822999999e+00
-5.0490919456999999e+00
-5.0526822773999998e+00
-5.0562712808999999e+00
-5.0598589601999997e+00
-5.0634453189000004e+00
-5.0670303606999996e+00
-5.0706140893000002e+00
-5.0741965085000000e+00
-5.0777776220000002e+00
-5.0813574334000000e+00
-5.0849359461999999e+00
-5.0885131644000001e+00
-5.0920890915000001e+00
-5.0956637310000001e+00
-5.0992370865999996e+00
-5.1028091618999998e+00
-5.1063799605000000e+00
-5.1099494859999997e+00
-5.1135177419000000e+00
-5.1170847319000003e+00
-5.1206504595000002e+00
-5.1242149281999998e+00
-5.1277781414000003e+00
-5.1313401028000003e+00
-5.1349008159000000e+00
-5.1384602840999998e+00
-5.1420185109999998e+00
-5.1455754999999996e+00
-5.1491312545000003e+00
-5.1526857780000004e+00
-5.1562390740000001e+00
-5.1597911458999999e+00
-5.1633419971999999e+00
-5.1668916311000004e+00
-5.1704400511999999e+00
-5.1739872607999997e+00
-5.1775332632000000e+00
-5.1810780619000001e+00
-5.1846216602000004e+00
-5.1881640615000002e+00
-5.1917052689999998e+00
-5.1952452862999996e+00
-5.1987841163999997e+00
-5.2023217627999996e+00
-5.2058582287000004e+00
-5.2093935173999997e+00
-5.2129276322999996e+00
-5.2164605766000003e+00
-5.2199923535000003e+00
-5.2235229663000000e+00
-5.2270524182000004e+00
-5.2305807125000001e+00
-5.2341078523000002e+00
-5.2376338410000001e+00
-5.2411586815000000e+00
-5.2446823773000002e+00
-5.2482049314000001e+00
-5.2517263472000000e+00
-5.2552466275000000e+00
-5.2587657756999997e+00
-5.2622837948000001e+00
-5.2658006879999997e+00
-5.2693164585999996e+00
-5.2728311095000002e+00
-5.2763446437999999e+00
-5.2798570646999998e+00
-5.2833683753000003e+00
-5.2868785784999996e+00
-5.2903876776000001e+00
-5.2938956755000000e+00
-5.2974025752999996e+00
-5.3009083801000001e+00
-5.3044130929000000e+00
-5.3079167167000003e+00
-5.3114192544999996e+00
-5.3149207093999999e+00
-5.3184210841999997e+00
-5.3219203821000001e+00
-5.3254186061000004e+00
-5.3289157589000000e+00
-5.3324118438000001e+00
-5.3359068635000000e+00
-5.3394008211999999e+00
-5.3428937196000001e+00
-5.3463855617000000e+00
-5.3498763503999998e+00
-5.3533660886999996e+00
-5.3568547793999999e+00
-5.3603424255999998e+00
-5.3638290298999998e+00
-5.3673145953999999e+00
-5.3707991248000004e+00
-5.3742826210999999e+00
-5.3777650871000002e+00
-5.3812465258000000e+00
-5.3847269398000002e+00
-5.3882063320000002e+00
-5.3916847053000003e+00
-5.3951620624999999e+00
-5.3986384062999999e+00
-5.4021137396999999e+00
-5.4055880652999999e+00
-5.4090613859000003e+00
-5.4125337044000004e+00
-5.4160050235000003e+00
-5.4194753458999996e+00
-5.4229446745000001e+00
-5.4264130119000002e+00
-5.4298803608000004e+00
-5.4333467241999998e+00
-5.4368121045000004e+00
-5.4402765046999999e+00
-5.4437399272000002e+00
-5.4472023749999998e+00
-5.4506638505999998e+00
-5.4541243568000004e+00
-5.4575838961000001e+00
-5.4610424713999999e+00
-5.4645000852000001e+00
-5.4679567402000000e+00
-5.4714124389999998e+00
-5.4748671843999999e+00
-5.4783209788000002e+00
-5.4817738251000003e+00
-5.4852257256000003e+00
-5.4886766830999996e+00
-5.4921267002000000e+00
-5.4955757795000002e+00
-5.4990239237000003e+00
-5.5024711350000004e+00
-5.5059174164000000e+00
-5.5093627702000001e+00
-5.5128071991000001e+00
-5.5162507056000001e+00
-5.5196932922000004e+00
-5.5231349615000003e+00
-5.5265757161000000e+00
-5.5300155583999997e+00
-5.5334544909999996e+00
-5.5368925163000000e+00
-5.5403296370000001e+00
-5.5437658554000002e+00
-5.5472011742999996e+00
-5.5506355957000002e+00
-5.5540691224999996e+00
-5.5575017569999998e+00
-5.5609335017000001e+00
-5.5643643589999998e+00
-5.5677943314000000e+00
-5.5712234213000000e+00
-5.5746516313000001e+00
-5.5780789637000003e+00
-5.5815054209000001e+00
-5.5849310052999996e+00
-5.5883557196000000e+00
-5.5917795656999996e+00
-5.5952025465000004e+00
-5.5986246640999999e+00
-5.6020459210000002e+00
-5.6054663195999996e+00
-5.6088858621000002e+00
-5.6123045510000003e+00
-5.6157223888000001e+00
-5.6191393775999998e+00
-5.6225555198999997e+00
-5.6259708179999999e+00
-5.6293852741999997e+00
-5.6327988910000002e+00
-5.6362116704999998e+00
-5.6396236150999997e+00
-5.6430347271999999e+00
-5.6464450090999998e+00
-5.6498544628999996e+00
-5.6532630913000004e+00
-5.6566708960999996e+00
-5.6600778799000002e+00
-5.6634840448999997e+00
-5.6668893933000000e+00
-5.6702939275000004e+00
-5.6736976496000002e+00
-5.6771005619999997e+00
-5.6805026669999998e+00
-5.6839039666000000e+00
-5.6873044632000003e+00
-5.6907041590000000e+00
-5.6941030562000003e+00
-5.6975011570999996e+00
-5.7008984638999998e+00
-5.7042949787000001e+00
-5.7076907038000000e+00
-5.7110856414000004e+00
-5.7144797935999998e+00
-5.7178731627000001e+00
-5.7212657507999998e+00
-5.7246575599999998e+00
-5.7280485927000004e+00
-5.7314388509000000e+00
-5.7348283366999997e+00
-5.7382170524999996e+00
-5.7416050001999999e+00
-5.7449921819999998e+00
-5.7483786000999997e+00
-5.7517642565999996e+00
-5.7551491534999997e+00
-5.7585332932000002e+00
-5.7619166776000004e+00
-5.7652993089000004e+00
-5.7686811890999996e+00
-5.7720623203999999e+00
-5.7754427047999997e+00
-5.7788223445000000e+00
-5.7822012415000001e+00
-5.7855793980000003e+00
-5.7889568157999998e+00
-5.7923334972999996e+00
-5.7957094442999999e+00
-5.7990846589000000e+00
-5.8024591433000001e+00
-5.8058328996000004e+00
-5.8092059295000000e+00
-5.8125782353000002e+00
-5.8159498190000001e+00
-5.8193206825999999e+00
-5.8226908279999998e+00
-5.8260602575000000e+00
-5.8294289727999997e+00
-5.8327969761000000e+00
-5.8361642694000002e+00
-5.8395308545000004e+00
-5.8428967337000000e+00
-5.8462619086999998e+00
-5.8496263816000003e+00
-5.8529901544999996e+00
-5.8563532291999998e+00
-5.8597156076000001e+00
-5.8630772918999998e+00
-5.8664382839000000e+00
-5.8697985856999999e+00
-5.8731581989999997e+00
-5.8765171259000004e+00
-5.8798753682999996e+00
-5.8832329282000000e+00
-5.8865898075000000e+00
-5.8899460079999999e+00
-5.8933015317999997e+00
-5.8966563807999997e+00
-5.9000105566999999e+00
-5.9033640615999996e+00
-5.9067168973999999e+00
-5.9100690660000001e+00
-5.9134205691000004e+00
-5.9167714087999999e+00
-5.9201215869999997e+00
-5.9234711053000000e+00
-5.9268199659000000e+00
-5.9301681704000000e+00
-5.9335157210000000e+00
-5.9368626192000002e+00
-5.9402088669999999e+00
-5.9435544664000002e+00
-5.9468994190000002e+00
-5.9502437268000001e+00
-5.9535873915000002e+00
-5.9569304151000004e+00
-5.9602727993000002e+00
-5.9636145459999996e+00
-5.9669556568999997e+00
-5.9702961340999998e+00
-5.9736359791000000e+00
-5.9769751939000004e+00
-5.9803137801000004e+00
-5.9836517398000000e+00
-5.9869890745000003e+00
-5.9903257861999997e+00
-5.9936618765000000e+00
-5.9969973473999998e+00
-6.0003322004999999e+00
-6.0036664376999997e+00
-6.0070000606000002e+00
-6.0103330710999998e+00
-6.0136654710000004e+00
-6.0169972619000003e+00
-6.0203284456999997e+00
-6.0236590239999996e+00
-6.0269889988000003e+00
-6.0303183715999999e+00
-6.0336471440999997e+00
-6.0369753182999997e+00
-6.0403028957000000e+00
-6.0436298780000000e+00
-6.0469562671999997e+00
-6.0502820647000002e+00
-6.0536072722999998e+00
-6.0569318918999997e+00
-6.0602559249999999e+00
-6.0635793733999996e+00
-6.0669022387000000e+00
-6.0702245226000002e+00
-6.0735462268999996e+00
-6.0768673531999999e+00
-6.0801879030999997e+00
-6.0835078784999999e+00
-6.0868272809999997e+00
-6.0901461121000002e+00
-6.0934643736999998e+00
-6.0967820672000004e+00
-6.1000991945000003e+00
-6.1034157570999996e+00
-6.1067317568000004e+00
-6.1100471950999999e+00
-6.1133620737000003e+00
-6.1166763940999997e+00
-6.1199901583000003e+00
-6.1233033676000002e+00
-6.1266160236999996e+00
-6.1299281282999996e+00
-6.1332396830000002e+00
-6.1365506892999999e+00
-6.1398611488999997e+00
-6.1431710634999996e+00
-6.1464804345999999e+00
-6.1497892637999998e+00
-6.1530975528000003e+00
-6.1564053029999997e+00
-6.1597125161999999e+00
-6.1630191938000003e+00
-6.1663253374000000e+00
-6.1696309489000001e+00
-6.1729360294999998e+00
-6.1762405809000001e+00
-6.1795446047000002e+00
-6.1828481024000004e+00
-6.1861510756999998e+00
-6.1894535260000003e+00
-6.1927554549000003e+00
-6.1960568640000000e+00
-6.1993577549000003e+00
-6.2026581288999996e+00
-6.2059579878999998e+00
-6.2092573332000001e+00
-6.2125561662999997e+00
-6.2158544888999998e+00
-6.2191523023000004e+00
-6.2224496083999998e+00
-6.2257464083000000e+00
-6.2290427038000002e+00
-6.2323384962999997e+00
-6.2356337873000003e+00
-6.2389285785000004e+00
-6.2422228711000001e+00
-6.2455166668000004e+00
-6.2488099669999997e+00
-6.2521027732999999e+00
-6.2553950871000001e+00
-6.2586869099999998e+00
-6.2619782432999997e+00
-6.2652690886000002e+00
-6.2685594475000004e+00
-6.2718493213000004e+00
-6.2751387115000004e+00
-6.2784276194000004e+00
-6.2817160468999997e+00
-6.2850039951000003e+00
-6.2882914656000004e+00
-6.2915784598000002e+00
-6.2948649791999998e+00
-6.2981510253000001e+00
-6.3014365994999997e+00
-6.3047217031000002e+00
-6.3080063377000002e+00
-6.3112905046999996e+00
-6.3145742055999996e+00
-6.3178574417000002e+00
-6.3211402144999997e+00
-6.3244225254000002e+00
-6.3277043758999998e+00
-6.3309857673999996e+00
-6.3342667011999998e+00
-6.3375471787000004e+00
-6.3408272015999998e+00
-6.3441067708999999e+00
-6.3473858882999998e+00
-6.3506645551999998e+00
-6.3539427728000000e+00
-6.3572205426000004e+00
-6.3604978660000002e+00
-6.3637747443999997e+00
-6.3670511790999997e+00
-6.3703271716999996e+00
-6.3736027233000003e+00
-6.3768778354000002e+00
-6.3801525095000002e+00
-6.3834267467999997e+00
-6.3867005487000004e+00
-6.3899739165999998e+00
-6.3932468517999999e+00
-6.3965193556999997e+00
-6.3997914296999996e+00
-6.4030630750000004e+00
-6.4063342932999996e+00
-6.4096050856000000e+00
-6.4128754532999999e+00
-6.4161453978000003e+00
-6.4194149205000004e+00
-6.4226840228000004e+00
-6.4259527057000003e+00
-6.4292209709000003e+00
-6.4324888194999996e+00
-6.4357562529000001e+00
-6.4390232724000001e+00
-6.4422898792999996e+00
-6.4455560749999998e+00
-6.4488218607999999e+00
-6.4520872378999998e+00
-6.4553522077999999e+00
-6.4586167717000000e+00
-6.4618809307999996e+00
-6.4651446866000004e+00
-6.4684080402999999e+00
-6.4716709931000000e+00
-6.4749335464000000e+00
-6.4781957014999998e+00
-6.4814574596999996e+00
-6.4847188221999996e+00
-6.4879797903999998e+00
-6.4912403655000004e+00
-6.4945005487999996e+00
-6.4977603415000003e+00
-6.5010197448999998e+00
-6.5042787603000001e+00
-6.5075373890000003e+00
-6.5107956322999998e+00
-6.5140534914000003e+00
-6.5173109675000003e+00
-6.5205680618999997e+00
-6.5238247757999996e+00
-6.5270811106000002e+00
-6.5303370674999996e+00
-6.5335926475999999e+00
-6.5368478523000002e+00
-6.5401026826999997e+00
-6.5433571402000004e+00
-6.5466112259000004e+00
-6.5498649412000001e+00
-6.5531182872000002e+00
-6.5563712651000001e+00
-6.5596238761999999e+00
-6.5628761216999996e+00
-6.5661280029000002e+00
-6.5693795209000001e+00
-6.5726306768000002e+00
-6.5758814721999999e+00
-6.5791319078999999e+00
-6.5823819853999996e+00
-6.5856317057000000e+00
-6.5888810701000002e+00
-6.5921300798000004e+00
-6.5953787359999998e+00
-6.5986270400000002e+00
-6.6018749927000000e+00
-6.6051225956000001e+00
-6.6083698497999999e+00
-6.6116167563000001e+00
-6.6148633165000001e+00
-6.6181095316000000e+00
-6.6213554026999999e+00
-6.6246009307999998e+00
-6.6278461172999998e+00
-6.6310909634000001e+00
-6.6343354701999999e+00
-6.6375796388000001e+00
-6.6408234704000000e+00
-6.6440669661999996e+00
-6.6473101273999999e+00
-6.6505529550000002e+00
-6.6537954503999996e+00
-6.6570376145000001e+00
-6.6602794485999999e+00
-6.6635209538000000e+00
-6.6667621311999996e+00
-6.6700029820999998e+00
-6.6732435075999996e+00
-6.6764837086000002e+00
-6.6797235864999998e+00
-6.6829631425000002e+00
-6.6862023774999999e+00
-6.6894412926999998e+00
-6.6926798892999999e+00
-6.6959181683000004e+00
-6.6991561308999996e+00
-6.7023937783000003e+00
-6.7056311115999998e+00
-6.7088681318000001e+00
-6.7121048401000003e+00
-6.7153412374999997e+00
-6.7185773252000001e+00
-6.7218131043999998e+00
-6.7250485761999999e+00
-6.7282837415000003e+00
-6.7315186016000004e+00
-6.7347531575000001e+00
-6.7379874102999997e+00
-6.7412213612000000e+00
-6.7444550111000003e+00
-6.7476883612999998e+00
-6.7509214128000004e+00
-6.7541541666000002e+00
-6.7573866239999996e+00
-6.7606187859000002e+00
-6.7638506533999996e+00
-6.7670822276999996e+00
-6.7703135097000002e+00
-6.7735445006999999e+00
-6.7767752014999996e+00
-6.7800056134000002e+00
-6.7832357374000001e+00
-6.7864655745000002e+00
-6.7896951257999998e+00
-6.7929243923999998e+00
-6.7961533754000003e+00
-6.7993820757999996e+00
-6.8026104945999997e+00
-6.8058386328999996e+00
-6.8090664917000003e+00
-6.8122940723000003e+00
-6.8155213755000004e+00
-6.8187484022999998e+00
-6.8219751539000004e+00
-6.8252016312999997e+00
-6.8284278356000003e+00
-6.8316537677999998e+00
-6.8348794287999999e+00
-6.8381048196999998e+00
-6.8413299416999998e+00
-6.8445547956999997e+00
-6.8477793826999998e+00
-6.8510037038000000e+00
-6.8542277599999997e+00
-6.8574515522999997e+00
-6.8606750817000002e+00
-6.8638983494000003e+00
-6.8671213561000002e+00
-6.8703441029999999e+00
-6.8735665912000004e+00
-6.8767888216999999e+00
-6.8800107951999996e+00
-6.8832325130000003e+00
-6.8864539761000003e+00
-6.8896751853999998e+00
-6.8928961419999997e+00
-6.8961168467000000e+00
-6.8993373007000001e+00
-6.9025575049999999e+00
-6.9057774606000004e+00
-6.9089971683000000e+00
-6.9122166292999996e+00
-6.9154358444000001e+00
-6.9186548147000000e+00
-6.9218735412000001e+00
-6.9250920249999997e+00
-6.9283102667999996e+00
-6.9315282677000001e+00
-6.9347460288000002e+00
-6.9379635509000002e+00
-6.9411808350999999e+00
-6.9443978823999997e+00
-6.9476146936000003e+00
-6.9508312697000001e+00
-6.9540476118000001e+00
-6.9572637209000003e+00
-6.9604795977000000e+00
-6.9636952434000001e+00
-6.9669106588999998e+00
-6.9701258451000001e+00
-6.9733408030000001e+00
-6.9765555336000000e+00
-6.9797700376999998e+00
-6.9829843164999996e+00
-6.9861983707000004e+00
-6.9894122014000004e+00
-6.9926258094999998e+00
-6.9958391960000004e+00
-6.9990523616999996e+00
-7.0022653077000001e+00
-7.0054780348000003e+00
-7.0086905440000002e+00
-7.0119028363000000e+00
-7.0151149125999996e+00
-7.0183267738000001e+00
-7.0215384207999998e+00
-7.0247498544999996e+00
-7.0279610761000004e+00
-7.0311720861999998e+00
-7.0343828858000004e+00
-7.0375934758999996e+00
-7.0408038574000003e+00
-7.0440140311999997e+00
-7.0472239981999998e+00
-7.0504337593999997e+00
-7.0536433155999996e+00
-7.0568526678000003e+00
-7.0600618169000002e+00
-7.0632707637000003e+00
-7.0664795092999997e+00
-7.0696880544000003e+00
-7.0728964001000003e+00
-7.0761045471999999e+00
-7.0793124966000001e+00
-7.0825202490999999e+00
-7.0857278058000004e+00
-7.0889351674999999e+00
-7.0921423350000001e+00
-7.0953493094000004e+00
-7.0985560913999999e+00
-7.1017626820000004e+00
-7.1049690821000002e+00
-7.1081752925000004e+00
-7.1113813141000000e+00
-7.1145871478000000e+00
-7.1177927944999997e+00
-7.1209982552000000e+00
-7.1242035306000000e+00
-7.1274086214999999e+00
-7.1306135289999997e+00
-7.1338182539000004e+00
-7.1370227970000002e+00
-7.1402271592000002e+00
-7.1434313415000004e+00
-7.1466353445999999e+00
-7.1498391693999999e+00
-7.1530428167000002e+00
-7.1562462876000001e+00
-7.1594495827999998e+00
-7.1626527031000000e+00
-7.1658556495000001e+00
-7.1690584227000000e+00
-7.1722610238000000e+00
-7.1754634532999999e+00
-7.1786657124000000e+00
-7.1818678017000002e+00
-7.1850697221999997e+00
-7.1882714746999996e+00
-7.1914730600999999e+00
-7.1946744791999997e+00
-7.1978757327000000e+00
-7.2010768217000001e+00
-7.2042777468999999e+00
-7.2074785091000004e+00
-7.2106791092000000e+00
-7.2138795481000004e+00
-7.2170798265000000e+00
-7.2202799453999997e+00
-7.2234799053999996e+00
-7.2266797075999998e+00
-7.2298793526000003e+00
-7.2330788413000002e+00
-7.2362781744999998e+00
-7.2394773531999999e+00
-7.2426763779999996e+00
-7.2458752499000001e+00
-7.2490739696000004e+00
-7.2522725378999997e+00
-7.2554709556999999e+00
-7.2586692238000001e+00
-7.2618673430999996e+00
-7.2650653141000001e+00
-7.2682631380000000e+00
-7.2714608154000002e+00
-7.2746583471999999e+00
-7.2778557341000001e+00
-7.2810529768999999e+00
-7.2842500765000002e+00
-7.2874470337000004e+00
-7.2906438493000003e+00
-7.2938405240000002e+00
-7.2970370587000000e+00
-7.3002334541999998e+00
-7.3034297112999997e+00
-7.3066258306999998e+00
-7.3098218133000001e+00
-7.3130176597999998e+00
-7.3162133709999999e+00
-7.3194089478000004e+00
-7.3226043909999996e+00
-7.3257997012000002e+00
-7.3289948793999997e+00
-7.3321899261999999e+00
-7.3353848423999999e+00
-7.3385796288999998e+00
-7.3417742863999997e+00
-7.3449688157999997e+00
-7.3481632176999998e+00
-7.3513574930000001e+00
-7.3545516423999997e+00
-7.3577456667999996e+00
-7.3609395666999999e+00
-7.3641333431999998e+00
-7.3673269969000001e+00
-7.3705205286000002e+00
-7.3737139388999999e+00
-7.3769072289000004e+00
-7.3801003990999998e+00
-7.3832934504000001e+00
-7.3864863835000003e+00
-7.3896791991999997e+00
-7.3928718983000001e+00
-7.3960644813999998e+00
-7.3992569492999998e+00
-7.4024493029000000e+00
-7.4056415427999998e+00
-7.4088336698999999e+00
-7.4120256848999997e+00
-7.4152175884000000e+00
-7.4184093813000000e+00
-7.4216010642999999e+00
-7.4247926381999996e+00
-7.4279841037000001e+00
-7.4311754615999996e+00
-7.4343667126000001e+00
-7.4375578573999999e+00
-7.4407488967999997e+00
-7.4439398314999998e+00
-7.4471306623000002e+00
-7.4503213899000000e+00
-7.4535120150000003e+00
-7.4567025384000001e+00
-7.4598929608000004e+00
-7.4630832828999996e+00
-7.4662735055000002e+00
-7.4694636292999999e+00
-7.4726536550000002e+00
-7.4758435832999997e+00
-7.4790334151000000e+00
-7.4822231510000003e+00
-7.4854127917000000e+00
-7.4886023378999997e+00
-7.4917917903999998e+00
-7.4949811499000001e+00
-7.4981704170999999e+00
-7.5013595928000001e+00
-7.5045486775999999e+00
-7.5077376722000002e+00
-7.5109265775000003e+00
-7.5141153940000001e+00
-7.5173041225999997e+00
-7.5204927639000001e+00
-7.5236813185000004e+00
-7.5268697873999999e+00
-7.5300581710000003e+00
-7.5332464702999999e+00
-7.5364346856999997e+00
-7.5396228180999998e+00
-7.5428108681000001e+00
-7.5459988365999999e+00
-7.5491867241000001e+00
-7.5523745313999999e+00
-7.5555622591000002e+00
-7.5587499081000002e+00
-7.5619374788000000e+00
-7.5651249721999996e+00
-7.5683123885999999e+00
-7.5714997292000001e+00
-7.5746869943000004e+00
-7.5778741846999997e+00
-7.5810613012000001e+00
-7.5842483442999997e+00
-7.5874353148000004e+00
-7.5906222133999997e+00
-7.5938090407000001e+00
-7.5969957975000000e+00
-7.6001824845000003e+00
-7.6033691022000003e+00
-7.6065556513999999e+00
-7.6097421328000001e+00
-7.6129285469000001e+00
-7.6161148946999999e+00
-7.6193011766999996e+00
-7.6224873934000001e+00
-7.6256735457999998e+00
-7.6288596344000004e+00
-7.6320456599000002e+00
-7.6352316229000001e+00
-7.6384175241000003e+00
-7.6416033642999999e+00
-7.6447891439999998e+00
-7.6479748639000000e+00
-7.6511605247999999e+00
-7.6543461273000002e+00
-7.6575316718000002e+00
-7.6607171593999999e+00
-7.6639025905000002e+00
-7.6670879659000004e+00
-7.6702732859999996e+00
-7.6734585516999996e+00
-7.6766437635999996e+00
-7.6798289222999996e+00
-7.6830140284999997e+00
-7.6861990830000000e+00
-7.6893840861999996e+00
-7.6925690388000003e+00
-7.6957539414999996e+00
-7.6989387951000001e+00
-7.7021236000000002e+00
-7.7053083569999998e+00
-7.7084930667000000e+00
-7.7116777296999999e+00
-7.7148623468000004e+00
-7.7180469183999998e+00
-7.7212314452999999e+00
-7.7244159281000000e+00
-7.7276003676000000e+00
-7.7307847642000000e+00
-7.7339691187000001e+00
-7.7371534316000004e+00
-7.7403377036999998e+00
-7.7435219354999996e+00
-7.7467061277000004e+00
-7.7498902808999999e+00
-7.7530743956999997e+00
-7.7562584728999999e+00
-7.7594425128999998e+00
-7.7626265165000001e+00
-7.7658104843000002e+00
-7.7689944169000000e+00
-7.7721783148999997e+00
-7.7753621790000000e+00
-7.7785460097000003e+00
-7.7817298077999997e+00
-7.7849135736999999e+00
-7.7880973082000002e+00
-7.7912810118999998e+00
-7.7944646854000004e+00
-7.7976483292000003e+00
-7.8008319440999996e+00
-7.8040155307000001e+00
-7.8071990896000001e+00
-7.8103826211999996e+00
-7.8135661263999996e+00
-7.8167496057000001e+00
-7.8199330597000003e+00
-7.8231164891000002e+00
-7.8262998942999999e+00
-7.8294832761000004e+00
-7.8326666350999998e+00
-7.8358499718000001e+00
-7.8390332869000003e+00
-7.8422165809999997e+00
-7.8453998547000001e+00
-7.8485831084999997e+00
-7.8517663432000004e+00
-7.8549495592999996e+00
-7.8581327572999999e+00
-7.8613159378999997e+00
-7.8644991016999999e+00
-7.8676822492999996e+00
-7.8708653813999998e+00
-7.8740484982999996e+00
-7.8772316009000001e+00
-7.8804146897000003e+00
-7.8835977652000002e+00
-7.8867808281000000e+00
-7.8899638788999997e+00
-7.8931469183000003e+00
-7.8963299467999999e+00
-7.8995129650999996e+00
-7.9026959736000002e+00
-7.9058789732000001e+00
-7.9090619641000002e+00
-7.9122449471999996e+00
-7.9154279229000002e+00
-7.9186108919000002e+00
-7.9217938546999997e+00
-7.9249768117999997e+00
-7.9281597641000001e+00
-7.9313427119000002e+00
-7.9345256557999999e+00
-7.9377085965000003e+00
-7.9408915344000004e+00
-7.9440744703000004e+00
-7.9472574046000002e+00
-7.9504403378999999e+00
-7.9536232709999997e+00
-7.9568062042000003e+00
-7.9599891381000001e+00
-7.9631720733000000e+00
-7.9663550106000001e+00
-7.9695379502000003e+00
-7.9727208929000000e+00
-7.9759038391999999e+00
-7.9790867897000002e+00
-7.9822697450000000e+00
-7.9854527055000002e+00
-7.9886356719000000e+00
-7.9918186448000004e+00
-7.9950016248000004e+00
-7.9981846122000002e+00
-8.0013676078000007e+00
-8.0045506120999992e+00
-8.0077336256000002e+00
-8.0109166490000003e+00
-8.0140996826999995e+00
-8.0172827273999996e+00
-8.0204657835000006e+00
-8.0236488518000009e+00
-8.0268319325000004e+00
-8.0300150264999992e+00
-8.0331981339999992e+00
-8.0363812560000003e+00
-8.0395643926999991e+00
-8.0427475446999992e+00
-8.0459307128000006e+00
-8.0491138972999998e+00
-8.0522970986000004e+00
-8.0554803177000007e+00
-8.0586635548000007e+00
-8.0618468105000005e+00
-8.0650300856000001e+00
-8.0682133802999996e+00
-8.0713966953000007e+00
-8.0745800311000000e+00
-8.0777633882999993e+00
-8.0809467674000004e+00
-8.0841301688999998e+00
-8.0873135935999994e+00
-8.0904970416000008e+00
-8.0936805138000008e+00
-8.0968640104999992e+00
-8.1000475324999996e+00
-8.1032310800000005e+00
-8.1064146538999999e+00
-8.1095982543999998e+00
-8.1127818823000002e+00
-8.1159655378999993e+00
-8.1191492219000008e+00
-8.1223329348999993e+00
-8.1255166771000003e+00
-8.1287004494000001e+00
-8.1318842521000008e+00
-8.1350680858000004e+00
-8.1382519510000009e+00
-8.1414358483000004e+00
-8.1446197781999992e+00
-8.1478037412000006e+00
-8.1509877376999995e+00
-8.1541717684999995e+00
-8.1573558339000005e+00
-8.1605399345999992e+00
-8.1637240709000007e+00
-8.1669082434000000e+00
-8.1700924528000005e+00
-8.1732766994000006e+00
-8.1764609838000002e+00
-8.1796453064999994e+00
-8.1828296681000001e+00
-8.1860140690000005e+00
-8.1891985097000006e+00
-8.1923829909000006e+00
-8.1955675129000003e+00
-8.1987520762999999e+00
-8.2019366815999994e+00
-8.2051213295000007e+00
-8.2083060202000002e+00
-8.2114907542999998e+00
-8.2146755323999994e+00
-8.2178603549999991e+00
-8.2210452226000008e+00
-8.2242301355999992e+00
-8.2274150946999995e+00
-8.2306001002000002e+00
-8.2337851526999994e+00
-8.2369702528000008e+00
-8.2401554008000009e+00
-8.2433405973999996e+00
-8.2465258429000006e+00
-8.2497111381000003e+00
-8.2528964831000007e+00
-8.2560818787999999e+00
-8.2592673253999997e+00
-8.2624528235000003e+00
-8.2656383736999999e+00
-8.2688239764000002e+00
-8.2720096319999996e+00
-8.2751953411999999e+00
-8.2783811043999993e+00
-8.2815669220999997e+00
-8.2847527947999993e+00
-8.2879387229999999e+00
-8.2911247069999998e+00
-8.2943107476000009e+00
-8.2974968450999995e+00
-8.3006830001999994e+00
-8.3038692131000005e+00
-8.3070554843999993e+00
-8.3102418145999994e+00
-8.3134282041999992e+00
-8.3166146538000003e+00
-8.3198011636999993e+00
-8.3229877344999998e+00
-8.3261743666000001e+00
-8.3293610606000001e+00
-8.3325478168000000e+00
-8.3357346357999997e+00
-8.3389215181999994e+00
-8.3421084642000007e+00
-8.3452954746000003e+00
-8.3484825495999999e+00
-8.3516696897999996e+00
-8.3548568956999993e+00
-8.3580441677999993e+00
-8.3612315064999994e+00
-8.3644189122999997e+00
-8.3676063857000003e+00
-8.3707939270999994e+00
-8.3739815371000006e+00
-8.3771692161000004e+00
-8.3803569646000007e+00
-8.3835447830999996e+00
-8.3867326720000008e+00
-8.3899206317000008e+00
-8.3931086627999996e+00
-8.3962967658000007e+00
-8.3994849411000008e+00
-8.4026731891999997e+00
-8.4058615104999994e+00
-8.4090499054999999e+00
-8.4122383746999994e+00
-8.4154269184999997e+00
-8.4186155375999991e+00
-8.4218042320999995e+00
-8.4249930027000008e+00
-8.4281818497999996e+00
-8.4313707738999994e+00
-8.4345597754000003e+00
-8.4377488549000006e+00
-8.4409380126000002e+00
-8.4441272491999992e+00
-8.4473165650999995e+00
-8.4505059605999993e+00
-8.4536954364000003e+00
-8.4568849928999992e+00
-8.4600746303999994e+00
-8.4632643494999993e+00
-8.4664541507000006e+00
-8.4696440341999999e+00
-8.4728340009000007e+00
-8.4760240506999995e+00
-8.4792141846000000e+00
-8.4824044026000003e+00
-8.4855947055000005e+00
-8.4887850935000007e+00
-8.4919755671000008e+00
-8.4951661268999992e+00
-8.4983567732999994e+00
-8.5015475065999997e+00
-8.5047383274000001e+00
-8.5079292360000007e+00
-8.5111202330999998e+00
-8.5143113188000008e+00
-8.5175024939000004e+00
-8.5206937586000002e+00
-8.5238851135000004e+00
-8.5270765589999993e+00
-8.5302680954000003e+00
-8.5334597233000000e+00
-8.5366514431000002e+00
-8.5398432552999992e+00
-8.5430351602000005e+00
-8.5462271584000007e+00
-8.5494192501999997e+00
-8.5526114361999994e+00
-8.5558037166999998e+00
-8.5589960921999992e+00
-8.5621885630999994e+00
-8.5653811299000004e+00
-8.5685737929000005e+00
-8.5717665527999998e+00
-8.5749594096999999e+00
-8.5781523642999993e+00
-8.5813454168999996e+00
-8.5845385679999993e+00
-8.5877318180000000e+00
-8.5909251673000000e+00
-8.5941186163999994e+00
-8.5973121658000000e+00
-8.6005058157000001e+00
-8.6036995666999996e+00
-8.6068934192000004e+00
-8.6100873737000008e+00
-8.6132814304000007e+00
-8.6164755900000003e+00
-8.6196698526999995e+00
-8.6228642191000002e+00
-8.6260586896000007e+00
-8.6292532645000009e+00
-8.6324479444000008e+00
-8.6356427296000007e+00
-8.6388376205000004e+00
-8.6420326177000000e+00
-8.6452277213999995e+00
-8.6484229322000008e+00
-8.6516182504000003e+00
-8.6548136764999999e+00
-8.6580092108999995e+00
-8.6612048539999993e+00
-8.6644006062999992e+00
-8.6675964679999993e+00
-8.6707924397999996e+00
-8.6739885219000001e+00
-8.6771847148999992e+00
-8.6803810191000004e+00
-8.6835774350000001e+00
-8.6867739628000002e+00
-8.6899706031000008e+00
-8.6931673564000000e+00
-8.6963642228999998e+00
-8.6995612032000000e+00
-8.7027582976000009e+00
-8.7059555064000005e+00
-8.7091528302000007e+00
-8.7123502694999999e+00
-8.7155478244999998e+00
-8.7187454957000003e+00
-8.7219432833999999e+00
-8.7251411883000003e+00
-8.7283392103999997e+00
-8.7315373504000000e+00
-8.7347356086999994e+00
-8.7379339854999998e+00
-8.7411324813999993e+00
-8.7443310967999999e+00
-8.7475298319999997e+00
-8.7507286874000005e+00
-8.7539276636000007e+00
-8.7571267607000003e+00
-8.7603259793999992e+00
-8.7635253198999994e+00
-8.7667247827000008e+00
-8.7699243680999999e+00
-8.7731240767000003e+00
-8.7763239088000002e+00
-8.7795238646999998e+00
-8.7827239449000007e+00
-8.7859241496999996e+00
-8.7891244795999999e+00
-8.7923249350999999e+00
-8.7955255163999997e+00
-8.7987262238999993e+00
-8.8019270582000004e+00
-8.8051280193999997e+00
-8.8083291081000006e+00
-8.8115303246999996e+00
-8.8147316696000004e+00
-8.8179331430999994e+00
-8.8211347456000002e+00
-8.8243364775999993e+00
-8.8275383393000002e+00
-8.8307403312999995e+00
-8.8339424539000007e+00
-8.8371447075000003e+00
-8.8403470924000001e+00
-8.8435496092000001e+00
-8.8467522581000004e+00
-8.8499550394999993e+00
-8.8531579539000003e+00
-8.8563610015999998e+00
-8.8595641830999998e+00
-8.8627674987000002e+00
-8.8659709486999994e+00
-8.8691745336000007e+00
-8.8723782537999991e+00
-8.8755821096999998e+00
-8.8787861015999994e+00
-8.8819902297999995e+00
-8.8851944949000004e+00
-8.8883988972000001e+00
-8.8916034371000006e+00
-8.8948081148000000e+00
-8.8980129310000002e+00
-8.9012178857999995e+00
-8.9044229797999996e+00
-8.9076282131000006e+00
-8.9108335864000008e+00
-8.9140390999000001e+00
-8.9172447540000004e+00
-8.9204505490999999e+00
-8.9236564856000005e+00
-8.9268625638000003e+00
-8.9300687840999995e+00
-8.9332751468999998e+00
-8.9364816525999995e+00
-8.9396883016000004e+00
-8.9428950941000007e+00
-8.9461020307000005e+00
-8.9493091115999999e+00
-8.9525163372000005e+00
-8.9557237081000007e+00
-8.9589312244000006e+00
-8.9621388866000000e+00
-8.9653466948999991e+00
-8.9685546498999997e+00
-8.9717627519000001e+00
-8.9749710012000001e+00
-8.9781793983000000e+00
-8.9813879432999997e+00
-8.9845966369999992e+00
-8.9878054793000004e+00
-8.9910144708999997e+00
-8.9942236120000008e+00
-8.9974329031000000e+00
-9.0006423444999992e+00
-9.0038519365000003e+00
-9.0070616795999996e+00
-9.0102715740000008e+00
-9.0134816202000003e+00
-9.0166918185000000e+00
-9.0199021692999999e+00
-9.0231126729000000e+00
-9.0263233298000003e+00
-9.0295341401999991e+00
-9.0327451045000000e+00
-9.0359562231999995e+00
-9.0391674964999993e+00
-9.0423789246999995e+00
-9.0455905085000001e+00
-9.0488022478999994e+00
-9.0520141432999992e+00
-9.0552261953999995e+00
-9.0584384041000003e+00
-9.0616507701000000e+00
-9.0648632935000002e+00
-9.0680759748999993e+00
-9.0712888145000008e+00
-9.0745018125999994e+00
-9.0777149698000006e+00
-9.0809282862000007e+00
-9.0841417623999998e+00
-9.0873553984999997e+00
-9.0905691950000005e+00
-9.0937831522000003e+00
-9.0969972704999993e+00
-9.1002115502999992e+00
-9.1034259918000000e+00
-9.1066405955000000e+00
-9.1098553615999993e+00
-9.1130702904999996e+00
-9.1162853827999992e+00
-9.1195006384999999e+00
-9.1227160580000000e+00
-9.1259316417999994e+00
-9.1291473902000000e+00
-9.1323633035000000e+00
-9.1355793820999995e+00
-9.1387956264000003e+00
-9.1420120366000006e+00
-9.1452286131000005e+00
-9.1484453562999999e+00
-9.1516622666000007e+00
-9.1548793441999994e+00
-9.1580965894999995e+00
-9.1613140027999993e+00
-9.1645315846000006e+00
-9.1677493349999999e+00
-9.1709672546000007e+00
-9.1741853434999996e+00
-9.1774036022000001e+00
-9.1806220311000004e+00
-9.1838406303000006e+00
-9.1870594005000008e+00
-9.1902783415999991e+00
-9.1934974542999992e+00
-9.1967167387999993e+00
-9.1999361953999994e+00
-9.2031558245999996e+00
-9.2063756264999999e+00
-9.2095956017000002e+00
-9.2128157502000008e+00
-9.2160360725999997e+00
-9.2192565693000006e+00
-9.2224772405000000e+00
-9.2256980864999996e+00
-9.2289191076999995e+00
-9.2321403043999997e+00
-9.2353616769000002e+00
-9.2385832256999993e+00
-9.2418049510000007e+00
-9.2450268531000006e+00
-9.2482489324999992e+00
-9.2514711894000001e+00
-9.2546936240999997e+00
-9.2579162369999999e+00
-9.2611390284000006e+00
-9.2643619987000001e+00
-9.2675851482000002e+00
-9.2708084771999992e+00
-9.2740319861000007e+00
-9.2772556750999993e+00
-9.2804795446000004e+00
-9.2837035949000004e+00
-9.2869278263999995e+00
-9.2901522393999993e+00
-9.2933768343000001e+00
-9.2966016111999998e+00
-9.2998265707000005e+00
-9.3030517129000003e+00
-9.3062770381999993e+00
-9.3095025469999992e+00
-9.3127282397000002e+00
-9.3159541163000004e+00
-9.3191801774999998e+00
-9.3224064234000004e+00
-9.3256328543000002e+00
-9.3288594705999994e+00
-9.3320862726999998e+00
-9.3353132607999996e+00
-9.3385404353000006e+00
-9.3417677964999992e+00
-9.3449953445999991e+00
-9.3482230801000004e+00
-9.3514510032999993e+00
-9.3546791143999997e+00
-9.3579074137999996e+00
-9.3611359018999991e+00
-9.3643645788000001e+00
-9.3675934450000007e+00
-9.3708225007999992e+00
-9.3740517465999993e+00
-9.3772811824000009e+00
-9.3805108088000004e+00
-9.3837406259999998e+00
-9.3869706344000008e+00
-9.3902008342999999e+00
-9.3934312259000006e+00
-9.3966618097999994e+00
-9.3998925859000000e+00
-9.4031235548000005e+00
-9.4063547167999992e+00
-9.4095860720999998e+00
-9.4128176211000003e+00
-9.4160493640999992e+00
-9.4192813013999999e+00
-9.4225134332000007e+00
-9.4257457600999999e+00
-9.4289782821999992e+00
-9.4322109998000006e+00
-9.4354439133000003e+00
-9.4386770230000003e+00
-9.4419103291000006e+00
-9.4451438320999994e+00
-9.4483775321000003e+00
-9.4516114294999998e+00
-9.4548455246999996e+00
-9.4580798178999999e+00
-9.4613143094000005e+00
-9.4645489995999998e+00
-9.4677838886999997e+00
-9.4710189771000000e+00
-9.4742542650000008e+00
-9.4774897528000004e+00
-9.4807254409000006e+00
-9.4839613293999996e+00
-9.4871974186999992e+00
-9.4904337090999995e+00
-9.4936702008000005e+00
-9.4969068943000003e+00
-9.5001437897999992e+00
-9.5033808876000005e+00
-9.5066181879999991e+00
-9.5098556913000003e+00
-9.5130933978000005e+00
-9.5163313079999998e+00
-9.5195694219000000e+00
-9.5228077398999993e+00
-9.5260462622999995e+00
-9.5292849895000007e+00
-9.5325239216999993e+00
-9.5357630592000007e+00
-9.5390024023999995e+00
-9.5422419514999994e+00
-9.5454817068000004e+00
-9.5487216686000007e+00
-9.5519618373000004e+00
-9.5552022129999994e+00
-9.5584427961999996e+00
-9.5616835871999992e+00
-9.5649245861000001e+00
-9.5681657934000004e+00
-9.5714072091000002e+00
-9.5746488338999995e+00
-9.5778906679000002e+00
-9.5811327113000004e+00
-9.5843749645000003e+00
-9.5876174277999997e+00
-9.5908601015000006e+00
-9.5941029858999993e+00
-9.5973460811999995e+00
-9.6005893877999995e+00
-9.6038329057999992e+00
-9.6070766359000004e+00
-9.6103205778999996e+00
-9.6135647324000004e+00
-9.6168090996999993e+00
-9.6200536798999998e+00
-9.6232984735000002e+00
-9.6265434806000005e+00
-9.6297887016000008e+00
-9.6330341368999992e+00
-9.6362797864999994e+00
-9.6395256508999996e+00
-9.6427717303999998e+00
-9.6460180251000001e+00
-9.6492645355000004e+00
-9.6525112618000009e+00
-9.6557582041999996e+00
-9.6590053632000004e+00
-9.6622527388999995e+00
-9.6655003316000005e+00
-9.6687481417000001e+00
-9.6719961694999999e+00
-9.6752444151999999e+00
-9.6784928790000002e+00
-9.6817415612000008e+00
-9.6849904624000001e+00
-9.6882395824999996e+00
-9.6914889219999996e+00
-9.6947384809999999e+00
-9.6979882600000007e+00
-9.7012382591000001e+00
-9.7044884788000001e+00
-9.7077389191000005e+00
-9.7109895804999997e+00
-9.7142404632999995e+00
-9.7174915675999998e+00
-9.7207428937000007e+00
-9.7239944420000004e+00
-9.7272462129000008e+00
-9.7304982063000001e+00
-9.7337504228000000e+00
-9.7370028626000007e+00
-9.7402555259000003e+00
-9.7435084130000007e+00
-9.7467615243000001e+00
-9.7500148599000003e+00
-9.7532684201999995e+00
-9.7565222054999996e+00
-9.7597762160000006e+00
-9.7630304519000006e+00
-9.7662849136999998e+00
-9.7695396015000000e+00
-9.7727945156999994e+00
-9.7760496563999997e+00
-9.7793050239999992e+00
-9.7825606187999998e+00
-9.7858164408999997e+00
-9.7890724909000006e+00
-9.7923287687999991e+00
-9.7955852750000005e+00
-9.7988420095999995e+00
-9.8020989730999997e+00
-9.8053561656999992e+00
-9.8086135876000000e+00
-9.8118712391000003e+00
-9.8151291205000000e+00
-9.8183872319999992e+00
-9.8216455740999997e+00
-9.8249041467999998e+00
-9.8281629504999994e+00
-9.8314219854000005e+00
-9.8346812518999993e+00
-9.8379407500999996e+00
-9.8412004803999995e+00
-9.8444604430999991e+00
-9.8477206383000002e+00
-9.8509810663999993e+00
-9.8542417275999998e+00
-9.8575026222000002e+00
-9.8607637505000003e+00
-9.8640251128000003e+00
-9.8672867091000001e+00
-9.8705485399999997e+00
-9.8738106056999992e+00
-9.8770729064000005e+00
-9.8803354422999998e+00
-9.8835982137999991e+00
-9.8868612210000002e+00
-9.8901244642999995e+00
-9.8933879440000005e+00
-9.8966516602999999e+00
-9.8999156133999993e+00
-9.9031798037000005e+00
-9.9064442313000001e+00
-9.9097088964999998e+00
-9.9129737996999996e+00
-9.9162389411999996e+00
-9.9195043209999998e+00
-9.9227699395000002e+00
-9.9260357970000008e+00
-9.9293018937999999e+00
-9.9325682299999993e+00
-9.9358348059000008e+00
-9.9391016219000008e+00
-9.9423686781999994e+00
-9.9456359749000001e+00
-9.9489035125999994e+00
-9.9521712912000009e+00
-9.9554393110999992e+00
-9.9587075725999998e+00
-9.9619760759999991e+00
-9.9652448215000007e+00
-9.9685138091999992e+00
-9.9717830396000000e+00
-9.9750525128999996e+00
-9.9783222291999998e+00
-9.9815921889000006e+00
-9.9848623924000002e+00
-9.9881328397000004e+00
-9.9914035310999996e+00
-9.9946744669999994e+00
-9.9979456473999999e+00
-1.0001217072799999e+01
-1.0004488743400000e+01
-1.0007760659500001e+01
-1.0011032821200001e+01
-1.0014305228800000e+01
-1.0017577882599999e+01
-1.0020850782800000e+01
-1.0024123929800000e+01
-1.0027397323800001e+01
-1.0030670964900001e+01
-1.0033944853400000e+01
-1.0037218989799999e+01
-1.0040493374000000e+01
-1.0043768006500001e+01
-1.0047042887400000e+01
-1.0050318017100000e+01
-1.0053593395700000e+01
-1.0056869023499999e+01
-1.0060144900799999e+01
-1.0063421027800000e+01
-1.0066697404899999e+01
-1.0069974032099999e+01
-1.0073250909700000e+01
-1.0076528038199999e+01
-1.0079805417599999e+01
-1.0083083048200001e+01
-1.0086360930300000e+01
-1.0089639064000000e+01
-1.0092917449800000e+01
-1.0096196087699999e+01
-1.0099474978200000e+01
-1.0102754121300000e+01
-1.0106033517400000e+01
-1.0109313166600000e+01
-1.0112593069300001e+01
-1.0115873225700000e+01
-1.0119153636100000e+01
-1.0122434300600000e+01
-1.0125715219500000e+01
-1.0128996393100000e+01
-1.0132277821700001e+01
-1.0135559505400000e+01
-1.0138841444400001e+01
-1.0142123639299999e+01
-1.0145406089900000e+01
-1.0148688796600000e+01
-1.0151971759900000e+01
-1.0155254979700000e+01
-1.0158538456300001e+01
-1.0161822190100001e+01
-1.0165106181200001e+01
-1.0168390429900001e+01
-1.0171674936500001e+01
-1.0174959701100001e+01
-1.0178244724100001e+01
-1.0181530005500001e+01
-1.0184815545799999e+01
-1.0188101345200000e+01
-1.0191387403900000e+01
-1.0194673721999999e+01
-1.0197960299800000e+01
-1.0201247137799999e+01
-1.0204534235900001e+01
-1.0207821594500000e+01
-1.0211109213900000e+01
-1.0214397094200001e+01
-1.0217685235699999e+01
-1.0220973638500000e+01
-1.0224262303100000e+01
-1.0227551229600000e+01
-1.0230840418300000e+01
-1.0234129869200000e+01
-1.0237419582899999e+01
-1.0240709559400001e+01
-1.0243999798899999e+01
-1.0247290301800000e+01
-1.0250581068300001e+01
-1.0253872098500000e+01
-1.0257163392800001e+01
-1.0260454951400000e+01
-1.0263746774399999e+01
-1.0267038862100000e+01
-1.0270331214900001e+01
-1.0273623832800000e+01
-1.0276916716200001e+01
-1.0280209865300000e+01
-1.0283503280300000e+01
-1.0286796961400000e+01
-1.0290090908800000e+01
-1.0293385122900000e+01
-1.0296679603799999e+01
-1.0299974351800000e+01
-1.0303269367000000e+01
-1.0306564649900000e+01
-1.0309860200399999e+01
-1.0313156018999999e+01
-1.0316452105700000e+01
-1.0319748460900000e+01
-1.0323045084900000e+01
-1.0326341977700000e+01
-1.0329639139699999e+01
-1.0332936570899999e+01
-1.0336234271900000e+01
-1.0339532242700001e+01
-1.0342830483500000e+01
-1.0346128994600001e+01
-1.0349427776200001e+01
-1.0352726828600000e+01
-1.0356026151900000e+01
-1.0359325746500000e+01
-1.0362625612500000e+01
-1.0365925750200001e+01
-1.0369226159700000e+01
-1.0372526841199999e+01
-1.0375827795199999e+01
-1.0379129021700001e+01
-1.0382430521100000e+01
-1.0385732293400000e+01
-1.0389034338900000e+01
-1.0392336658000000e+01
-1.0395639250600000e+01
-1.0398942117200001e+01
-1.0402245258000001e+01
-1.0405548673200000e+01
-1.0408852362899999e+01
-1.0412156327400000e+01
-1.0415460567000000e+01
-1.0418765081900000e+01
-1.0422069872100000e+01
-1.0425374938099999e+01
-1.0428680280000000e+01
-1.0431985898100001e+01
-1.0435291792599999e+01
-1.0438597963699999e+01
-1.0441904411499999e+01
-1.0445211136499999e+01
-1.0448518138600001e+01
-1.0451825418300000e+01
-1.0455132975700000e+01
-1.0458440810900001e+01
-1.0461748924300000e+01
-1.0465057316099999e+01
-1.0468365986500000e+01
-1.0471674935599999e+01
-1.0474984163900000e+01
-1.0478293671299999e+01
-1.0481603458100000e+01
-1.0484913524700000e+01
-1.0488223871200001e+01
-1.0491534497800000e+01
-1.0494845404699999e+01
-1.0498156592200001e+01
-1.0501468060500001e+01
-1.0504779809700000e+01
-1.0508091840200001e+01
-1.0511404152000001e+01
-1.0514716745499999e+01
-1.0518029621000000e+01
-1.0521342778399999e+01
-1.0524656218100001e+01
-1.0527969940300000e+01
-1.0531283945400000e+01
-1.0534598233200001e+01
-1.0537912804299999e+01
-1.0541227658700000e+01
-1.0544542796700000e+01
-1.0547858218600000e+01
-1.0551173924400000e+01
-1.0554489914400000e+01
-1.0557806188900001e+01
-1.0561122748100001e+01
-1.0564439592099999e+01
-1.0567756721200000e+01
-1.0571074135600000e+01
-1.0574391835500000e+01
-1.0577709821099999e+01
-1.0581028092600000e+01
-1.0584346650300001e+01
-1.0587665494399999e+01
-1.0590984625100001e+01
-1.0594304042499999e+01
-1.0597623747000000e+01
-1.0600943738500000e+01
-1.0604264017600000e+01
-1.0607584584200000e+01
-1.0610905438700000e+01
-1.0614226581300001e+01
-1.0617548012000000e+01
-1.0620869731399999e+01
-1.0624191739300000e+01
-1.0627514036099999e+01
-1.0630836622100000e+01
-1.0634159497300001e+01
-1.0637482662100000e+01
-1.0640806116500000e+01
-1.0644129861000000e+01
-1.0647453895600000e+01
-1.0650778220399999e+01
-1.0654102836000000e+01
-1.0657427742099999e+01
-1.0660752939400000e+01
-1.0664078427700000e+01
-1.0667404207500001e+01
-1.0670730278900001e+01
-1.0674056642100000e+01
-1.0677383297300000e+01
-1.0680710244600000e+01
-1.0684037484499999e+01
-1.0687365016899999e+01
-1.0690692842200001e+01
-1.0694020960400000e+01
-1.0697349372000000e+01
-1.0700678076999999e+01
-1.0704007075600000e+01
-1.0707336368100000e+01
-1.0710665954700000e+01
-1.0713995835500000e+01
-1.0717326010800001e+01
-1.0720656480800001e+01
-1.0723987245600000e+01
-1.0727318305500001e+01
-1.0730649660699999e+01
-1.0733981311499999e+01
-1.0737313257800000e+01
-1.0740645500099999e+01
-1.0743978038500000e+01
-1.0747310873200000e+01
-1.0750644004300000e+01
-1.0753977432199999e+01
-1.0757311157000000e+01
-1.0760645178900001e+01
-1.0763979497999999e+01
-1.0767314114700000e+01
-1.0770649029099999e+01
-1.0773984241400001e+01
-1.0777319751800000e+01
-1.0780655560600000e+01
-1.0783991667800001e+01
-1.0787328073699999e+01
-1.0790664778500000e+01
-1.0794001782500001e+01
-1.0797339085699999e+01
-1.0800676688499999e+01
-1.0804014591000000e+01
-1.0807352793400000e+01
-1.0810691295900000e+01
-1.0814030098500000e+01
-1.0817369201900000e+01
-1.0820708605800000e+01
-1.0824048310700000e+01
-1.0827388316700000e+01
-1.0830728623900001e+01
-1.0834069232599999e+01
-1.0837410143000000e+01
-1.0840751355300000e+01
-1.0844092869600001e+01
-1.0847434686300000e+01
-1.0850776805400001e+01
-1.0854119227200000e+01
-1.0857461951800000e+01
-1.0860804979499999e+01
-1.0864148310399999e+01
-1.0867491944799999e+01
-1.0870835882800000e+01
-1.0874180124700001e+01
-1.0877524670600000e+01
-1.0880869520699999e+01
-1.0884214675200001e+01
-1.0887560134399999e+01
-1.0890905898300000e+01
-1.0894251967200001e+01
-1.0897598341400000e+01
-1.0900945020900000e+01
-1.0904292006100000e+01
-1.0907639296999999e+01
-1.0910986893900001e+01
-1.0914334796900000e+01
-1.0917683006300001e+01
-1.0921031522100000e+01
-1.0924380344799999e+01
-1.0927729474400000e+01
-1.0931078911100000e+01
-1.0934428655100000e+01
-1.0937778706600000e+01
-1.0941129065800000e+01
-1.0944479733000000e+01
-1.0947830708100000e+01
-1.0951181991500000e+01
-1.0954533583400000e+01
-1.0957885483900000e+01
-1.0961237693299999e+01
-1.0964590211699999e+01
-1.0967943039300000e+01
-1.0971296176399999e+01
-1.0974649622899999e+01
-1.0978003379300000e+01
-1.0981357445700000e+01
-1.0984711822200000e+01
-1.0988066509099999e+01
-1.0991421506500000e+01
-1.0994776814600000e+01
-1.0998132433700000e+01
-1.1001488363900000e+01
-1.1004844605400001e+01
-1.1008201158300000e+01
-1.1011558022899999e+01
-1.1014915199300001e+01
-1.1018272687800000e+01
-1.1021630488500000e+01
-1.1024988601500000e+01
-1.1028347027300001e+01
-1.1031705765700000e+01
-1.1035064817200000e+01
-1.1038424181800000e+01
-1.1041783859800001e+01
-1.1045143851300001e+01
-1.1048504156500000e+01
-1.1051864775600000e+01
-1.1055225708700000e+01
-1.1058586956299999e+01
-1.1061948518099999e+01
-1.1065310394600001e+01
-1.1068672585900000e+01
-1.1072035092300000e+01
-1.1075397913900000e+01
-1.1078761050800001e+01
-1.1082124503199999e+01
-1.1085488271499999e+01
-1.1088852355600000e+01
-1.1092216755800001e+01
-1.1095581472399999e+01
-1.1098946505400001e+01
-1.1102311855100000e+01
-1.1105677521500001e+01
-1.1109043505000001e+01
-1.1112409805700000e+01
-1.1115776423800000e+01
-1.1119143359400001e+01
-1.1122510612799999e+01
-1.1125878184099999e+01
-1.1129246073599999e+01
-1.1132614281300000e+01
-1.1135982807500000e+01
-1.1139351652300000e+01
-1.1142720815900001e+01
-1.1146090298600001e+01
-1.1149460100500001e+01
-1.1152830221700000e+01
-1.1156200662400000e+01
-1.1159571422899999e+01
-1.1162942503400000e+01
-1.1166313903900001e+01
-1.1169685624600000e+01
-1.1173057665900000e+01
-1.1176430027700000e+01
-1.1179802710300001e+01
-1.1183175713900001e+01
-1.1186549038700001e+01
-1.1189922684800001e+01
-1.1193296652500001e+01
-1.1196670941800001e+01
-1.1200045553000001e+01
-1.1203420486300001e+01
-1.1206795741700001e+01
-1.1210171319500001e+01
-1.1213547220000001e+01
-1.1216923443200001e+01
-1.1220299989400001e+01
-1.1223676858599999e+01
-1.1227054051100000e+01
-1.1230431567200000e+01
-1.1233809406800001e+01
-1.1237187570300000e+01
-1.1240566057700001e+01
-1.1243944869300000e+01
-1.1247324005199999e+01
-1.1250703465699999e+01
-1.1254083250900001e+01
-1.1257463360899999e+01
-1.1260843795900000e+01
-1.1264224556200000e+01
-1.1267605641899999e+01
-1.1270987053100001e+01
-1.1274368790000000e+01
-1.1277750852900001e+01
-1.1281133241899999e+01
-1.1284515957000000e+01
-1.1287898998699999e+01
-1.1291282366900001e+01
-1.1294666061899999e+01
-1.1298050083900000e+01
-1.1301434433000001e+01
-1.1304819109300000e+01
-1.1308204113200000e+01
-1.1311589444599999e+01
-1.1314975104000000e+01
-1.1318361091200000e+01
-1.1321747406600000e+01
-1.1325134050400001e+01
-1.1328521022600000e+01
-1.1331908323500000e+01
-1.1335295953299999e+01
-1.1338683912100000e+01
-1.1342072200000000e+01
-1.1345460817299999e+01
-1.1348849764100001e+01
-1.1352239040600001e+01
-1.1355628647000000e+01
-1.1359018583399999e+01
-1.1362408850000000e+01
-1.1365799447000001e+01
-1.1369190374600000e+01
-1.1372581632799999e+01
-1.1375973221900001e+01
-1.1379365141999999e+01
-1.1382757393500000e+01
-1.1386149976200000e+01
-1.1389542890500000e+01
-1.1392936136599999e+01
-1.1396329714600000e+01
-1.1399723624500000e+01
-1.1403117866800001e+01
-1.1406512441400000e+01
-1.1409907348500001e+01
-1.1413302588500001e+01
-1.1416698161299999e+01
-1.1420094067200001e+01
-1.1423490306300000e+01
-1.1426886878800000e+01
-1.1430283784900000e+01
-1.1433681024700000e+01
-1.1437078598499999e+01
-1.1440476506200000e+01
-1.1443874748200001e+01
-1.1447273324599999e+01
-1.1450672235600001e+01
-1.1454071481200000e+01
-1.1457471061900000e+01
-1.1460870977500001e+01
-1.1464271228399999e+01
-1.1467671814599999e+01
-1.1471072736500000e+01
-1.1474473994100000e+01
-1.1477875587500000e+01
-1.1481277516900001e+01
-1.1484679782600001e+01
-1.1488082384700000e+01
-1.1491485323299999e+01
-1.1494888598499999e+01
-1.1498292210800001e+01
-1.1501696160000000e+01
-1.1505100446300000e+01
-1.1508505070200000e+01
-1.1511910031399999e+01
-1.1515315330300000e+01
-1.1518720967200000e+01
-1.1522126942000000e+01
-1.1525533255099999e+01
-1.1528939906400000e+01
-1.1532346896200000e+01
-1.1535754224700000e+01
-1.1539161891999999e+01
-1.1542569898400000e+01
-1.1545978243700000e+01
-1.1549386928500001e+01
-1.1552795952700000e+01
-1.1556205316600000e+01
-1.1559615020200001e+01
-1.1563025063800000e+01
-1.1566435447400000e+01
-1.1569846171500000e+01
-1.1573257235800000e+01
-1.1576668640799999e+01
-1.1580080386600001e+01
-1.1583492473300000e+01
-1.1586904901000000e+01
-1.1590317669899999e+01
-1.1593730780400000e+01
-1.1597144232300000e+01
-1.1600558025800000e+01
-1.1603972161400000e+01
-1.1607386638900000e+01
-1.1610801458599999e+01
-1.1614216620700001e+01
-1.1617632125300000e+01
-1.1621047972400000e+01
-1.1624464162600001e+01
-1.1627880695600000e+01
-1.1631297571799999e+01
-1.1634714791200000e+01
-1.1638132354100000e+01
-1.1641550260700001e+01
-1.1644968511000000e+01
-1.1648387105299999e+01
-1.1651806043500001e+01
-1.1655225326100000e+01
-1.1658644953100000e+01
-1.1662064924599999e+01
-1.1665485240800001e+01
-1.1668905902000001e+01
-1.1672326908000001e+01
-1.1675748259300001e+01
-1.1679169956000001e+01
-1.1682591998099999e+01
-1.1686014385900000e+01
-1.1689437119500001e+01
-1.1692860199000000e+01
-1.1696283624599999e+01
-1.1699707396599999e+01
-1.1703131515000001e+01
-1.1706555979799999e+01
-1.1709980791600000e+01
-1.1713405950100000e+01
-1.1716831455700000e+01
-1.1720257308500001e+01
-1.1723683508700001e+01
-1.1727110056300001e+01
-1.1730536951700000e+01
-1.1733964194800000e+01
-1.1737391785900000e+01
-1.1740819725100000e+01
-1.1744248012600000e+01
-1.1747676648600001e+01
-1.1751105633000000e+01
-1.1754534966300000e+01
-1.1757964648400000e+01
-1.1761394679700000e+01
-1.1764825060000000e+01
-1.1768255789800000e+01
-1.1771686868900000e+01
-1.1775118297800001e+01
-1.1778550076500000e+01
-1.1781982205200000e+01
-1.1785414683899999e+01
-1.1788847512900000e+01
-1.1792280692300000e+01
-1.1795714222300001e+01
-1.1799148103000000e+01
-1.1802582334500000e+01
-1.1806016917099999e+01
-1.1809451850800000e+01
-1.1812887135800000e+01
-1.1816322772400000e+01
-1.1819758760499999e+01
-1.1823195100300000e+01
-1.1826631792200001e+01
-1.1830068836100001e+01
-1.1833506232200000e+01
-1.1836943980699999e+01
-1.1840382081700000e+01
-1.1843820535400001e+01
-1.1847259341799999e+01
-1.1850698501200000e+01
-1.1854138013800000e+01
-1.1857577879600001e+01
-1.1861018098800001e+01
-1.1864458671700000e+01
-1.1867899598199999e+01
-1.1871340878600000e+01
-1.1874782513000000e+01
-1.1878224501500000e+01
-1.1881666844300000e+01
-1.1885109541600000e+01
-1.1888552593600000e+01
-1.1891996000200001e+01
-1.1895439761700001e+01
-1.1898883878299999e+01
-1.1902328350099999e+01
-1.1905773177300000e+01
-1.1909218359800001e+01
-1.1912663898100000e+01
-1.1916109792100000e+01
-1.1919556042000000e+01
-1.1923002648000001e+01
-1.1926449610200001e+01
-1.1929896928900000e+01
-1.1933344604000000e+01
-1.1936792635800000e+01
-1.1940241024300001e+01
-1.1943689769900001e+01
-1.1947138872500000e+01
-1.1950588332300001e+01
-1.1954038149600001e+01
-1.1957488324400000e+01
-1.1960938856800000e+01
-1.1964389747100000e+01
-1.1967840995300000e+01
-1.1971292601700000e+01
-1.1974744566400000e+01
-1.1978196889399999e+01
-1.1981649570900000e+01
-1.1985102611100000e+01
-1.1988556010200000e+01
-1.1992009768300001e+01
-1.1995463885500000e+01
-1.1998918362000000e+01
-1.2002373197800001e+01
-1.2005828393200000e+01
-1.2009283948400000e+01
-1.2012739863300000e+01
-1.2016196138200000e+01
-1.2019652773300001e+01
-1.2023109768599999e+01
-1.2026567124400000e+01
-1.2030024840699999e+01
-1.2033482917700001e+01
-1.2036941355500000e+01
-1.2040400154300000e+01
-1.2043859314300001e+01
-1.2047318835500000e+01
-1.2050778718100000e+01
-1.2054238962399999e+01
-1.2057699568200000e+01
-1.2061160535999999e+01
-1.2064621865599999e+01
-1.2068083557500000e+01
-1.2071545611499999e+01
-1.2075008027899999e+01
-1.2078470807000000e+01
-1.2081933948600000e+01
-1.2085397453200001e+01
-1.2088861320600000e+01
-1.2092325551200000e+01
-1.2095790145000000e+01
-1.2099255102200001e+01
-1.2102720422899999e+01
-1.2106186107399999e+01
-1.2109652155599999e+01
-1.2113118567700001e+01
-1.2116585343900001e+01
-1.2120052484300000e+01
-1.2123519989200000e+01
-1.2126987858500000e+01
-1.2130456092399999e+01
-1.2133924691200001e+01
-1.2137393654800000e+01
-1.2140862983500000e+01
-1.2144332677500000e+01
-1.2147802736699999e+01
-1.2151273161400001e+01
-1.2154743951800000e+01
-1.2158215107900000e+01
-1.2161686629900000e+01
-1.2165158517900000e+01
-1.2168630772100000e+01
-1.2172103392600000e+01
-1.2175576379500001e+01
-1.2179049732999999e+01
-1.2182523453200000e+01
-1.2185997540300001e+01
-1.2189471994300000e+01
-1.2192946815499999e+01
-1.2196422004000000e+01
-1.2199897559900000e+01
-1.2203373483300000e+01
-1.2206849774400000e+01
-1.2210326433200001e+01
-1.2213803460099999e+01
-1.2217280854900000e+01
-1.2220758618100000e+01
-1.2224236749599999e+01
-1.2227715249599999e+01
-1.2231194118299999e+01
-1.2234673355600000e+01
-1.2238152961899999e+01
-1.2241632937300000e+01
-1.2245113281700000e+01
-1.2248593995500000e+01
-1.2252075078800001e+01
-1.2255556531600000e+01
-1.2259038354099999e+01
-1.2262520546499999e+01
-1.2266003108800000e+01
-1.2269486041300000e+01
-1.2272969344100000e+01
-1.2276453017100000e+01
-1.2279937060800000e+01
-1.2283421475100001e+01
-1.2286906260200000e+01
-1.2290391416200000e+01
-1.2293876943200001e+01
-1.2297362841400000e+01
-1.2300849111000000e+01
-1.2304335752000000e+01
-1.2307822764499999e+01
-1.2311310148900001e+01
-1.2314797905100001e+01
-1.2318286033200000e+01
-1.2321774533499999e+01
-1.2325263406099999e+01
-1.2328752651000000e+01
-1.2332242268500000e+01
-1.2335732258600000e+01
-1.2339222621499999e+01
-1.2342713357299999e+01
-1.2346204466100000e+01
-1.2349695948100001e+01
-1.2353187803499999e+01
-1.2356680032300000e+01
-1.2360172634600000e+01
-1.2363665610700000e+01
-1.2367158960599999e+01
-1.2370652684500000e+01
-1.2374146782500000e+01
-1.2377641254700000e+01
-1.2381136101299999e+01
-1.2384631322400001e+01
-1.2388126918099999e+01
-1.2391622888500001e+01
-1.2395119233899999e+01
-1.2398615954200000e+01
-1.2402113049700001e+01
-1.2405610520600000e+01
-1.2409108366800000e+01
-1.2412606588499999e+01
-1.2416105185899999e+01
-1.2419604159100000e+01
-1.2423103508200001e+01
-1.2426603233500000e+01
-1.2430103334800000e+01
-1.2433603812499999e+01
-1.2437104666700000e+01
-1.2440605897399999e+01
-1.2444107504900000e+01
-1.2447609489100000e+01
-1.2451111850400000e+01
-1.2454614588700000e+01
-1.2458117704099999e+01
-1.2461621196999999e+01
-1.2465125067400001e+01
-1.2468629315399999e+01
-1.2472133940999999e+01
-1.2475638944700000e+01
-1.2479144326200000e+01
-1.2482650085900000e+01
-1.2486156223800000e+01
-1.2489662740000000e+01
-1.2493169634899999e+01
-1.2496676908300000e+01
-1.2500184560499999e+01
-1.2503692591500000e+01
-1.2507201001500000e+01
-1.2510709790700000e+01
-1.2514218959200001e+01
-1.2517728507099999e+01
-1.2521238434400001e+01
-1.2524748741500000e+01
-1.2528259428300000e+01
-1.2531770495000000e+01
-1.2535281941699999e+01
-1.2538793768600000e+01
-1.2542305975700000e+01
-1.2545818563199999e+01
-1.2549331531300000e+01
-1.2552844880000000e+01
-1.2556358609600000e+01
-1.2559872719900000e+01
-1.2563387211400000e+01
-1.2566902084000001e+01
-1.2570417337900000e+01
-1.2573932973200000e+01
-1.2577448990100001e+01
-1.2580965388499999e+01
-1.2584482168799999e+01
-1.2587999331000001e+01
-1.2591516875200000e+01
-1.2595034801500001e+01
-1.2598553110199999e+01
-1.2602071801199999e+01
-1.2605590874900001e+01
-1.2609110331100000e+01
-1.2612630170099999e+01
-1.2616150392000000e+01
-1.2619670997000000e+01
-1.2623191985100000e+01
-1.2626713356400000e+01
-1.2630235111199999e+01
-1.2633757249600000e+01
-1.2637279771499999e+01
-1.2640802677200000e+01
-1.2644325966700000e+01
-1.2647849640300000e+01
-1.2651373698100000e+01
-1.2654898140100000e+01
-1.2658422966500000e+01
-1.2661948177399999e+01
-1.2665473773000000e+01
-1.2668999753200000e+01
-1.2672526118400000e+01
-1.2676052868599999e+01
-1.2679580003800000e+01
-1.2683107524300000e+01
-1.2686635430100001e+01
-1.2690163721499999e+01
-1.2693692398500000e+01
-1.2697221461200000e+01
-1.2700750909700000e+01
-1.2704280744200000e+01
-1.2707810964800000e+01
-1.2711341571600000e+01
-1.2714872564700000e+01
-1.2718403944400000e+01
-1.2721935710500000e+01
-1.2725467863500000e+01
-1.2729000403100001e+01
-1.2732533329800001e+01
-1.2736066643399999e+01
-1.2739600344299999e+01
-1.2743134432500000e+01
-1.2746668908000000e+01
-1.2750203771200001e+01
-1.2753739022100000e+01
-1.2757274660600000e+01
-1.2760810687099999e+01
-1.2764347101700000e+01
-1.2767883904300000e+01
-1.2771421095199999e+01
-1.2774958674500001e+01
-1.2778496642300000e+01
-1.2782034998700000e+01
-1.2785573743800001e+01
-1.2789112877799999e+01
-1.2792652400800000e+01
-1.2796192312900001e+01
-1.2799732614200000e+01
-1.2803273304799999e+01
-1.2806814384999999e+01
-1.2810355854699999e+01
-1.2813897714099999e+01
-1.2817439963100000e+01
-1.2820982602300001e+01
-1.2824525631400000e+01
-1.2828069050700000e+01
-1.2831612860300000e+01
-1.2835157060300000e+01
-1.2838701650799999e+01
-1.2842246631900000e+01
-1.2845792003800000e+01
-1.2849337766500000e+01
-1.2852883920300000e+01
-1.2856430465200001e+01
-1.2859977401200000e+01
-1.2863524728600000e+01
-1.2867072447600000e+01
-1.2870620558000001e+01
-1.2874169060100000e+01
-1.2877717954000000e+01
-1.2881267239900000e+01
-1.2884816917900000e+01
-1.2888366987900000e+01
-1.2891917450299999e+01
-1.2895468305000000e+01
-1.2899019552300000e+01
-1.2902571192100000e+01
-1.2906123224800000e+01
-1.2909675650200001e+01
-1.2913228468700000e+01
-1.2916781680200000e+01
-1.2920335284900000e+01
-1.2923889282899999e+01
-1.2927443674499999e+01
-1.2930998459500000e+01
-1.2934553638100001e+01
-1.2938109210700000e+01
-1.2941665177100001e+01
-1.2945221537500000e+01
-1.2948778292000000e+01
-1.2952335440700001e+01
-1.2955892983800000e+01
-1.2959450921400000e+01
-1.2963009253499999e+01
-1.2966567980500001e+01
-1.2970127102099999e+01
-1.2973686618700000e+01
-1.2977246530400000e+01
-1.2980806837199999e+01
-1.2984367539300001e+01
-1.2987928636800000e+01
-1.2991490129700001e+01
-1.2995052018299999e+01
-1.2998614302600000e+01
-1.3002176982800000e+01
-1.3005740058800001e+01
-1.3009303531100000e+01
-1.3012867399399999e+01
-1.3016431664000001e+01
-1.3019996325099999e+01
-1.3023561382700001e+01
-1.3027126836900001e+01
-1.3030692687900000e+01
-1.3034258935700000e+01
-1.3037825580400000e+01
-1.3041392622300000e+01
-1.3044960061399999e+01
-1.3048527897800000e+01
-1.3052096131600001e+01
-1.3055664762899999e+01
-1.3059233791900001e+01
-1.3062803218699999e+01
-1.3066373043300000e+01
-1.3069943265999999e+01
-1.3073513886600001e+01
-1.3077084905500000e+01
-1.3080656322799999e+01
-1.3084228138500000e+01
-1.3087800352600000e+01
-1.3091372965500000e+01
-1.3094945977100000e+01
-1.3098519387600000e+01
-1.3102093197000000e+01
-1.3105667405700000e+01
-1.3109242013399999e+01
-1.3112817020600000e+01
-1.3116392427099999e+01
-1.3119968233200000e+01
-1.3123544439000000e+01
-1.3127121044500001e+01
-1.3130698049799999e+01
-1.3134275455199999e+01
-1.3137853260700000e+01
-1.3141431466300000e+01
-1.3145010072300000e+01
-1.3148589078800001e+01
-1.3152168485700001e+01
-1.3155748293200000e+01
-1.3159328501599999e+01
-1.3162909110899999e+01
-1.3166490121100001e+01
-1.3170071532400000e+01
-1.3173653344800000e+01
-1.3177235558500000e+01
-1.3180818173700001e+01
-1.3184401190499999e+01
-1.3187984608800001e+01
-1.3191568428900000e+01
-1.3195152650800001e+01
-1.3198737274599999e+01
-1.3202322300600001e+01
-1.3205907728800000e+01
-1.3209493559200000e+01
-1.3213079792000000e+01
-1.3216666427200000e+01
-1.3220253465200001e+01
-1.3223840905799999e+01
-1.3227428749200000e+01
-1.3231016995699999e+01
-1.3234605645100000e+01
-1.3238194697699999e+01
-1.3241784153599999e+01
-1.3245374012799999e+01
-1.3248964275400001e+01
-1.3252554941700000e+01
-1.3256146011700000e+01
-1.3259737485400001e+01
-1.3263329363100000e+01
-1.3266921644800000e+01
-1.3270514330599999e+01
-1.3274107420600000e+01
-1.3277700914900000e+01
-1.3281294813700001e+01
-1.3284889117100001e+01
-1.3288483825100000e+01
-1.3292078937799999e+01
-1.3295674455400000e+01
-1.3299270377999999e+01
-1.3302866705700000e+01
-1.3306463438600000e+01
-1.3310060576700000e+01
-1.3313658120300000e+01
-1.3317256069300001e+01
-1.3320854423900000e+01
-1.3324453184299999e+01
-1.3328052350600000e+01
-1.3331651922700001e+01
-1.3335251900899999e+01
-1.3338852285300000e+01
-1.3342453075800000e+01
-1.3346054272700000e+01
-1.3349655876100000e+01
-1.3353257886000000e+01
-1.3356860302599999e+01
-1.3360463126000001e+01
-1.3364066356300000e+01
-1.3367669993500000e+01
-1.3371274037899999e+01
-1.3374878489300000e+01
-1.3378483348200000e+01
-1.3382088614400001e+01
-1.3385694288200000e+01
-1.3389300369500001e+01
-1.3392906858600000e+01
-1.3396513755499999e+01
-1.3400121060300000e+01
-1.3403728773099999e+01
-1.3407336894100000e+01
-1.3410945423299999e+01
-1.3414554360800000e+01
-1.3418163706900000e+01
-1.3421773461400001e+01
-1.3425383624600000e+01
-1.3428994196600000e+01
-1.3432605177399999e+01
-1.3436216567200001e+01
-1.3439828366000000e+01
-1.3443440574100000e+01
-1.3447053191400000e+01
-1.3450666218000000e+01
-1.3454279654300001e+01
-1.3457893500000001e+01
-1.3461507755400000e+01
-1.3465122420700000e+01
-1.3468737495799999e+01
-1.3472352980900000e+01
-1.3475968876100000e+01
-1.3479585181499999e+01
-1.3483201897200001e+01
-1.3486819023400001e+01
-1.3490436559999999e+01
-1.3494054507300000e+01
-1.3497672865200000e+01
-1.3501291633899999e+01
-1.3504910813700000e+01
-1.3508530404300000e+01
-1.3512150406200000e+01
-1.3515770819200000e+01
-1.3519391643600001e+01
-1.3523012879400000e+01
-1.3526634526800001e+01
-1.3530256585700000e+01
-1.3533879056500000e+01
-1.3537501938900000e+01
-1.3541125233400001e+01
-1.3544748939900000e+01
-1.3548373058499999e+01
-1.3551997589400001e+01
-1.3555622532599999e+01
-1.3559247888300000e+01
-1.3562873656500001e+01
-1.3566499837300000e+01
-1.3570126430900000e+01
-1.3573753437300001e+01
-1.3577380856600000e+01
-1.3581008689000001e+01
-1.3584636934600001e+01
-1.3588265593399999e+01
-1.3591894665500000e+01
-1.3595524151099999e+01
-1.3599154050199999e+01
-1.3602784362900000e+01
-1.3606415089500000e+01
-1.3610046229800000e+01
-1.3613677784200000e+01
-1.3617309752400001e+01
-1.3620942135000000e+01
-1.3624574931700000e+01
-1.3628208142800000e+01
-1.3631841768299999e+01
-1.3635475808300001e+01
-1.3639110262999999e+01
-1.3642745132500000e+01
-1.3646380416800000e+01
-1.3650016116000000e+01
-1.3653652230200001e+01
-1.3657288759700000e+01
-1.3660925704300000e+01
-1.3664563064199999e+01
-1.3668200839600001e+01
-1.3671839030499999e+01
-1.3675477637100000e+01
-1.3679116659300000e+01
-1.3682756097500000e+01
-1.3686395951500000e+01
-1.3690036221500000e+01
-1.3693676907700000e+01
-1.3697318010200000e+01
-1.3700959528800000e+01
-1.3704601464000000e+01
-1.3708243815599999e+01
-1.3711886583900000e+01
-1.3715529768900000e+01
-1.3719173370600000e+01
-1.3722817389299999e+01
-1.3726461824999999e+01
-1.3730106677800000e+01
-1.3733751947700000e+01
-1.3737397635000001e+01
-1.3741043739700000e+01
-1.3744690261900001e+01
-1.3748337201600000e+01
-1.3751984559000000e+01
-1.3755632334200000e+01
-1.3759280527200000e+01
-1.3762929138300001e+01
-1.3766578167500001e+01
-1.3770227614700000e+01
-1.3773877480299999e+01
-1.3777527764100000e+01
-1.3781178466600000e+01
-1.3784829587500001e+01
-1.3788481127000001e+01
-1.3792133085400000e+01
-1.3795785462500000e+01
-1.3799438258600000e+01
-1.3803091473700000e+01
-1.3806745107999999e+01
-1.3810399161399999e+01
-1.3814053634300000e+01
-1.3817708526500001e+01
-1.3821363838200000e+01
-1.3825019569600000e+01
-1.3828675720600000e+01
-1.3832332291500000e+01
-1.3835989282200000e+01
-1.3839646692900001e+01
-1.3843304523700001e+01
-1.3846962774700000e+01
-1.3850621446000000e+01
-1.3854280537599999e+01
-1.3857940049700000e+01
-1.3861599982400000e+01
-1.3865260335700000e+01
-1.3868921109800000e+01
-1.3872582304800000e+01
-1.3876243920500000e+01
-1.3879905957500000e+01
-1.3883568415499999e+01
-1.3887231294699999e+01
-1.3890894595300001e+01
-1.3894558317300000e+01
-1.3898222460800000e+01
-1.3901887025900001e+01
-1.3905552012599999e+01
-1.3909217421199999e+01
-1.3912883251700000e+01
-1.3916549504100001e+01
-1.3920216178600000e+01
-1.3923883275300000e+01
-1.3927550794200000e+01
-1.3931218735400000e+01
-1.3934887099199999e+01
-1.3938555885400000e+01
-1.3942225094299999e+01
-1.3945894725900001e+01
-1.3949564780299999e+01
-1.3953235257599999e+01
-1.3956906158000001e+01
-1.3960577481500000e+01
-1.3964249228100000e+01
-1.3967921398000000e+01
-1.3971593991300001e+01
-1.3975267007999999e+01
-1.3978940448399999e+01
-1.3982614312400001e+01
-1.3986288600100000e+01
-1.3989963311700000e+01
-1.3993638447100000e+01
-1.3997314006700000e+01
-1.4000989990300001e+01
-1.4004666398199999e+01
-1.4008343230300000e+01
-1.4012020486799999e+01
-1.4015698167900000e+01
-1.4019376273500001e+01
-1.4023054803799999e+01
-1.4026733758800001e+01
-1.4030413138700000e+01
-1.4034092943499999e+01
-1.4037773173400000e+01
-1.4041453828400000e+01
-1.4045134908600000e+01
-1.4048816414199999e+01
-1.4052498345100000e+01
-1.4056180701500001e+01
-1.4059863483599999e+01
-1.4063546691299999e+01
-1.4067230324800001e+01
-1.4070914384000000e+01
-1.4074598869400001e+01
-1.4078283780700000e+01
-1.4081969118100000e+01
-1.4085654881700000e+01
-1.4089341071800000e+01
-1.4093027688099999e+01
-1.4096714731000000e+01
-1.4100402200500000e+01
-1.4104090096600000e+01
-1.4107778419600001e+01
-1.4111467169299999e+01
-1.4115156345999999e+01
-1.4118845949700001e+01
-1.4122535980700000e+01
-1.4126226438700000e+01
-1.4129917324099999e+01
-1.4133608636900000e+01
-1.4137300377200001e+01
-1.4140992545100000e+01
-1.4144685140600000e+01
-1.4148378163900000e+01
-1.4152071615000001e+01
-1.4155765494100001e+01
-1.4159459801100001e+01
-1.4163154536400000e+01
-1.4166849699900000e+01
-1.4170545291600000e+01
-1.4174241311599999e+01
-1.4177937760200001e+01
-1.4181634637300000e+01
-1.4185331943100000e+01
-1.4189029677600001e+01
-1.4192727840900000e+01
-1.4196426433199999e+01
-1.4200125454500000e+01
-1.4203824904799999e+01
-1.4207524784400000e+01
-1.4211225093099999e+01
-1.4214925831300000e+01
-1.4218626998900000e+01
-1.4222328596100001e+01
-1.4226030622900000e+01
-1.4229733079400001e+01
-1.4233435965700000e+01
-1.4237139281899999e+01
-1.4240843028100000e+01
-1.4244547204300000e+01
-1.4248251810699999e+01
-1.4251956847400001e+01
-1.4255662314300000e+01
-1.4259368211800000e+01
-1.4263074539600000e+01
-1.4266781298100000e+01
-1.4270488487300000e+01
-1.4274196107200000e+01
-1.4277904158000000e+01
-1.4281612639800001e+01
-1.4285321552499999e+01
-1.4289030896500000e+01
-1.4292740671500001e+01
-1.4296450877900000e+01
-1.4300161515699999e+01
-1.4303872584900001e+01
-1.4307584085700000e+01
-1.4311296018100000e+01
-1.4315008382300000e+01
-1.4318721178300001e+01
-1.4322434406199999e+01
-1.4326148066000000e+01
-1.4329862157999999e+01
-1.4333576682100000e+01
-1.4337291638500000e+01
-1.4341007027200000e+01
-1.4344722848300000e+01
-1.4348439101900000e+01
-1.4352155788099999e+01
-1.4355872907000000e+01
-1.4359590458600000e+01
-1.4363308443199999e+01
-1.4367026860699999e+01
-1.4370745711100000e+01
-1.4374464994800000e+01
-1.4378184711599999e+01
-1.4381904861600001e+01
-1.4385625445100001e+01
-1.4389346462000001e+01
-1.4393067912399999e+01
-1.4396789796400000e+01
-1.4400512114200000e+01
-1.4404234865799999e+01
-1.4407958051200000e+01
-1.4411681670600000e+01
-1.4415405724099999e+01
-1.4419130211600001e+01
-1.4422855133600001e+01
-1.4426580489599999e+01
-1.4430306280200000e+01
-1.4434032505199999e+01
-1.4437759164699999e+01
-1.4441486258899999e+01
-1.4445213787900000e+01
-1.4448941751700000e+01
-1.4452670150299999e+01
-1.4456398983900000e+01
-1.4460128252700001e+01
-1.4463857956600000e+01
-1.4467588095700000e+01
-1.4471318670100001e+01
-1.4475049680000000e+01
-1.4478781125299999e+01
-1.4482513006200000e+01
-1.4486245322800000e+01
-1.4489978075100000e+01
-1.4493711263200000e+01
-1.4497444887300000e+01
-1.4501178947300000e+01
-1.4504913443500000e+01
-1.4508648375800000e+01
-1.4512383744299999e+01
-1.4516119549200001e+01
-1.4519855790499999e+01
-1.4523592468300000e+01
-1.4527329582600000e+01
-1.4531067133700001e+01
-1.4534805121500000e+01
-1.4538543546200000e+01
-1.4542282407700000e+01
-1.4546021706199999e+01
-1.4549761441799999e+01
-1.4553501614600000e+01
-1.4557242224700000e+01
-1.4560983272000000e+01
-1.4564724756800000e+01
-1.4568466679100000e+01
-1.4572209038900001e+01
-1.4575951836400000e+01
-1.4579695071700000e+01
-1.4583438744800000e+01
-1.4587182855800000e+01
-1.4590927404800000e+01
-1.4594672391900000e+01
-1.4598417817100000e+01
-1.4602163680600000e+01
-1.4605909982400000e+01
-1.4609656722600000e+01
-1.4613403901300000e+01
-1.4617151518500000e+01
-1.4620899574399999e+01
-1.4624648069099999e+01
-1.4628397002500000e+01
-1.4632146374900000e+01
-1.4635896186200000e+01
-1.4639646436600000e+01
-1.4643397126100000e+01
-1.4647148254899999e+01
-1.4650899823000000e+01
-1.4654651830400001e+01
-1.4658404277400001e+01
-1.4662157163800000e+01
-1.4665910489900000e+01
-1.4669664255700001e+01
-1.4673418461300001e+01
-1.4677173106800000e+01
-1.4680928192300000e+01
-1.4684683717700000e+01
-1.4688439683300000e+01
-1.4692196089099999e+01
-1.4695952935199999e+01
-1.4699710221600000e+01
-1.4703467948500000e+01
-1.4707226115899999e+01
-1.4710984723899999e+01
-1.4714743772600000e+01
-1.4718503262100000e+01
-1.4722263192400000e+01
-1.4726023563600000e+01
-1.4729784375900000e+01
-1.4733545629200000e+01
-1.4737307323600000e+01
-1.4741069459400000e+01
-1.4744832036400000e+01
-1.4748595054899999e+01
-1.4752358514899999e+01
-1.4756122416400000e+01
-1.4759886759600001e+01
-1.4763651544500000e+01
-1.4767416771300001e+01
-1.4771182439900000e+01
-1.4774948550500000e+01
-1.4778715103000000e+01
-1.4782482097800001e+01
-1.4786249534700000e+01
-1.4790017413999999e+01
-1.4793785735600000e+01
-1.4797554499700000e+01
-1.4801323706200000e+01
-1.4805093355400000e+01
-1.4808863447200000e+01
-1.4812633981899999e+01
-1.4816404959400000e+01
-1.4820176379799999e+01
-1.4823948243200000e+01
-1.4827720549600000e+01
-1.4831493299300000e+01
-1.4835266492200001e+01
-1.4839040128300001e+01
-1.4842814207900000e+01
-1.4846588731000001e+01
-1.4850363697500001e+01
-1.4854139107800000e+01
-1.4857914961800001e+01
-1.4861691259400001e+01
-1.4865468001000000e+01
-1.4869245186600001e+01
-1.4873022816100001e+01
-1.4876800889800000e+01
-1.4880579407700001e+01
-1.4884358369799999e+01
-1.4888137776300001e+01
-1.4891917627100000e+01
-1.4895697922500000e+01
-1.4899478662400000e+01
-1.4903259846999999e+01
-1.4907041476300000e+01
-1.4910823550400000e+01
-1.4914606069400000e+01
-1.4918389033300000e+01
-1.4922172442200001e+01
-1.4925956296300001e+01
-1.4929740595700000e+01
-1.4933525340199999e+01
-1.4937310530100000e+01
-1.4941096165499999e+01
-1.4944882246300001e+01
-1.4948668772800000e+01
-1.4952455744900000e+01
-1.4956243162700000e+01
-1.4960031026299999e+01
-1.4963819335800000e+01
-1.4967608091300001e+01
-1.4971397292800001e+01
-1.4975186940500000e+01
-1.4978977034300000e+01
-1.4982767574400000e+01
-1.4986558560900001e+01
-1.4990349993700001e+01
-1.4994141873100000e+01
-1.4997934199099999e+01
-1.5001726971800000e+01
-1.5005520191200000e+01
-1.5009313857400000e+01
-1.5013107970400000e+01
-1.5016902530399999e+01
-1.5020697537500000e+01
-1.5024492991800001e+01
-1.5028288893099999e+01
-1.5032085241800001e+01
-1.5035882037700000e+01
-1.5039679281100000e+01
-1.5043476972100001e+01
-1.5047275110599999e+01
-1.5051073696700000e+01
-1.5054872730600000e+01
-1.5058672212299999e+01
-1.5062472141800001e+01
-1.5066272519300000e+01
-1.5070073344800001e+01
-1.5073874618400000e+01
-1.5077676340200000e+01
-1.5081478510300000e+01
-1.5085281128700000e+01
-1.5089084195500000e+01
-1.5092887710799999e+01
-1.5096691674600001e+01
-1.5100496087100000e+01
-1.5104300948300001e+01
-1.5108106258199999e+01
-1.5111912017000000e+01
-1.5115718224700000e+01
-1.5119524881600000e+01
-1.5123331987400000e+01
-1.5127139542400000e+01
-1.5130947546600000e+01
-1.5134756000099999e+01
-1.5138564903000001e+01
-1.5142374255500000e+01
-1.5146184057299999e+01
-1.5149994308900000e+01
-1.5153805009999999e+01
-1.5157616160900000e+01
-1.5161427761700001e+01
-1.5165239812399999e+01
-1.5169052313100000e+01
-1.5172865263800000e+01
-1.5176678664700001e+01
-1.5180492515699999e+01
-1.5184306817000000e+01
-1.5188121568700000e+01
-1.5191936770800000e+01
-1.5195752423400000e+01
-1.5199568526600000e+01
-1.5203385080400000e+01
-1.5207202084900000e+01
-1.5211019540200001e+01
-1.5214837446400001e+01
-1.5218655803500001e+01
-1.5222474611699999e+01
-1.5226293870899999e+01
-1.5230113581299999e+01
-1.5233933743000000e+01
-1.5237754356000000e+01
-1.5241575420300000e+01
-1.5245396936000001e+01
-1.5249218903299999e+01
-1.5253041322300000e+01
-1.5256864192900000e+01
-1.5260687515200001e+01
-1.5264511289400000e+01
-1.5268335515500000e+01
-1.5272160193500000e+01
-1.5275985323500000e+01
-1.5279810905700000e+01
-1.5283636940199999e+01
-1.5287463426800000e+01
-1.5291290365800000e+01
-1.5295117757200000e+01
-1.5298945601000000e+01
-1.5302773897400000e+01
-1.5306602646400000e+01
-1.5310431848200000e+01
-1.5314261502700001e+01
-1.5318091610000000e+01
-1.5321922170300001e+01
-1.5325753183600000e+01
-1.5329584649899999e+01
-1.5333416569300001e+01
-1.5337248942000000e+01
-1.5341081767900000e+01
-1.5344915047200001e+01
-1.5348748779799999e+01
-1.5352582966100000e+01
-1.5356417605800001e+01
-1.5360252699200000e+01
-1.5364088246300000e+01
-1.5367924247199999e+01
-1.5371760701900000e+01
-1.5375597610600000e+01
-1.5379434973200000e+01
-1.5383272789999999e+01
-1.5387111060800001e+01
-1.5390949785900000e+01
-1.5394788965200000e+01
-1.5398628598900000e+01
-1.5402468687100001e+01
-1.5406309229700000e+01
-1.5410150226900001e+01
-1.5413991678700000e+01
-1.5417833585300000e+01
-1.5421675946700001e+01
-1.5425518762799999e+01
-1.5429362034000000e+01
-1.5433205760100000e+01
-1.5437049941200000e+01
-1.5440894577600000e+01
-1.5444739669100001e+01
-1.5448585215900000e+01
-1.5452431218099999e+01
-1.5456277675700001e+01
-1.5460124588799999e+01
-1.5463971957300000e+01
-1.5467819781599999e+01
-1.5471668061600001e+01
-1.5475516797299999e+01
-1.5479365988900000e+01
-1.5483215636400001e+01
-1.5487065740000000e+01
-1.5490916299500000e+01
-1.5494767315200001e+01
-1.5498618787000000e+01
-1.5502470715199999e+01
-1.5506323099699999e+01
-1.5510175940600000e+01
-1.5514029237900001e+01
-1.5517882991900001e+01
-1.5521737202400001e+01
-1.5525591869699999e+01
-1.5529446993700001e+01
-1.5533302574400000e+01
-1.5537158612200001e+01
-1.5541015106800000e+01
-1.5544872058499999e+01
-1.5548729467299999e+01
-1.5552587333300000e+01
-1.5556445656599999e+01
-1.5560304437199999e+01
-1.5564163675100000e+01
-1.5568023370600001e+01
-1.5571883523600000e+01
-1.5575744134100001e+01
-1.5579605202200000e+01
-1.5583466728199999e+01
-1.5587328711900000e+01
-1.5591191153600001e+01
-1.5595054053100000e+01
-1.5598917410600000e+01
-1.5602781226299999e+01
-1.5606645500000001e+01
-1.5610510232099999e+01
-1.5614375422300000e+01
-1.5618241071000000e+01
-1.5622107178000000e+01
-1.5625973743599999e+01
-1.5629840767799999e+01
-1.5633708250500000e+01
-1.5637576191999999e+01
-1.5641444592199999e+01
-1.5645313451200000e+01
-1.5649182769199999e+01
-1.5653052546100000e+01
-1.5656922782100001e+01
-1.5660793477200000e+01
-1.5664664631500001e+01
-1.5668536245000000e+01
-1.5672408317800000e+01
-1.5676280850099999e+01
-1.5680153841699999e+01
-1.5684027292900000e+01
-1.5687901203699999e+01
-1.5691775574099999e+01
-1.5695650404300000e+01
-1.5699525694200000e+01
-1.5703401444100001e+01
-1.5707277653900000e+01
-1.5711154323500001e+01
-1.5715031453400000e+01
-1.5718909043300000e+01
-1.5722787093499999e+01
-1.5726665603800001e+01
-1.5730544574600000e+01
-1.5734424005699999e+01
-1.5738303897400000e+01
-1.5742184249499999e+01
-1.5746065062300000e+01
-1.5749946335700001e+01
-1.5753828069900001e+01
-1.5757710264800000e+01
-1.5761592920700000e+01
-1.5765476037499999e+01
-1.5769359615300001e+01
-1.5773243654200000e+01
-1.5777128154200000e+01
-1.5781013115500000e+01
-1.5784898538000000e+01
-1.5788784421800001e+01
-1.5792670767100001e+01
-1.5796557573899999e+01
-1.5800444842199999e+01
-1.5804332572100000e+01
-1.5808220763700000e+01
-1.5812109417000000e+01
-1.5815998532100000e+01
-1.5819888109200001e+01
-1.5823778148100001e+01
-1.5827668649100000e+01
-1.5831559612200000e+01
-1.5835451037500000e+01
-1.5839342924900000e+01
-1.5843235274500000e+01
-1.5847128086600000e+01
-1.5851021361100001e+01
-1.5854915097999999e+01
-1.5858809297500001e+01
-1.5862703959699999e+01
-1.5866599084400001e+01
-1.5870494671900000e+01
-1.5874390722199999e+01
-1.5878287235400000e+01
-1.5882184211600000e+01
-1.5886081650700000e+01
-1.5889979553000000e+01
-1.5893877918399999e+01
-1.5897776746900000e+01
-1.5901676038700000e+01
-1.5905575793800001e+01
-1.5909476012500001e+01
-1.5913376694500000e+01
-1.5917277840000001e+01
-1.5921179449300000e+01
-1.5925081522099999e+01
-1.5928984058599999e+01
-1.5932887059000000e+01
-1.5936790523199999e+01
-1.5940694451400001e+01
-1.5944598843500000e+01
-1.5948503699700000e+01
-1.5952409019999999e+01
-1.5956314804500000e+01
-1.5960221053200000e+01
-1.5964127766300001e+01
-1.5968034943799999e+01
-1.5971942585700001e+01
-1.5975850692200000e+01
-1.5979759263100000e+01
-1.5983668298700000e+01
-1.5987577799100000e+01
-1.5991487764200000e+01
-1.5995398194200000e+01
-1.5999309089000000e+01
-1.6003220448800000e+01
-1.6007132273700002e+01
-1.6011044563700001e+01
-1.6014957318699999e+01
-1.6018870539000002e+01
-1.6022784224700001e+01
-1.6026698375700001e+01
-1.6030612992100000e+01
-1.6034528073899999e+01
-1.6038443621399999e+01
-1.6042359634400000e+01
-1.6046276113099999e+01
-1.6050193057600001e+01
-1.6054110467800001e+01
-1.6058028344000000e+01
-1.6061946685999999e+01
-1.6065865494200001e+01
-1.6069784768300000e+01
-1.6073704508500001e+01
-1.6077624714900001e+01
-1.6081545387599999e+01
-1.6085466526600001e+01
-1.6089388132000000e+01
-1.6093310203800002e+01
-1.6097232742100001e+01
-1.6101155747100002e+01
-1.6105079218600000e+01
-1.6109003156899998e+01
-1.6112927561799999e+01
-1.6116852433700000e+01
-1.6120777772499999e+01
-1.6124703578100000e+01
-1.6128629850700001e+01
-1.6132556590499998e+01
-1.6136483797499999e+01
-1.6140411471600000e+01
-1.6144339613000000e+01
-1.6148268221700000e+01
-1.6152197297800001e+01
-1.6156126841399999e+01
-1.6160056852499999e+01
-1.6163987331200001e+01
-1.6167918277500000e+01
-1.6171849691599999e+01
-1.6175781573399998e+01
-1.6179713923100000e+01
-1.6183646740600000e+01
-1.6187580026100001e+01
-1.6191513779699999e+01
-1.6195448001399999e+01
-1.6199382691200000e+01
-1.6203317849200001e+01
-1.6207253475500000e+01
-1.6211189570100000e+01
-1.6215126133100000e+01
-1.6219063164600001e+01
-1.6223000664600001e+01
-1.6226938633300001e+01
-1.6230877070500000e+01
-1.6234815976499998e+01
-1.6238755351300000e+01
-1.6242695194900001e+01
-1.6246635507400001e+01
-1.6250576288900000e+01
-1.6254517539399998e+01
-1.6258459258900000e+01
-1.6262401447700000e+01
-1.6266344105700000e+01
-1.6270287232800001e+01
-1.6274230829400000e+01
-1.6278174895399999e+01
-1.6282119430700000e+01
-1.6286064435800000e+01
-1.6290009910300000e+01
-1.6293955854400000e+01
-1.6297902268300000e+01
-1.6301849151999999e+01
-1.6305796505499998e+01
-1.6309744328800001e+01
-1.6313692622100000e+01
-1.6317641385500000e+01
-1.6321590618900000e+01
-1.6325540322399998e+01
-1.6329490496199998e+01
-1.6333441140300000e+01
-1.6337392254699999e+01
-1.6341343839400000e+01
-1.6345295894500001e+01
-1.6349248420199999e+01
-1.6353201416499999e+01
-1.6357154883400000e+01
-1.6361108820999998e+01
-1.6365063229400000e+01
-1.6369018108399999e+01
-1.6372973458499999e+01
-1.6376929279399999e+01
-1.6380885571400000e+01
-1.6384842334399998e+01
-1.6388799568500001e+01
-1.6392757273899999e+01
-1.6396715450399999e+01
-1.6400674098300001e+01
-1.6404633217499999e+01
-1.6408592808100000e+01
-1.6412552870300001e+01
-1.6416513404000000e+01
-1.6420474409200001e+01
-1.6424435886099999e+01
-1.6428397834799998e+01
-1.6432360255300001e+01
-1.6436323147600000e+01
-1.6440286511800000e+01
-1.6444250348000001e+01
-1.6448214656200001e+01
-1.6452179436500000e+01
-1.6456144688900000e+01
-1.6460110413500001e+01
-1.6464076610500001e+01
-1.6468043279800000e+01
-1.6472010421400000e+01
-1.6475978035499999e+01
-1.6479946122000001e+01
-1.6483914681200002e+01
-1.6487883712999999e+01
-1.6491853217500001e+01
-1.6495823194700002e+01
-1.6499793644800000e+01
-1.6503764567800001e+01
-1.6507735963599998e+01
-1.6511707832399999e+01
-1.6515680174200000e+01
-1.6519652989299999e+01
-1.6523626277399998e+01
-1.6527600038799999e+01
-1.6531574273499999e+01
-1.6535548981500000e+01
-1.6539524162900001e+01
-1.6543499817800001e+01
-1.6547475946300001e+01
-1.6551452548299999e+01
-1.6555429623900000e+01
-1.6559407173200000e+01
-1.6563385196399999e+01
-1.6567363693299999e+01
-1.6571342664100001e+01
-1.6575322108900000e+01
-1.6579302027699999e+01
-1.6583282420500002e+01
-1.6587263287399999e+01
-1.6591244628500000e+01
-1.6595226443800001e+01
-1.6599208733499999e+01
-1.6603191497499999e+01
-1.6607174735899999e+01
-1.6611158448800001e+01
-1.6615142636100000e+01
-1.6619127298199999e+01
-1.6623112434900001e+01
-1.6627098046200000e+01
