DATE: 2007-10-12 UNITS: metal CONTRIBUTOR: G. Ziegenhain, gerolf@ziegenhain.com CITATION: Zhou et al, Acta Mater, 49, 4005 (2001)
#-> LAMMPS Potential File in DYNAMO 86 setfl Format <-#
# Zhou W Acta mater(2001)49:4005
1 W
10001 4.0172479834328666e-02 10001 7.8917108289171083e-04 7.8925000000
1 183.84000000000000341061 3.15700000000000002842 BCC
8.8817999999999997e-16
-1.7971613634607624e-02
-3.5899259295094250e-02
-5.3782991365464737e-02
-7.1622864229731922e-02
-8.9418932271901050e-02
-1.0717124987598024e-01
-1.2487987142597612e-01
-1.4254485130589975e-01
-1.6016624389975764e-01
-1.7774410359155757e-01
-1.9527848476530474e-01
-2.1276944180501198e-01
-2.3021702909468594e-01
-2.4762130101833249e-01
-2.6498231195995958e-01
-2.8230011630357771e-01
-2.9957476843319364e-01
-3.1680632273281406e-01
-3.3399483358644744e-01
-3.5114035537810334e-01
-3.6824294249178940e-01
-3.8530264931151137e-01
-4.0231953022127731e-01
-4.1929363960509825e-01
-4.3622503184698114e-01
-4.5311376133093162e-01
-4.6995988244095788e-01
-4.8676344956107148e-01
-5.0352451707527768e-01
-5.2024313936758282e-01
-5.3691937082199714e-01
-5.5355326582253028e-01
-5.7014487875318576e-01
-5.8669426399797464e-01
-6.0320147594090379e-01
-6.1966656896598238e-01
-6.3608959745721649e-01
-6.5247061579861565e-01
-6.6880967837418548e-01
-6.8510683956793672e-01
-7.0136215376387590e-01
-7.1757567534601108e-01
-7.3374745869835134e-01
-7.4987755820490110e-01
-7.6596602824967297e-01
-7.8201292321667248e-01
-7.9801829748990838e-01
-8.1398220545338529e-01
-8.2990470149111639e-01
-8.4578583998710732e-01
-8.6162567532536538e-01
-8.7742426188989664e-01
-8.9318165406471361e-01
-9.0889790623382205e-01
-9.2457307278122935e-01
-9.4020720809094382e-01
-9.5580036654697353e-01
-9.7135260253332689e-01
-9.8686397043401131e-01
-1.0023345246330337e+00
-1.0177643195144039e+00
-1.0331534094621302e+00
-1.0485018488602180e+00
-1.0638096920926758e+00
-1.0790769935435136e+00
-1.0943038075967386e+00
-1.1094901886363582e+00
-1.1246361910463785e+00
-1.1397418692108112e+00
-1.1548072775136617e+00
-1.1698324703389396e+00
-1.1848175020706502e+00
-1.1997624270928042e+00
-1.2146672997894077e+00
-1.2295321745444705e+00
-1.2443571057419978e+00
-1.2591421477660001e+00
-1.2738873550004848e+00
-1.2885927818294598e+00
-1.3032584826369318e+00
-1.3178845118069089e+00
-1.3324709237234009e+00
-1.3470177727704156e+00
-1.3615251133319579e+00
-1.3759929997920386e+00
-1.3904214865346654e+00
-1.4048106279438455e+00
-1.4191604784035858e+00
-1.4334710922978964e+00
-1.4477425240107853e+00
-1.4619748279262583e+00
-1.4761680584283245e+00
-1.4903222699009913e+00
-1.5044375167282686e+00
-1.5185138532941629e+00
-1.5325513339826815e+00
-1.5465500131778318e+00
-1.5605099452636246e+00
-1.5744311846240666e+00
-1.5883137856431635e+00
-1.6021578027049264e+00
-1.6159632901933616e+00
-1.6297303024924772e+00
-1.6434588939862824e+00
-1.6571491190587817e+00
-1.6708010320939872e+00
-1.6844146874759052e+00
-1.6979901395885431e+00
-1.7115274428159077e+00
-1.7250266515420107e+00
-1.7384878201508569e+00
-1.7519110030264557e+00
-1.7652962545528130e+00
-1.7786436291139387e+00
-1.7919531810938407e+00
-1.8052249648765275e+00
-1.8184590348460057e+00
-1.8316554453862806e+00
-1.8448142508813663e+00
-1.8579355057152669e+00
-1.8710192642719912e+00
-1.8840655809355455e+00
-1.8970745100899413e+00
-1.9100461061191834e+00
-1.9229804234072794e+00
-1.9358775163382405e+00
-1.9487374392960730e+00
-1.9615602466647839e+00
-1.9743459928283817e+00
-1.9870947321708741e+00
-1.9998065190762704e+00
-2.0124814079285782e+00
-2.0251194531118033e+00
-2.0377207090099549e+00
-2.0502852300070420e+00
-2.0628130704870715e+00
-2.0753042848340519e+00
-2.0877589274319908e+00
-2.1001770526648964e+00
-2.1125587149167755e+00
-2.1249039685716378e+00
-2.1372128680134903e+00
-2.1494854676263411e+00
-2.1617218217941976e+00
-2.1739219849010682e+00
-2.1860860113309606e+00
-2.1982139554678830e+00
-2.2103058716958452e+00
-2.2223618143988522e+00
-2.2343818379609122e+00
-2.2463659967660341e+00
-2.2583143451982268e+00
-2.2702269376414970e+00
-2.2821038284798529e+00
-2.2939450720973000e+00
-2.3057507228778515e+00
-2.3175208352055110e+00
-2.3292554634642872e+00
-2.3409546620381905e+00
-2.3526184853112264e+00
-2.3642469876674039e+00
-2.3758402234907283e+00
-2.3873982471652115e+00
-2.3989211130748607e+00
-2.4104088756036823e+00
-2.4218615891356832e+00
-2.4332793080548738e+00
-2.4446620867452622e+00
-2.4560099795908541e+00
-2.4673230409756588e+00
-2.4786013252836847e+00
-2.4898448868989393e+00
-2.5010537802054298e+00
-2.5122280595871653e+00
-2.5233677794281522e+00
-2.5344729941124005e+00
-2.5455437580239164e+00
-2.5565801255467084e+00
-2.5675821510647845e+00
-2.5785498889621539e+00
-2.5894833936228219e+00
-2.6003827194307987e+00
-2.6112479207700905e+00
-2.6220790520247066e+00
-2.6328761675786554e+00
-2.6436393218159431e+00
-2.6543685691205781e+00
-2.6650639638765687e+00
-2.6757255604679244e+00
-2.6863534132786508e+00
-2.6969475766927564e+00
-2.7075081050942482e+00
-2.7180350528671373e+00
-2.7285284743954294e+00
-2.7389884240631317e+00
-2.7494149562542534e+00
-2.7598081253528033e+00
-2.7701679857427877e+00
-2.7804945918082136e+00
-2.7907879979330921e+00
-2.8010482585014298e+00
-2.8112754278972338e+00
-2.8214695605045108e+00
-2.8316307107072727e+00
-2.8417589328895247e+00
-2.8518542814352750e+00
-2.8619168107285327e+00
-2.8719465751533031e+00
-2.8819436290935974e+00
-2.8919080269334208e+00
-2.9018398230567843e+00
-2.9117390718476925e+00
-2.9216058276901555e+00
-2.9314401449681800e+00
-2.9412420780657746e+00
-2.9510116813669480e+00
-2.9607490092557072e+00
-2.9704541161160596e+00
-2.9801270563320155e+00
-2.9897678842875797e+00
-2.9993766543667602e+00
-3.0089534209535693e+00
-3.0184982384320111e+00
-3.0280111611860940e+00
-3.0374922435998255e+00
-3.0469415400572153e+00
-3.0563591049422709e+00
-3.0657449926389981e+00
-3.0750992575314080e+00
-3.0844219540035072e+00
-3.0937131364393040e+00
-3.1029728592228043e+00
-3.1122011767380182e+00
-3.1213981433689542e+00
-3.1305638134996183e+00
-3.1396982415140187e+00
-3.1488014817961631e+00
-3.1578735887300629e+00
-3.1669146166997204e+00
-3.1759246200891478e+00
-3.1849036532823529e+00
-3.1938517706633416e+00
-3.2027690266161222e+00
-3.2116554755247035e+00
-3.2205111717730932e+00
-3.2293361697452991e+00
-3.2381305238253288e+00
-3.2468942883971916e+00
-3.2556275178448941e+00
-3.2643302665524443e+00
-3.2730025889038510e+00
-3.2816445392831204e+00
-3.2902561720742631e+00
-3.2988375416612845e+00
-3.3073887024281938e+00
-3.3159097087590004e+00
-3.3244006150377090e+00
-3.3328614756483286e+00
-3.3412923449748693e+00
-3.3496932774013364e+00
-3.3580643273117401e+00
-3.3664055490900848e+00
-3.3747169971203825e+00
-3.3829987257866394e+00
-3.3912507894728625e+00
-3.3994732425630612e+00
-3.4076661394412437e+00
-3.4158295344914174e+00
-3.4239634820975886e+00
-3.4320680366437668e+00
-3.4401432525139604e+00
-3.4481891840921777e+00
-3.4562058857624236e+00
-3.4641934119087097e+00
-3.4721518169150416e+00
-3.4800811551654278e+00
-3.4879814810438763e+00
-3.4958528489343959e+00
-3.5036953132209945e+00
-3.5115089282876775e+00
-3.5192937485184563e+00
-3.5270498282973368e+00
-3.5347772220083273e+00
-3.5424759840354354e+00
-3.5501461687626712e+00
-3.5577878305740396e+00
-3.5654010238535494e+00
-3.5729858029852091e+00
-3.5805422223530270e+00
-3.5880703363410107e+00
-3.5955701993331681e+00
-3.6030418657135073e+00
-3.6104853898660365e+00
-3.6179008261747616e+00
-3.6252882290236927e+00
-3.6326476527968374e+00
-3.6399791518782041e+00
-3.6472827806517985e+00
-3.6545585935016311e+00
-3.6618066448117084e+00
-3.6690269889660398e+00
-3.6762196803486304e+00
-3.6833847733434912e+00
-3.6905223223346288e+00
-3.6976323817060512e+00
-3.7047150058417651e+00
-3.7117702491257809e+00
-3.7187981659421059e+00
-3.7257988106747466e+00
-3.7327722377077124e+00
-3.7397185014250098e+00
-3.7466376562106487e+00
-3.7535297564486352e+00
-3.7603948565229777e+00
-3.7672330108176855e+00
-3.7740442737167652e+00
-3.7808286996042244e+00
-3.7875863428640724e+00
-3.7943172578803157e+00
-3.8010214990369642e+00
-3.8076991207180226e+00
-3.8143501773075026e+00
-3.8209747231894102e+00
-3.8275728127477522e+00
-3.8341445003665386e+00
-3.8406898404297776e+00
-3.8472088873214751e+00
-3.8537016954256402e+00
-3.8601683191262812e+00
-3.8666088128074056e+00
-3.8730232308530210e+00
-3.8794116276471349e+00
-3.8857740575737565e+00
-3.8921105750168943e+00
-3.8984212343605531e+00
-3.9047060899887445e+00
-3.9109651962854750e+00
-3.9171986076347522e+00
-3.9234063784205837e+00
-3.9295885630269782e+00
-3.9357452158379442e+00
-3.9418763912374879e+00
-3.9479821436096181e+00
-3.9540625273383432e+00
-3.9601175968076712e+00
-3.9661474064016096e+00
-3.9721520105041659e+00
-3.9781314634993490e+00
-3.9840858197711659e+00
-3.9900151337036251e+00
-3.9959194596807346e+00
-4.0017988520865027e+00
-4.0076533653049369e+00
-4.0134830537200434e+00
-4.0192879717158343e+00
-4.0250681736763134e+00
-4.0308237139854901e+00
-4.0365546470273737e+00
-4.0422610271859707e+00
-4.0479429088452887e+00
-4.0536003463893362e+00
-4.0592333942021215e+00
-4.0648421066676521e+00
-4.0704265381699374e+00
-4.0759867430929821e+00
-4.0815227758207975e+00
-4.0870346907373900e+00
-4.0925225422267664e+00
-4.0979863846729376e+00
-4.1034262724599095e+00
-4.1088422599716905e+00
-4.1142344015922863e+00
-4.1196027517057088e+00
-4.1249473646959638e+00
-4.1302682949470606e+00
-4.1355655968430050e+00
-4.1408393247678061e+00
-4.1460895331054726e+00
-4.1513162762400100e+00
-4.1565196085554295e+00
-4.1616995844357358e+00
-4.1668562582649402e+00
-4.1719896844270474e+00
-4.1770999173060677e+00
-4.1821870112860084e+00
-4.1872510207508773e+00
-4.1922920000846808e+00
-4.1973100036714301e+00
-4.2023050858951301e+00
-4.2072773011397908e+00
-4.2122267037894190e+00
-4.2171533482280230e+00
-4.2220572888396104e+00
-4.2269385800081887e+00
-4.2317972761177689e+00
-4.2366334315523559e+00
-4.2414471006959573e+00
-4.2462383379325823e+00
-4.2510071976462394e+00
-4.2557537342209359e+00
-4.2604780020406796e+00
-4.2651800554894779e+00
-4.2698599489513391e+00
-4.2745177368102718e+00
-4.2791534734502834e+00
-4.2837672132553823e+00
-4.2883590106095761e+00
-4.2929289198968732e+00
-4.2974769955012793e+00
-4.3020032918068063e+00
-4.3065078631974592e+00
-4.3109907640572462e+00
-4.3154520487701760e+00
-4.3198917717202558e+00
-4.3243099872914952e+00
-4.3287067498678997e+00
-4.3330821138334796e+00
-4.3374361335722416e+00
-4.3417688634681939e+00
-4.3460803579053433e+00
-4.3503706712676999e+00
-4.3546398579392704e+00
-4.3588879723040623e+00
-4.3631150687460840e+00
-4.3673212016493448e+00
-4.3715064253978504e+00
-4.3756707943756092e+00
-4.3798143629666315e+00
-4.3839371855549221e+00
-4.3880393165244911e+00
-4.3921208102593434e+00
-4.3961817211434910e+00
-4.4002221035609406e+00
-4.4042420118956995e+00
-4.4082415005317737e+00
-4.4122206238531749e+00
-4.4161794362439082e+00
-4.4201179920879827e+00
-4.4240363457694070e+00
-4.4279345516721884e+00
-4.4318126641803346e+00
-4.4356707376778530e+00
-4.4395088265487521e+00
-4.4433269851770412e+00
-4.4471252679467268e+00
-4.4509037292418157e+00
-4.4546624234463179e+00
-4.4584014049442411e+00
-4.4621207281195918e+00
-4.4658204473563794e+00
-4.4695006170386113e+00
-4.4731612915502961e+00
-4.4768025252754393e+00
-4.4804243725980522e+00
-4.4840268879021412e+00
-4.4876101255717149e+00
-4.4911741399907790e+00
-4.4947189855433436e+00
-4.4982447166134172e+00
-4.5017513875850055e+00
-4.5052390528421169e+00
-4.5087077667687616e+00
-4.5121575837489454e+00
-4.5155885581666766e+00
-4.5190007444059628e+00
-4.5223941968508132e+00
-4.5257689698852355e+00
-4.5291251178932361e+00
-4.5324626952588245e+00
-4.5357817563660090e+00
-4.5390823555987954e+00
-4.5423645473411929e+00
-4.5456283859772100e+00
-4.5488739258908542e+00
-4.5521012214661321e+00
-4.5553103270870547e+00
-4.5585012971376271e+00
-4.5616741860018593e+00
-4.5648290480637570e+00
-4.5679659377073296e+00
-4.5710849093165855e+00
-4.5741860172755313e+00
-4.5772693159681754e+00
-4.5803348597785263e+00
-4.5833827030905923e+00
-4.5864129002883791e+00
-4.5894255057558979e+00
-4.5924205738771535e+00
-4.5953981590361561e+00
-4.5983583156169123e+00
-4.6013010980034306e+00
-4.6042265605797192e+00
-4.6071347577297859e+00
-4.6100257438376371e+00
-4.6128995732872831e+00
-4.6157563004627304e+00
-4.6185959797479876e+00
-4.6214186655270622e+00
-4.6242244121839633e+00
-4.6270132741026968e+00
-4.6297853056672720e+00
-4.6325405612616972e+00
-4.6352790952699801e+00
-4.6380009620761271e+00
-4.6407062160641468e+00
-4.6433949116180493e+00
-4.6460671031218403e+00
-4.6487228449595275e+00
-4.6513621915151209e+00
-4.6539851971726263e+00
-4.6565919163160538e+00
-4.6591824033294094e+00
-4.6617567125967003e+00
-4.6643148985019378e+00
-4.6668570154291285e+00
-4.6693831177622780e+00
-4.6718932598853966e+00
-4.6743874961824918e+00
-4.6768658810375703e+00
-4.6793284688346422e+00
-4.6817753139577150e+00
-4.6842064707907953e+00
-4.6866219937178917e+00
-4.6890219371230124e+00
-4.6914063553901650e+00
-4.6937753029033589e+00
-4.6961288340465979e+00
-4.6984670032038940e+00
-4.7007898647592556e+00
-4.7030974730966868e+00
-4.7053898826001985e+00
-4.7076671476537983e+00
-4.7099293226414938e+00
-4.7121764619472923e+00
-4.7144086199552024e+00
-4.7166258510492316e+00
-4.7188282096133882e+00
-4.7210157500316798e+00
-4.7231885266881148e+00
-4.7253465939667025e+00
-4.7274900062514478e+00
-4.7296188179263599e+00
-4.7317330833754490e+00
-4.7338328569827191e+00
-4.7359181931321794e+00
-4.7379891462078403e+00
-4.7400457705937082e+00
-4.7420881206737899e+00
-4.7441162508320938e+00
-4.7461302154526290e+00
-4.7481300689194033e+00
-4.7501158656164231e+00
-4.7520876599276978e+00
-4.7540455062372349e+00
-4.7559894589290419e+00
-4.7579195723871273e+00
-4.7598359009954985e+00
-4.7617384991381648e+00
-4.7636274211991330e+00
-4.7655027215624104e+00
-4.7673644546120064e+00
-4.7692126747319286e+00
-4.7710474363061843e+00
-4.7728687937187813e+00
-4.7746768013537286e+00
-4.7764715135950331e+00
-4.7782529848267030e+00
-4.7800212694327477e+00
-4.7817764217971730e+00
-4.7835184963039881e+00
-4.7852475473372005e+00
-4.7869636292808178e+00
-4.7886667965188492e+00
-4.7903571034353014e+00
-4.7920346044141819e+00
-4.7936993538395010e+00
-4.7953514060952642e+00
-4.7969908155654792e+00
-4.7986176366341571e+00
-4.8002319236853035e+00
-4.8018337311029269e+00
-4.8034231132710339e+00
-4.8050001245736338e+00
-4.8065648193947359e+00
-4.8081172521183451e+00
-4.8096574771284715e+00
-4.8111855488091209e+00
-4.8127015215443043e+00
-4.8142054497180267e+00
-4.8156973877142990e+00
-4.8171773899171271e+00
-4.8186455107105193e+00
-4.8201018044784831e+00
-4.8215463256050262e+00
-4.8229791284741585e+00
-4.8244002674698869e+00
-4.8258097969762179e+00
-4.8272077713771626e+00
-4.8285942450567259e+00
-4.8299692723989160e+00
-4.8313329077877425e+00
-4.8326852056072127e+00
-4.8340262202413351e+00
-4.8353560060741163e+00
-4.8366746174895647e+00
-4.8379821088716888e+00
-4.8392785346044969e+00
-4.8405639490719947e+00
-4.8418384066581925e+00
-4.8431019617470978e+00
-4.8443546687227181e+00
-4.8455965819690601e+00
-4.8468277558701338e+00
-4.8480482448099478e+00
-4.8492581031725059e+00
-4.8504573853418202e+00
-4.8516461457018982e+00
-4.8528244386367456e+00
-4.8539923185303708e+00
-4.8551498397667849e+00
-4.8562970567299919e+00
-4.8574340238040019e+00
-4.8585607953728207e+00
-4.8596774258204594e+00
-4.8607839695309254e+00
-4.8618804808882228e+00
-4.8629670142763644e+00
-4.8640436240793550e+00
-4.8651103646812039e+00
-4.8661672904659188e+00
-4.8672144558175070e+00
-4.8682519151199788e+00
-4.8692797227573390e+00
-4.8702979331135969e+00
-4.8713066005727619e+00
-4.8723057795188387e+00
-4.8732955243358367e+00
-4.8742758894077660e+00
-4.8752469291186316e+00
-4.8762086978524435e+00
-4.8771612499932075e+00
-4.8781046399249339e+00
-4.8790389220316293e+00
-4.8799641506973011e+00
-4.8808803803059577e+00
-4.8817876652416077e+00
-4.8826860598882602e+00
-4.8835756186299202e+00
-4.8844563958505960e+00
-4.8853284459342987e+00
-4.8861918232650332e+00
-4.8870465822268088e+00
-4.8878927772036320e+00
-4.8887304625795132e+00
-4.8895596927384579e+00
-4.8903805220644747e+00
-4.8911930049415728e+00
-4.8919971957537589e+00
-4.8927931488850414e+00
-4.8935809187194277e+00
-4.8943605596409272e+00
-4.8951321260335456e+00
-4.8958956722812914e+00
-4.8966512527681747e+00
-4.8973989218782013e+00
-4.8981387339953812e+00
-4.8988707435037186e+00
-4.8995950047872254e+00
-4.9003115722299064e+00
-4.9010205002157727e+00
-4.9017218431288292e+00
-4.9024156553530860e+00
-4.9031019912725506e+00
-4.9037809052712289e+00
-4.9044524517331318e+00
-4.9051166850422661e+00
-4.9057736595826400e+00
-4.9064234297382594e+00
-4.9070660498931353e+00
-4.9077015744312735e+00
-4.9083300577366842e+00
-4.9089515541933713e+00
-4.9095661181853476e+00
-4.9101738040966181e+00
-4.9107746663111902e+00
-4.9113687592130750e+00
-4.9119561371862765e+00
-4.9125368546148058e+00
-4.9131109658826686e+00
-4.9136785253738751e+00
-4.9142395874724318e+00
-4.9147942065623464e+00
-4.9153424370276264e+00
-4.9158843332522819e+00
-4.9164199496203196e+00
-4.9169493405157461e+00
-4.9174725603225724e+00
-4.9179896634248044e+00
-4.9185007042064495e+00
-4.9190057370515161e+00
-4.9195048163440145e+00
-4.9199979964679486e+00
-4.9204853318073303e+00
-4.9209668767461636e+00
-4.9214426856684605e+00
-4.9219128129582259e+00
-4.9223773129994690e+00
-4.9228362401761974e+00
-4.9232896488724194e+00
-4.9237375934721417e+00
-4.9241801283593736e+00
-4.9246173079181235e+00
-4.9250491865323989e+00
-4.9254758185862064e+00
-4.9258972584635545e+00
-4.9263135605484525e+00
-4.9267247792249078e+00
-4.9271309688769263e+00
-4.9275321838885189e+00
-4.9279284786436923e+00
-4.9283199075264541e+00
-4.9287065249208117e+00
-4.9290883852107745e+00
-4.9294655427803509e+00
-4.9298380520135465e+00
-4.9302059672943699e+00
-4.9305693430068303e+00
-4.9309282335349351e+00
-4.9312826932626912e+00
-4.9316327765741095e+00
-4.9319785378531940e+00
-4.9323200314839548e+00
-4.9326573118504005e+00
-4.9329904333365375e+00
-4.9333194503263744e+00
-4.9336444172039196e+00
-4.9339653883531795e+00
-4.9342824181581637e+00
-4.9345955610028795e+00
-4.9349048712713355e+00
-4.9352104033475372e+00
-4.9355122116154959e+00
-4.9358103504592172e+00
-4.9361048742627105e+00
-4.9363958374099823e+00
-4.9366832942850420e+00
-4.9369672992718971e+00
-4.9372479067545543e+00
-4.9375251711170236e+00
-4.9377991467433118e+00
-4.9380698880174263e+00
-4.9383374493233747e+00
-4.9386018850451672e+00
-4.9388632495668112e+00
-4.9391215972723126e+00
-4.9393769825456815e+00
-4.9396294597709245e+00
-4.9398790833320501e+00
-4.9401259076130657e+00
-4.9403699869979798e+00
-4.9406113758708008e+00
-4.9408501286155371e+00
-4.9410862996161926e+00
-4.9413199432567811e+00
-4.9415511139213066e+00
-4.9417798659937775e+00
-4.9420062538582039e+00
-4.9422303318985907e+00
-4.9424521544989490e+00
-4.9426717760432837e+00
-4.9428892509156048e+00
-4.9431046334999200e+00
-4.9433179781802368e+00
-4.9435293393405617e+00
-4.9437387713649050e+00
-4.9439463286372751e+00
-4.9441520655416760e+00
-4.9443560364621204e+00
-4.9445582957826142e+00
-4.9447588978871648e+00
-4.9449578971597790e+00
-4.9451553479844685e+00
-4.9453513047452384e+00
-4.9455458218260970e+00
-4.9457389536110528e+00
-4.9459307544841131e+00
-4.9461212788292865e+00
-4.9463110397166679e+00
-4.9464991601148540e+00
-4.9466861011988561e+00
-4.9468718603453592e+00
-4.9470564349310413e+00
-4.9472398223325849e+00
-4.9474220199266687e+00
-4.9476030250899772e+00
-4.9477828351991882e+00
-4.9479614476309841e+00
-4.9481388597620457e+00
-4.9483150689690545e+00
-4.9484900726286911e+00
-4.9486638681176354e+00
-4.9488364528125688e+00
-4.9490078240901738e+00
-4.9491779793271302e+00
-4.9493469159001187e+00
-4.9495146311858207e+00
-4.9496811225609161e+00
-4.9498463874020873e+00
-4.9500104230860158e+00
-4.9501732269893806e+00
-4.9503347964888640e+00
-4.9504951289611459e+00
-4.9506542217829077e+00
-4.9508120723308311e+00
-4.9509686779815976e+00
-4.9511240361118851e+00
-4.9512781440983780e+00
-4.9514309993177559e+00
-4.9515825991466986e+00
-4.9517329409618887e+00
-4.9518820221400066e+00
-4.9520298400577341e+00
-4.9521763920917499e+00
-4.9523216756187365e+00
-4.9524656880153763e+00
-4.9526084266583466e+00
-4.9527498889243322e+00
-4.9528900721900122e+00
-4.9530289738320672e+00
-4.9531665912271787e+00
-4.9533029217520266e+00
-4.9534379627832950e+00
-4.9535717116976619e+00
-4.9537041658718088e+00
-4.9538353226824166e+00
-4.9539651795061674e+00
-4.9540937337197413e+00
-4.9542209826998196e+00
-4.9543469238230831e+00
-4.9544715544662123e+00
-4.9545948720058881e+00
-4.9547168738187928e+00
-4.9548375572816061e+00
-4.9549569197710097e+00
-4.9550749586636842e+00
-4.9551916713363102e+00
-4.9553070551655694e+00
-4.9554211075281414e+00
-4.9555338258007096e+00
-4.9556452073599520e+00
-4.9557552495825519e+00
-4.9558639498451900e+00
-4.9559713055245469e+00
-4.9560773139973024e+00
-4.9561819726401390e+00
-4.9562852788297365e+00
-4.9563872299427771e+00
-4.9564878233559408e+00
-4.9565870564459091e+00
-4.9566849265893627e+00
-4.9567814311629830e+00
-4.9568765675434499e+00
-4.9569703331074457e+00
-4.9570627252316504e+00
-4.9571537412927453e+00
-4.9572433786674113e+00
-4.9573316347323289e+00
-4.9574185068641805e+00
-4.9575039924396460e+00
-4.9575880888354060e+00
-4.9576707934281421e+00
-4.9577521035945349e+00
-4.9578320167112659e+00
-4.9579105301550150e+00
-4.9579876413024646e+00
-4.9580633475302953e+00
-4.9581376462151878e+00
-4.9582105347338219e+00
-4.9582820104628809e+00
-4.9583520707790436e+00
-4.9584207130589926e+00
-4.9584879346794075e+00
-4.9585537330169700e+00
-4.9586181054483607e+00
-4.9586810493502611e+00
-4.9587425620993528e+00
-4.9588026410723147e+00
-4.9588612836458301e+00
-4.9589184871965770e+00
-4.9589742491012396e+00
-4.9590285667364968e+00
-4.9590814374790302e+00
-4.9591328587055212e+00
-4.9591828277926497e+00
-4.9592313421170973e+00
-4.9592783990555453e+00
-4.9593239959846738e+00
-4.9593681302811659e+00
-4.9594107993216987e+00
-4.9594520004829565e+00
-4.9594917311416191e+00
-4.9595299886743671e+00
-4.9595667704578821e+00
-4.9596020738688447e+00
-4.9596358962839355e+00
-4.9596682350798371e+00
-4.9596990876332283e+00
-4.9597284513207924e+00
-4.9597563235192075e+00
-4.9597827016051568e+00
-4.9598075829553210e+00
-4.9598309649463799e+00
-4.9598528449550159e+00
-4.9598732203579088e+00
-4.9598920885317392e+00
-4.9599094468531906e+00
-4.9599252926989408e+00
-4.9599396234456723e+00
-4.9599524364700676e+00
-4.9599637291488037e+00
-4.9599734988585658e+00
-4.9599817429760318e+00
-4.9599884588778842e+00
-4.9599936439408037e+00
-4.9599972955414708e+00
-4.9599994110565673e+00
-4.9599999878627736e+00
-4.9599990233367706e+00
-4.9599965148552387e+00
-4.9599924597948606e+00
-4.9599868555323159e+00
-4.9599796994442853e+00
-4.9599709889074513e+00
-4.9599607212984935e+00
-4.9599488939940928e+00
-4.9599355043709314e+00
-4.9599205498056893e+00
-4.9599040276750470e+00
-4.9598859353556870e+00
-4.9598662702242891e+00
-4.9598450296575338e+00
-4.9598222110321037e+00
-4.9597978117246786e+00
-4.9597718291119408e+00
-4.9597442605705684e+00
-4.9597151034772455e+00
-4.9596843552086503e+00
-4.9596520131414659e+00
-4.9596180746523739e+00
-4.9595825371180524e+00
-4.9595453979151847e+00
-4.9595066544204496e+00
-4.9594663040105305e+00
-4.9594243440621062e+00
-4.9593807719518601e+00
-4.9593355850564711e+00
-4.9592887807526216e+00
-4.9592403564169913e+00
-4.9591903094262610e+00
-4.9591386371571131e+00
-4.9590853369862282e+00
-4.9590304062902861e+00
-4.9589738424459693e+00
-4.9589156428299566e+00
-4.9588558048189313e+00
-4.9587943257895732e+00
-4.9587312031185631e+00
-4.9586664341825832e+00
-4.9586000163583135e+00
-4.9585319470224345e+00
-4.9584622235516287e+00
-4.9583908433225750e+00
-4.9583178037119557e+00
-4.9582431020964517e+00
-4.9581667358527435e+00
-4.9580887023575135e+00
-4.9580089989874399e+00
-4.9579276231192058e+00
-4.9578445721294919e+00
-4.9577598433949790e+00
-4.9576734342923485e+00
-4.9575853421982794e+00
-4.9574955644894549e+00
-4.9574040985425558e+00
-4.9573109417342609e+00
-4.9572160914412535e+00
-4.9571195450402143e+00
-4.9570212999078231e+00
-4.9569213534207615e+00
-4.9568197029557099e+00
-4.9567163458893502e+00
-4.9566112795983628e+00
-4.9565045014594293e+00
-4.9563960088492305e+00
-4.9562857991444460e+00
-4.9561738697217583e+00
-4.9560602179578481e+00
-4.9559448412293952e+00
-4.9558277369130819e+00
-4.9557089023855898e+00
-4.9555883350235979e+00
-4.9554660322037885e+00
-4.9553419913028423e+00
-4.9552162096974381e+00
-4.9550886847642612e+00
-4.9549594138799895e+00
-4.9548283944213045e+00
-4.9546956237648878e+00
-4.9545610992874192e+00
-4.9544248183655810e+00
-4.9542867783760531e+00
-4.9541469766955171e+00
-4.9540054107006535e+00
-4.9538620777681439e+00
-4.9537169752746690e+00
-4.9535701005969095e+00
-4.9534214511115469e+00
-4.9532710241952618e+00
-4.9531188172247349e+00
-4.9529648275766469e+00
-4.9528090526276793e+00
-4.9526514897545137e+00
-4.9524921363338299e+00
-4.9523309897423093e+00
-4.9521680473566336e+00
-4.9520033065534825e+00
-4.9518367647095376e+00
-4.9516684192014804e+00
-4.9514982674059898e+00
-4.9513263066997499e+00
-4.9511525344594389e+00
-4.9509769480617392e+00
-4.9507995448833322e+00
-4.9506203223008969e+00
-4.9504392776911157e+00
-4.9502564084306702e+00
-4.9500717118962392e+00
-4.9498851854645061e+00
-4.9496968265121497e+00
-4.9495066324158525e+00
-4.9493146005522952e+00
-4.9491207282981575e+00
-4.9489250130301219e+00
-4.9487274521248699e+00
-4.9485280429590803e+00
-4.9483267829094357e+00
-4.9481236693526158e+00
-4.9479186996653022e+00
-4.9477118712241754e+00
-4.9475031814059180e+00
-4.9472926275872098e+00
-4.9470802071447322e+00
-4.9468659174551650e+00
-4.9466497558951907e+00
-4.9464317198414882e+00
-4.9462118066707408e+00
-4.9459900137596282e+00
-4.9457663384848320e+00
-4.9455407782230321e+00
-4.9453133303509107e+00
-4.9450839922451468e+00
-4.9448527612824238e+00
-4.9446196348394222e+00
-4.9443846102928219e+00
-4.9441476850193045e+00
-4.9457000435554361e+00
-4.9454957979480847e+00
-4.9452904929231885e+00
-4.9450841330570086e+00
-4.9448767229056161e+00
-4.9446682670049924e+00
-4.9444587698711349e+00
-4.9442482360001545e+00
-4.9440366698683782e+00
-4.9438240759324490e+00
-4.9436104586294274e+00
-4.9433958223768864e+00
-4.9431801715730161e+00
-4.9429635105967158e+00
-4.9427458438076943e+00
-4.9425271755465667e+00
-4.9423075101349490e+00
-4.9420868518755565e+00
-4.9418652050522969e+00
-4.9416425739303653e+00
-4.9414189627563383e+00
-4.9411943757582666e+00
-4.9409688171457704e+00
-4.9407422911101300e+00
-4.9405148018243779e+00
-4.9402863534433887e+00
-4.9400569501039726e+00
-4.9398265959249645e+00
-4.9395952950073134e+00
-4.9393630514341718e+00
-4.9391298692709862e+00
-4.9388957525655810e+00
-4.9386607053482514e+00
-4.9384247316318444e+00
-4.9381878354118554e+00
-4.9379500206665021e+00
-4.9377112913568197e+00
-4.9374716514267405e+00
-4.9372311048031845e+00
-4.9369896553961361e+00
-4.9367473070987336e+00
-4.9365040637873498e+00
-4.9362599293216780e+00
-4.9360149075448083e+00
-4.9357690022833163e+00
-4.9355222173473399e+00
-4.9352745565306622e+00
-4.9350260236107903e+00
-4.9347766223490401e+00
-4.9345263564906068e+00
-4.9342752297646530e+00
-4.9340232458843829e+00
-4.9337704085471232e+00
-4.9335167214343958e+00
-4.9332621882120016e+00
-4.9330068125300919e+00
-4.9327505980232491e+00
-4.9324935483105596e+00
-4.9322356669956902e+00
-4.9319769576669659e+00
-4.9317174238974415e+00
-4.9314570692449760e+00
-4.9311958972523069e+00
-4.9309339114471271e+00
-4.9306711153421547e+00
-4.9304075124352016e+00
-4.9301431062092558e+00
-4.9298779001325457e+00
-4.9296118976586127e+00
-4.9293451022263852e+00
-4.9290775172602448e+00
-4.9288091461701011e+00
-4.9285399923514595e+00
-4.9282700591854889e+00
-4.9279993500390944e+00
-4.9277278682649843e+00
-4.9274556172017361e+00
-4.9271826001738708e+00
-4.9269088204919127e+00
-4.9266342814524622e+00
-4.9263589863382613e+00
-4.9260829384182570e+00
-4.9258061409476737e+00
-4.9255285971680722e+00
-4.9252503103074190e+00
-4.9249712835801516e+00
-4.9246915201872410e+00
-4.9244110233162557e+00
-4.9241297961414299e+00
-4.9238478418237213e+00
-4.9235651635108786e+00
-4.9232817643375029e+00
-4.9229976474251096e+00
-4.9227128158821918e+00
-4.9224272728042830e+00
-4.9221410212740144e+00
-4.9218540643611819e+00
-4.9215664051228014e+00
-4.9212780466031738e+00
-4.9209889918339433e+00
-4.9206992438341572e+00
-4.9204088056103252e+00
-4.9201176801564799e+00
-4.9198258704542335e+00
-4.9195333794728375e+00
-4.9192402101692432e+00
-4.9189463654881571e+00
-4.9186518483620967e+00
-4.9183566617114520e+00
-4.9180608084445412e+00
-4.9177642914576660e+00
-4.9174671136351682e+00
-4.9171692778494878e+00
-4.9168707869612165e+00
-4.9165716438191538e+00
-4.9162718512603627e+00
-4.9159714121102258e+00
-4.9156703291824968e+00
-4.9153686052793555e+00
-4.9150662431914647e+00
-4.9147632456980217e+00
-4.9144596155668108e+00
-4.9141553555542590e+00
-4.9138504684054869e+00
-4.9135449568543619e+00
-4.9132388236235496e+00
-4.9129320714245681e+00
-4.9126247029578360e+00
-4.9123167209127292e+00
-4.9120081279676269e+00
-4.9116989267899660e+00
-4.9113891200362882e+00
-4.9110787103522950e+00
-4.9107677003728929e+00
-4.9104560927222485e+00
-4.9101438900138330e+00
-4.9098310948504755e+00
-4.9095177098244074e+00
-4.9092037375173181e+00
-4.9088891805003962e+00
-4.9085740413343837e+00
-4.9082583225696181e+00
-4.9079420267460865e+00
-4.9076251563934692e+00
-4.9073077140311874e+00
-4.9069897021684508e+00
-4.9066711233043048e+00
-4.9063519799276758e+00
-4.9060322745174183e+00
-4.9057120095423619e+00
-4.9053911874613529e+00
-4.9050698107233064e+00
-4.9047478817672445e+00
-4.9044254030223504e+00
-4.9041023769080017e+00
-4.9037788058338245e+00
-4.9034546921997348e+00
-4.9031300383959797e+00
-4.9028048468031855e+00
-4.9024791197923996e+00
-4.9021528597251347e+00
-4.9018260689534117e+00
-4.9014987498197984e+00
-4.9011709046574614e+00
-4.9008425357902006e+00
-4.9005136455324951e+00
-4.9001842361895447e+00
-4.8998543100573126e+00
-4.8995238694225645e+00
-4.8991929165629129e+00
-4.8988614537468580e+00
-4.8985294832338262e+00
-4.8981970072742138e+00
-4.8978640281094270e+00
-4.8975305479719191e+00
-4.8971965690852377e+00
-4.8968620936640583e+00
-4.8965271239142236e+00
-4.8961916620327903e+00
-4.8958557102080595e+00
-4.8955192706196256e+00
-4.8951823454384042e+00
-4.8948449368266793e+00
-4.8945070469381387e+00
-4.8941686779179134e+00
-4.8938298319026146e+00
-4.8934905110203717e+00
-4.8931507173908715e+00
-4.8928104531253949e+00
-4.8924697203268543e+00
-4.8921285210898304e+00
-4.8917868575006089e+00
-4.8914447316372218e+00
-4.8911021455694748e+00
-4.8907591013589933e+00
-4.8904156010592539e+00
-4.8900716467156204e+00
-4.8897272403653824e+00
-4.8893823840377868e+00
-4.8890370797540781e+00
-4.8886913295275285e+00
-4.8883451353634788e+00
-4.8879984992593704e+00
-4.8876514232047779e+00
-4.8873039091814494e+00
-4.8869559591633367e+00
-4.8866075751166287e+00
-4.8862587589997899e+00
-4.8859095127635896e+00
-4.8855598383511429e+00
-4.8852097376979335e+00
-4.8848592127318584e+00
-4.8845082653732517e+00
-4.8841568975349228e+00
-4.8838051111221930e+00
-4.8834529080329165e+00
-4.8831002901575262e+00
-4.8827472593790580e+00
-4.8823938175731856e+00
-4.8820399666082519e+00
-4.8816857083453016e+00
-4.8813310446381148e+00
-4.8809759773332333e+00
-4.8806205082699989e+00
-4.8802646392805791e+00
-4.8799083721900027e+00
-4.8795517088161855e+00
-4.8791946509699677e+00
-4.8788372004551404e+00
-4.8784793590684759e+00
-4.8781211285997594e+00
-4.8777625108318210e+00
-4.8774035075405626e+00
-4.8770441204949897e+00
-4.8766843514572393e+00
-4.8763242021826141e+00
-4.8759636744196069e+00
-4.8756027699099311e+00
-4.8752414903885528e+00
-4.8748798375837179e+00
-4.8745178132169817e+00
-4.8741554190032348e+00
-4.8737926566507346e+00
-4.8734295278611359e+00
-4.8730660343295131e+00
-4.8727021777443964e+00
-4.8723379597877923e+00
-4.8719733821352147e+00
-4.8716084464557143e+00
-4.8712431544119053e+00
-4.8708775076599915e+00
-4.8705115078497938e+00
-4.8701451566247815e+00
-4.8697784556220931e+00
-4.8694114064725689e+00
-4.8690440108007751e+00
-4.8686762702250297e+00
-4.8683081863574316e+00
-4.8679397608038881e+00
-4.8675709951641357e+00
-4.8672018910317707e+00
-4.8668324499942770e+00
-4.8664626736330456e+00
-4.8660925635234085e+00
-4.8657221212346560e+00
-4.8653513483300719e+00
-4.8649802463669483e+00
-4.8646088168966211e+00
-4.8642370614644879e+00
-4.8638649816100354e+00
-4.8634925788668673e+00
-4.8631198547627248e+00
-4.8627468108195124e+00
-4.8623734485533276e+00
-4.8619997694744770e+00
-4.8616257750875045e+00
-4.8612514668912210e+00
-4.8608768463787184e+00
-4.8605019150374007e+00
-4.8601266743490079e+00
-4.8597511257896349e+00
-4.8593752708297604e+00
-4.8589991109342670e+00
-4.8586226475624681e+00
-4.8582458821681271e+00
-4.8578688161994856e+00
-4.8574914510992802e+00
-4.8571137883047708e+00
-4.8567358292477634e+00
-4.8563575753546298e+00
-4.8559790280463320e+00
-4.8556001887384435e+00
-4.8552210588411757e+00
-4.8548416397593961e+00
-4.8544619328926517e+00
-4.8540819396351935e+00
-4.8537016613759922e+00
-4.8533210994987694e+00
-4.8529402553820127e+00
-4.8525591303989994e+00
-4.8521777259178176e+00
-4.8517960433013902e+00
-4.8514140839074908e+00
-4.8510318490887734e+00
-4.8506493401927848e+00
-4.8502665585619935e+00
-4.8498835055338034e+00
-4.8495001824405826e+00
-4.8491165906096763e+00
-4.8487327313634347e+00
-4.8483486060192273e+00
-4.8479642158894691e+00
-4.8475795622816378e+00
-4.8471946464982931e+00
-4.8468094698371011e+00
-4.8464240335908517e+00
-4.8460383390474782e+00
-4.8456523874900768e+00
-4.8452661801969326e+00
-4.8448797184415300e+00
-4.8444930034925777e+00
-4.8441060366140309e+00
-4.8437188190651037e+00
-4.8433313521002956e+00
-4.8429436369694061e+00
-4.8425556749175538e+00
-4.8421674671852015e+00
-4.8417790150081679e+00
-4.8413903196176511e+00
-4.8410013822402442e+00
-4.8406122040979600e+00
-4.8402227864082423e+00
-4.8398331303839885e+00
-4.8394432372335690e+00
-4.8390531081608437e+00
-4.8386627443651804e+00
-4.8382721470414758e+00
-4.8378813173801678e+00
-4.8374902565672615e+00
-4.8370989657843406e+00
-4.8367074462085888e+00
-4.8363156990128067e+00
-4.8359237253654310e+00
-4.8355315264305485e+00
-4.8351391033679176e+00
-4.8347464573329839e+00
-4.8343535894768985e+00
-4.8339605009465343e+00
-4.8335671928845061e+00
-4.8331736664291824e+00
-4.8327799227147095e+00
-4.8323859628710233e+00
-4.8319917880238661e+00
-4.8315973992948091e+00
-4.8312027978012626e+00
-4.8308079846564977e+00
-4.8304129609696593e+00
-4.8300177278457852e+00
-4.8296222863858222e+00
-4.8292266376866415e+00
-4.8288307828410559e+00
-4.8284347229378355e+00
-4.8280384590617249e+00
-4.8276419922934588e+00
-4.8272453237097785e+00
-4.8268484543834473e+00
-4.8264513853832645e+00
-4.8260541177740883e+00
-4.8256566526168410e+00
-4.8252589909685346e+00
-4.8248611338822807e+00
-4.8244630824073074e+00
-4.8240648375889759e+00
-4.8236664004687952e+00
-4.8232677720844359e+00
-4.8228689534697491e+00
-4.8224699456547775e+00
-4.8220707496657731e+00
-4.8216713665252131e+00
-4.8212717972518133e+00
-4.8208720428605414e+00
-4.8204721043626355e+00
-4.8200719827656169e+00
-4.8196716790733047e+00
-4.8192711942858333e+00
-4.8188705293996614e+00
-4.8184696854075906e+00
-4.8180686632987824e+00
-4.8176674640587658e+00
-4.8172660886694567e+00
-4.8168645381091713e+00
-4.8164628133526382e+00
-4.8160609153710148e+00
-4.8156588451319022e+00
-4.8152566035993560e+00
-4.8148541917339038e+00
-4.8144516104925552e+00
-4.8140488608288212e+00
-4.8136459436927206e+00
-4.8132428600308010e+00
-4.8128396107861482e+00
-4.8124361968984015e+00
-4.8120326193037659e+00
-4.8116288789350259e+00
-4.8112249767215607e+00
-4.8108209135893558e+00
-4.8104166904610173e+00
-4.8100123082557822e+00
-4.8096077678895384e+00
-4.8092030702748296e+00
-4.8087982163208727e+00
-4.8083932069335731e+00
-4.8079880430155324e+00
-4.8075827254660641e+00
-4.8071772551812080e+00
-4.8067716330537378e+00
-4.8063658599731811e+00
-4.8059599368258255e+00
-4.8055538644947351e+00
-4.8051476438597618e+00
-4.8047412757975581e+00
-4.8043347611815888e+00
-4.8039281008821426e+00
-4.8035212957663500e+00
-4.8031143466981874e+00
-4.8027072545384941e+00
-4.8023000201449859e+00
-4.8018926443722636e+00
-4.8014851280718256e+00
-4.8010774720920821e+00
-4.8006696772783668e+00
-4.8002617444729463e+00
-4.7998536745150329e+00
-4.7994454682407985e+00
-4.7990371264833867e+00
-4.7986286500729181e+00
-4.7982200398365116e+00
-4.7978112965982866e+00
-4.7974024211793820e+00
-4.7969934143979653e+00
-4.7965842770692397e+00
-4.7961750100054630e+00
-4.7957656140159530e+00
-4.7953560899071039e+00
-4.7949464384823903e+00
-4.7945366605423869e+00
-4.7941267568847747e+00
-4.7937167283043527e+00
-4.7933065755930473e+00
-4.7928962995399278e+00
-4.7924859009312151e+00
-4.7920753805502914e+00
-4.7916647391777119e+00
-4.7912539775912171e+00
-4.7908430965657409e+00
-4.7904320968734257e+00
-4.7900209792836250e+00
-4.7896097445629238e+00
-4.7891983934751430e+00
-4.7887869267813521e+00
-4.7883753452398787e+00
-4.7879636496063194e+00
-4.7875518406335500e+00
-4.7871399190717385e+00
-4.7867278856683493e+00
-4.7863157411681616e+00
-4.7859034863132708e+00
-4.7854911218431075e+00
-4.7850786484944399e+00
-4.7846660670013907e+00
-4.7842533780954408e+00
-4.7838405825054435e+00
-4.7834276809576357e+00
-4.7830146741756421e+00
-4.7826015628804894e+00
-4.7821883477906173e+00
-4.7817750296218851e+00
-4.7813616090875808e+00
-4.7809480868984355e+00
-4.7805344637626295e+00
-4.7801207403858017e+00
-4.7797069174710618e+00
-4.7792929957189969e+00
-4.7788789758276842e+00
-4.7784648584926961e+00
-4.7780506444071156e+00
-4.7776363342615396e+00
-4.7772219287440922e+00
-4.7768074285404332e+00
-4.7763928343337669e+00
-4.7759781468048503e+00
-4.7755633666320065e+00
-4.7751484944911278e+00
-4.7747335310556878e+00
-4.7743184769967542e+00
-4.7739033329829903e+00
-4.7734880996806712e+00
-4.7730727777536863e+00
-4.7726573678635553e+00
-4.7722418706694301e+00
-4.7718262868281087e+00
-4.7714106169940411e+00
-4.7709948618193385e+00
-4.7705790219537860e+00
-4.7701630980448462e+00
-4.7697470907376678e+00
-4.7693310006750984e+00
-4.7689148284976914e+00
-4.7684985748437123e+00
-4.7680822403491492e+00
-4.7676658256477236e+00
-4.7672493313708930e+00
-4.7668327581478644e+00
-4.7664161066056012e+00
-4.7659993773688321e+00
-4.7655825710600546e+00
-4.7651656882995521e+00
-4.7647487297053956e+00
-4.7643316958934543e+00
-4.7639145874774016e+00
-4.7634974050687262e+00
-4.7630801492767390e+00
-4.7626628207085799e+00
-4.7622454199692292e+00
-4.7618279476615113e+00
-4.7614104043861047e+00
-4.7609927907415539e+00
-4.7605751073242679e+00
-4.7601573547285367e+00
-4.7597395335465373e+00
-4.7593216443683390e+00
-4.7589036877819106e+00
-4.7584856643731328e+00
-4.7580675747258034e+00
-4.7576494194216430e+00
-4.7572311990403042e+00
-4.7568129141593838e+00
-4.7563945653544195e+00
-4.7559761531989082e+00
-4.7555576782643101e+00
-4.7551391411200532e+00
-4.7547205423335441e+00
-4.7543018824701733e+00
-4.7538831620933264e+00
-4.7534643817643856e+00
-4.7530455420427424e+00
-4.7526266434858027e+00
-4.7522076866489922e+00
-4.7517886720857687e+00
-4.7513696003476236e+00
-4.7509504719840931e+00
-4.7505312875427625e+00
-4.7501120475692780e+00
-4.7496927526073467e+00
-4.7492734031987514e+00
-4.7488539998833517e+00
-4.7484345431990933e+00
-4.7480150336820168e+00
-4.7475954718662594e+00
-4.7471758582840682e+00
-4.7467561934658038e+00
-4.7463364779399457e+00
-4.7459167122331047e+00
-4.7454968968700202e+00
-4.7450770323735796e+00
-4.7446571192648124e+00
-4.7442371580629077e+00
-4.7438171492852108e+00
-4.7433970934472409e+00
-4.7429769910626884e+00
-4.7425568426434266e+00
-4.7421366486995140e+00
-4.7417164097392082e+00
-4.7412961262689652e+00
-4.7408757987934491e+00
-4.7404554278155393e+00
-4.7400350138363336e+00
-4.7396145573551607e+00
-4.7391940588695789e+00
-4.7387735188753881e+00
-4.7383529378666349e+00
-4.7379323163356197e+00
-4.7375116547728995e+00
-4.7370909536672965e+00
-4.7366702135059082e+00
-4.7362494347741064e+00
-4.7358286179555469e+00
-4.7354077635321783e+00
-4.7349868719842441e+00
-4.7345659437902894e+00
-4.7341449794271702e+00
-4.7337239793700538e+00
-4.7333029440924337e+00
-4.7328818740661260e+00
-4.7324607697612802e+00
-4.7320396316463862e+00
-4.7316184601882787e+00
-4.7311972558521402e+00
-4.7307760191015156e+00
-4.7303547503983081e+00
-4.7299334502027897e+00
-4.7295121189736076e+00
-4.7290907571677909e+00
-4.7286693652407523e+00
-4.7282479436462976e+00
-4.7278264928366296e+00
-4.7274050132623557e+00
-4.7269835053724893e+00
-4.7265619696144636e+00
-4.7261404064341273e+00
-4.7257188162757569e+00
-4.7252971995820623e+00
-4.7248755567941894e+00
-4.7244538883517251e+00
-4.7240321946927084e+00
-4.7236104762536293e+00
-4.7231887334694393e+00
-4.7227669667735537e+00
-4.7223451765978588e+00
-4.7219233633727171e+00
-4.7215015275269714e+00
-4.7210796694879527e+00
-4.7206577896814821e+00
-4.7202358885318807e+00
-4.7198139664619720e+00
-4.7193920238930849e+00
-4.7189700612450656e+00
-4.7185480789362764e+00
-4.7181260773836051e+00
-4.7177040570024680e+00
-4.7172820182068174e+00
-4.7168599614091411e+00
-4.7164378870204784e+00
-4.7160157954504136e+00
-4.7155936871070860e+00
-4.7151715623971988e+00
-4.7147494217260180e+00
-4.7143272654973805e+00
-4.7139050941136986e+00
-4.7134829079759646e+00
-4.7130607074837592e+00
-4.7126384930352501e+00
-4.7122162650272026e+00
-4.7117940238549814e+00
-4.7113717699125583e+00
-4.7109495035925137e+00
-4.7105272252860448e+00
-4.7101049353829669e+00
-4.7096826342717222e+00
-4.7092603223393832e+00
-4.7088379999716539e+00
-4.7084156675528819e+00
-4.7079933254660551e+00
-4.7075709740928149e+00
-4.7071486138134526e+00
-4.7067262450069203e+00
-4.7063038680508322e+00
-4.7058814833214706e+00
-4.7054590911937906e+00
-4.7050366920414248e+00
-4.7046142862366880e+00
-4.7041918741505810e+00
-4.7037694561527958e+00
-4.7033470326117195e+00
-4.7029246038944406e+00
-4.7025021703667536e+00
-4.7020797323931589e+00
-4.7016572903368736e+00
-4.7012348445598322e+00
-4.7008123954226928e+00
-4.7003899432848399e+00
-4.6999674885043907e+00
-4.6995450314381966e+00
-4.6991225724418539e+00
-4.6987001118696998e+00
-4.6982776500748216e+00
-4.6978551874090639e+00
-4.6974327242230247e+00
-4.6970102608660662e+00
-4.6965877976863197e+00
-4.6961653350306829e+00
-4.6957428732448339e+00
-4.6953204126732260e+00
-4.6948979536591011e+00
-4.6944754965444835e+00
-4.6940530416701947e+00
-4.6936305893758501e+00
-4.6932081399998671e+00
-4.6927856938794656e+00
-4.6923632513506774e+00
-4.6919408127483466e+00
-4.6915183784061343e+00
-4.6910959486565220e+00
-4.6906735238308173e+00
-4.6902511042591577e+00
-4.6898286902705149e+00
-4.6894062821926958e+00
-4.6889838803523514e+00
-4.6885614850749775e+00
-4.6881390966849201e+00
-4.6877167155053758e+00
-4.6872943418584034e+00
-4.6868719760649205e+00
-4.6864496184447093e+00
-4.6860272693164235e+00
-4.6856049289975896e+00
-4.6851825978046095e+00
-4.6847602760527689e+00
-4.6843379640562377e+00
-4.6839156621280713e+00
-4.6834933705802220e+00
-4.6830710897235361e+00
-4.6826488198677625e+00
-4.6822265613215484e+00
-4.6818043143924566e+00
-4.6813820793869558e+00
-4.6809598566104311e+00
-4.6805376463671875e+00
-4.6801154489604517e+00
-4.6796932646923786e+00
-4.6792710938640507e+00
-4.6788489367754869e+00
-4.6784267937256407e+00
-4.6780046650124083e+00
-4.6775825509326303e+00
-4.6771604517820968e+00
-4.6767383678555472e+00
-4.6763162994466780e+00
-4.6758942468481459e+00
-4.6754722103515682e+00
-4.6750501902475294e+00
-4.6746281868255837e+00
-4.6742062003742575e+00
-4.6737842311810560e+00
-4.6733622795324639e+00
-4.6729403457139478e+00
-4.6725184300099647e+00
-4.6720965327039590e+00
-4.6716746540783722e+00
-4.6712527944146416e+00
-4.6708309539932067e+00
-4.6704091330935098e+00
-4.6699873319940020e+00
-4.6695655509721448e+00
-4.6691437903044157e+00
-4.6687220502663092e+00
-4.6683003311323414e+00
-4.6678786331760520e+00
-4.6674569566700095e+00
-4.6670353018858135e+00
-4.6666136690940974e+00
-4.6661920585645333e+00
-4.6657704705658345e+00
-4.6653489053657582e+00
-4.6649273632311088e+00
-4.6645058444277403e+00
-4.6640843492205635e+00
-4.6636628778735449e+00
-4.6632414306497125e+00
-4.6628200078111552e+00
-4.6623986096190313e+00
-4.6619772363335681e+00
-4.6615558882140675e+00
-4.6611345655189034e+00
-4.6607132685055337e+00
-4.6602919974304973e+00
-4.6598707525494172e+00
-4.6594495341170061e+00
-4.6590283423870691e+00
-4.6586071776125060e+00
-4.6581860400453134e+00
-4.6577649299365893e+00
-4.6573438475365361e+00
-4.6569227930944637e+00
-4.6565017668587902e+00
-4.6560807690770476e+00
-4.6556597999958838e+00
-4.6552388598610674e+00
-4.6548179489174863e+00
-4.6543970674091542e+00
-4.6539762155792133e+00
-4.6535553936699365e+00
-4.6531346019227300e+00
-4.6527138405781363e+00
-4.6522931098758376e+00
-4.6518724100546596e+00
-4.6514517413525720e+00
-4.6510311040066945e+00
-4.6506104982532950e+00
-4.6501899243277967e+00
-4.6497693824647808e+00
-4.6493488728979857e+00
-4.6489283958603149e+00
-4.6485079515838352e+00
-4.6480875402997821e+00
-4.6476671622385606e+00
-4.6472468176297514e+00
-4.6468265067021095e+00
-4.6464062296835715e+00
-4.6459859868012536e+00
-4.6455657782814566e+00
-4.6451456043496702e+00
-4.6447254652305725e+00
-4.6443053611480369e+00
-4.6438852923251295e+00
-4.6434652589841150e+00
-4.6430452613464608e+00
-4.6426252996328348e+00
-4.6422053740631135e+00
-4.6417854848563822e+00
-4.6413656322309365e+00
-4.6409458164042849e+00
-4.6405260375931574e+00
-4.6401062960134967e+00
-4.6396865918804728e+00
-4.6392669254084771e+00
-4.6388472968111305e+00
-4.6384277063012807e+00
-4.6380081540910103e+00
-4.6375886403916358e+00
-4.6371691654137104e+00
-4.6367497293670263e+00
-4.6363303324606218e+00
-4.6359109749027763e+00
-4.6354916569010181e+00
-4.6350723786621257e+00
-4.6346531403921301e+00
-4.6342339422963166e+00
-4.6338147845792275e+00
-4.6333956674446659e+00
-4.6329765910956979e+00
-4.6325575557346523e+00
-4.6321385615631270e+00
-4.6317196087819870e+00
-4.6313006975913726e+00
-4.6308818281906969e+00
-4.6304630007786489e+00
-4.6300442155532000e+00
-4.6296254727115986e+00
-4.6292067724503818e+00
-4.6287881149653707e+00
-4.6283695004516741e+00
-4.6279509291036955e+00
-4.6275324011151273e+00
-4.6271139166789617e+00
-4.6266954759874865e+00
-4.6262770792322909e+00
-4.6258587266042674e+00
-4.6254404182936124e+00
-4.6250221544898302e+00
-4.6246039353817343e+00
-4.6241857611574515e+00
-4.6237676320044212e+00
-4.6233495481093998e+00
-4.6229315096584624e+00
-4.6225135168370048e+00
-4.6220955698297477e+00
-4.6216776688207348e+00
-4.6212598139933379e+00
-4.6208420055302604e+00
-4.6204242436135363e+00
-4.6200065284245326e+00
-4.6195888601439563e+00
-4.6191712389518500e+00
-4.6187536650275973e+00
-4.6183361385499264e+00
-4.6179186596969108e+00
-4.6175012286459687e+00
-4.6170838455738705e+00
-4.6166665106567359e+00
-4.6162492240700397e+00
-4.6158319859886126e+00
-4.6154147965866423e+00
-4.6149976560376764e+00
-4.6145805645146272e+00
-4.6141635221897683e+00
-4.6137465292347404e+00
-4.6133295858205541e+00
-4.6129126921175869e+00
-4.6124958482955920e+00
-4.6120790545236963e+00
-4.6116623109704049e+00
-4.6112456178035979e+00
-4.6108289751905387e+00
-4.6104123832978736e+00
-4.6099958422916316e+00
-4.6095793523372315e+00
-4.6091629135994774e+00
-4.6087465262425678e+00
-4.6083301904300900e+00
-4.6079139063250292e+00
-4.6074976740897666e+00
-4.6070814938860805e+00
-4.6066653658751520e+00
-4.6062492902175638e+00
-4.6058332670733027e+00
-4.6054172966017628e+00
-4.6050013789617452e+00
-4.6045855143114647e+00
-4.6041697028085444e+00
-4.6037539446100233e+00
-4.6033382398723584e+00
-4.6029225887514196e+00
-4.6025069914025032e+00
-4.6020914479803219e+00
-4.6016759586390146e+00
-4.6012605235321464e+00
-4.6008451428127071e+00
-4.6004298166331186e+00
-4.6000145451452319e+00
-4.5995993285003332e+00
-4.5991841668491400e+00
-4.5987690603418105e+00
-4.5983540091279389e+00
-4.5979390133565605e+00
-4.5975240731761522e+00
-4.5971091887346365e+00
-4.5966943601793782e+00
-4.5962795876571922e+00
-4.5958648713143431e+00
-4.5954502112965470e+00
-4.5950356077489696e+00
-4.5946210608162348e+00
-4.5942065706424202e+00
-4.5937921373710644e+00
-4.5933777611451641e+00
-4.5929634421071786e+00
-4.5925491803990290e+00
-4.5921349761621038e+00
-4.5917208295372580e+00
-4.5913067406648143e+00
-4.5908927096845646e+00
-4.5904787367357764e+00
-4.5900648219571876e+00
-4.5896509654870146e+00
-4.5892371674629482e+00
-4.5888234280221596e+00
-4.5884097473012995e+00
-4.5879961254365034e+00
-4.5875825625633873e+00
-4.5871690588170546e+00
-4.5867556143320964e+00
-4.5863422292425904e+00
-4.5859289036821087e+00
-4.5855156377837112e+00
-4.5851024316799549e+00
-4.5846892855028907e+00
-4.5842761993840666e+00
-4.5838631734545308e+00
-4.5834502078448294e+00
-4.5830373026850131e+00
-4.5826244581046325e+00
-4.5822116742327470e+00
-4.5817989511979205e+00
-4.5813862891282282e+00
-4.5809736881512499e+00
-4.5805611483940813e+00
-4.5801486699833296e+00
-4.5797362530451178e+00
-4.5793238977050823e+00
-4.5789116040883799e+00
-4.5784993723196852e+00
-4.5780872025231956e+00
-4.5776750948226272e+00
-4.5772630493412239e+00
-4.5768510662017521e+00
-4.5764391455265070e+00
-4.5760272874373120e+00
-4.5756154920555190e+00
-4.5752037595020134e+00
-4.5747920898972136e+00
-4.5743804833610691e+00
-4.5739689400130681e+00
-4.5735574599722373e+00
-4.5731460433571405e+00
-4.5727346902858841e+00
-4.5723234008761109e+00
-4.5719121752450143e+00
-4.5715010135093275e+00
-4.5710899157853326e+00
-4.5706788821888571e+00
-4.5702679128352806e+00
-4.5698570078395306e+00
-4.5694461673160882e+00
-4.5690353913789883e+00
-4.5686246801418200e+00
-4.5682140337177266e+00
-4.5678034522194144e+00
-4.5673929357591438e+00
-4.5669824844487383e+00
-4.5665720983995843e+00
-4.5661617777226287e+00
-4.5657515225283847e+00
-4.5653413329269323e+00
-4.5649312090279190e+00
-4.5645211509405597e+00
-4.5641111587736409e+00
-4.5637012326355206e+00
-4.5632913726341302e+00
-4.5628815788769748e+00
-4.5624718514711349e+00
-4.5620621905232701e+00
-4.5616525961396155e+00
-4.5612430684259895e+00
-4.5608336074877895e+00
-4.5604242134299948e+00
-4.5600148863571697e+00
-4.5596056263734646e+00
-4.5591964335826143e+00
-4.5587873080879424e+00
-4.5583782499923613e+00
-4.5579692593983747e+00
-4.5575603364080770e+00
-4.5571514811231548e+00
-4.5567426936448916e+00
-4.5563339740741648e+00
-4.5559253225114498e+00
-4.5555167390568165e+00
-4.5551082238099392e+00
-4.5546997768700912e+00
-4.5542913983361455e+00
-4.5538830883065815e+00
-4.5534748468794817e+00
-4.5530666741525332e+00
-4.5526585702230333e+00
-4.5522505351878833e+00
-4.5518425691435977e+00
-4.5514346721863008e+00
-4.5510268444117292e+00
-4.5506190859152289e+00
-4.5502113967917666e+00
-4.5498037771359190e+00
-4.5493962270418837e+00
-4.5489887466034746e+00
-4.5485813359141245e+00
-4.5481739950668878e+00
-4.5477667241544406e+00
-4.5473595232690807e+00
-4.5469523925027318e+00
-4.5465453319469411e+00
-4.5461383416928829e+00
-4.5457314218313600e+00
-4.5453245724528033e+00
-4.5449177936472740e+00
-4.5445110855044639e+00
-4.5441044481136981e+00
-4.5436978815639337e+00
-4.5432913859437640e+00
-4.5428849613414179e+00
-4.5424786078447621e+00
-4.5420723255412980e+00
-4.5416661145181703e+00
-4.5412599748621618e+00
-4.5408539066596978e+00
-4.5404479099968453e+00
-4.5400419849593172e+00
-4.5396361316324692e+00
-4.5392303501013034e+00
-4.5388246404504704e+00
-4.5384190027642681e+00
-4.5380134371266427e+00
-4.5376079436211940e+00
-4.5372025223311709e+00
-4.5367971733394752e+00
-4.5363918967286621e+00
-4.5359866925809449e+00
-4.5355815609781898e+00
-4.5351765020019199e+00
-4.5347715157333184e+00
-4.5343666022532254e+00
-4.5339617616421455e+00
-4.5335569939802394e+00
-4.5331522993473330e+00
-4.5327476778229157e+00
-4.5323431294861418e+00
-4.5319386544158302e+00
-4.5315342526904665e+00
-4.5311299243882051e+00
-4.5307256695868681e+00
-4.5303214883639482e+00
-4.5299173807966087e+00
-4.5295133469616831e+00
-4.5291093869356818e+00
-4.5287055007947856e+00
-4.5283016886148513e+00
-4.5278979504714121e+00
-4.5274942864396781e+00
-4.5270906965945370e+00
-4.5266871810105567e+00
-4.5262837397619835e+00
-4.5258803729227459e+00
-4.5254770805664544e+00
-4.5250738627664022e+00
-4.5246707195955667e+00
-4.5242676511266104e+00
-4.5238646574318810e+00
-4.5234617385834159e+00
-4.5230588946529373e+00
-4.5226561257118583e+00
-4.5222534318312810e+00
-4.5218508130819988e+00
-4.5214482695344982e+00
-4.5210458012589569e+00
-4.5206434083252471e+00
-4.5202410908029345e+00
-4.5198388487612835e+00
-4.5194366822692524e+00
-4.5190345913954992e+00
-4.5186325762083790e+00
-4.5182306367759466e+00
-4.5178287731659594e+00
-4.5174269854458737e+00
-4.5170252736828482e+00
-4.5166236379437477e+00
-4.5162220782951366e+00
-4.5158205948032908e+00
-4.5154191875341860e+00
-4.5150178565535084e+00
-4.5146166019266518e+00
-4.5142154237187189e+00
-4.5138143219945190e+00
-4.5134132968185776e+00
-4.5130123482551276e+00
-4.5126114763681162e+00
-4.5122106812212035e+00
-4.5118099628777637e+00
-4.5114093214008859e+00
-4.5110087568533759e+00
-4.5106082692977560e+00
-4.5102078587962673e+00
-4.5098075254108680e+00
-4.5094072692032370e+00
-4.5090070902347748e+00
-4.5086069885665996e+00
-4.5082069642595552e+00
-4.5078070173742066e+00
-4.5074071479708451e+00
-4.5070073561094839e+00
-4.5066076418498637e+00
-4.5062080052514517e+00
-4.5058084463734414e+00
-4.5054089652747553e+00
-4.5050095620140445e+00
-4.5046102366496905e+00
-4.5042109892398061e+00
-4.5038118198422357e+00
-4.5034127285145535e+00
-4.5030137153140704e+00
-4.5026147802978302e+00
-4.5022159235226109e+00
-4.5018171450449262e+00
-4.5014184449210290e+00
-4.5010198232069074e+00
-4.5006212799582865e+00
-4.5002228152306332e+00
-4.4998244290791538e+00
-4.4994261215587938e+00
-4.4990278927242402e+00
-4.4986297426299240e+00
-4.4982316713300188e+00
-4.4978336788784414e+00
-4.4974357653288539e+00
-4.4970379307346633e+00
-4.4966401751490226e+00
-4.4962424986248344e+00
-4.4958449012147463e+00
-4.4954473829711556e+00
-4.4950499439462099e+00
-4.4946525841918046e+00
-4.4942553037595880e+00
-4.4938581027009619e+00
-4.4934609810670763e+00
-4.4930639389088380e+00
-4.4926669762769071e+00
-4.4922700932216966e+00
-4.4918732897933795e+00
-4.4914765660418796e+00
-4.4910799220168824e+00
-4.4906833577678302e+00
-4.4902868733439218e+00
-4.4898904687941172e+00
-4.4894941441671365e+00
-4.4890978995114619e+00
-4.4887017348753346e+00
-4.4883056503067591e+00
-4.4879096458535042e+00
-4.4875137215631016e+00
-4.4871178774828477e+00
-4.4867221136598046e+00
-4.4863264301407995e+00
-4.4859308269724290e+00
-4.4855353042010533e+00
-4.4851398618728036e+00
-4.4847445000335791e+00
-4.4843492187290490e+00
-4.4839540180046527e+00
-4.4835588979056009e+00
-4.4831638584768774e+00
-4.4827688997632347e+00
-4.4823740218092025e+00
-4.4819792246590833e+00
-4.4815845083569528e+00
-4.4811898729466648e+00
-4.4807953184718459e+00
-4.4804008449759012e+00
-4.4800064525020140e+00
-4.4796121410931447e+00
-4.4792179107920322e+00
-4.4788237616411957e+00
-4.4784296936829344e+00
-4.4780357069593286e+00
-4.4776418015122381e+00
-4.4772479773833087e+00
-4.4768542346139668e+00
-4.4764605732454212e+00
-4.4760669933186676e+00
-4.4756734948744858e+00
-4.4752800779534399e+00
-4.4748867425958814e+00
-4.4744934888419490e+00
-4.4741003167315689e+00
-4.4737072263044544e+00
-4.4733142176001079e+00
-4.4729212906578235e+00
-4.4725284455166836e+00
-4.4721356822155620e+00
-4.4717430007931238e+00
-4.4713504012878245e+00
-4.4709578837379169e+00
-4.4705654481814436e+00
-4.4701730946562419e+00
-4.4697808231999456e+00
-4.4693886338499818e+00
-4.4689965266435729e+00
-4.4686045016177420e+00
-4.4682125588093049e+00
-4.4678206982548785e+00
-4.4674289199908763e+00
-4.4670372240535121e+00
-4.4666456104787988e+00
-4.4662540793025496e+00
-4.4658626305603804e+00
-4.4654712642877064e+00
-4.4650799805197448e+00
-4.4646887792915200e+00
-4.4642976606378539e+00
-4.4639066245933767e+00
-4.4635156711925230e+00
-4.4631248004695303e+00
-4.4627340124584443e+00
-4.4623433071931151e+00
-4.4619526847072022e+00
-4.4615621450341711e+00
-4.4611716882072967e+00
-4.4607813142596626e+00
-4.4603910232241608e+00
-4.4600008151334958e+00
-4.4596106900201793e+00
-4.4592206479165384e+00
-4.4588306888547073e+00
-4.4584408128666375e+00
-4.4580510199840893e+00
-4.4576613102386400e+00
-4.4572716836616779e+00
-4.4568821402844092e+00
-4.4564926801378535e+00
-4.4561033032528474e+00
-4.4557140096600412e+00
-4.4553247993899054e+00
-4.4549356724727280e+00
-4.4545466289386138e+00
-4.4541576688174862e+00
-4.4537687921390878e+00
-4.4533799989329834e+00
-4.4529912892285557e+00
-4.4526026630550088e+00
-4.4522141204413694e+00
-4.4518256614164855e+00
-4.4514372860090266e+00
-4.4510489942474880e+00
-4.4506607861601877e+00
-4.4502726617752657e+00
-4.4498846211206908e+00
-4.4494966642242542e+00
-4.4491087911135736e+00
-4.4487210018160939e+00
-4.4483332963590865e+00
-4.4479456747696506e+00
-4.4475581370747133e+00
-4.4471706833010298e+00
-4.4467833134751853e+00
-4.4463960276235950e+00
-4.4460088257725010e+00
-4.4456217079479812e+00
-4.4452346741759419e+00
-4.4448477244821198e+00
-4.4444608588920875e+00
-4.4440740774312468e+00
-4.4436873801248353e+00
-4.4433007669979228e+00
-4.4429142380754154e+00
-4.4425277933820526e+00
-4.4421414329424085e+00
-4.4417551567808964e+00
-4.4413689649217609e+00
-4.4409828573890877e+00
-4.4405968342067998e+00
-4.4402108953986552e+00
-4.4398250409882536e+00
-4.4394392709990296e+00
-4.4390535854542632e+00
-4.4386679843770676e+00
-4.4382824677904011e+00
-4.4378970357170617e+00
-4.4375116881796872e+00
-4.4371264252007609e+00
-4.4367412468026037e+00
-4.4363561530073836e+00
-4.4359711438371097e+00
-4.4355862193136355e+00
-4.4352013794586593e+00
-4.4348166242937239e+00
-4.4344319538402157e+00
-4.4340473681193711e+00
-4.4336628671522682e+00
-4.4332784509598344e+00
-4.4328941195628433e+00
-4.4325098729819175e+00
-4.4321257112375259e+00
-4.4317416343499874e+00
-4.4313576423394698e+00
-4.4309737352259901e+00
-4.4305899130294160e+00
-4.4302061757694631e+00
-4.4298225234657025e+00
-4.4294389561375542e+00
-4.4290554738042891e+00
-4.4286720764850314e+00
-4.4282887641987596e+00
-4.4279055369643032e+00
-4.4275223948003468e+00
-4.4271393377254284e+00
-4.4267563657579405e+00
-4.4263734789161333e+00
-4.4259906772181079e+00
-4.4256079606818250e+00
-4.4252253293251007e+00
-4.4248427831656079e+00
-4.4244603222208765e+00
-4.4240779465082953e+00
-4.4236956560451102e+00
-4.4233134508484246e+00
-4.4229313309352047e+00
-4.4225492963222726e+00
-4.4221673470263125e+00
-4.4217854830638679e+00
-4.4214037044513432e+00
-4.4210220112050038e+00
-4.4206404033409799e+00
-4.4202588808752585e+00
-4.4198774438236921e+00
-4.4194960922019977e+00
-4.4191148260257531e+00
-4.4187336453104020e+00
-4.4183525500712486e+00
-4.4179715403234674e+00
-4.4175906160820926e+00
-4.4172097773620278e+00
-4.4168290241780408e+00
-4.4164483565447652e+00
-4.4160677744767032e+00
-4.4156872779882228e+00
-4.4153068670935607e+00
-4.4149265418068193e+00
-4.4145463021419724e+00
-4.4141661481128613e+00
-4.4137860797331960e+00
-4.4134060970165567e+00
-4.4130261999763940e+00
-4.4126463886260270e+00
-4.4122666629786504e+00
-4.4118870230473242e+00
-4.4115074688449845e+00
-4.4111280003844371e+00
-4.4107486176783608e+00
-4.4103693207393082e+00
-4.4099901095797049e+00
-4.4096109842118487e+00
-4.4092319446479129e+00
-4.4088529908999439e+00
-4.4084741229798654e+00
-4.4080953408994743e+00
-4.4077166446704430e+00
-4.4073380343043214e+00
-4.4069595098125340e+00
-4.4065810712063831e+00
-4.4062027184970489e+00
-4.4058244516955867e+00
-4.4054462708129325e+00
-4.4050681758599000e+00
-4.4046901668471792e+00
-4.4043122437853421e+00
-4.4039344066848383e+00
-4.4035566555559988e+00
-4.4031789904090335e+00
-4.4028014112540328e+00
-4.4024239181009692e+00
-4.4020465109596962e+00
-4.4016691898399474e+00
-4.4012919547513407e+00
-4.4009148057033736e+00
-4.4005377427054313e+00
-4.4001607657667758e+00
-4.3997838748965581e+00
-4.3994070701038090e+00
-4.3990303513974478e+00
-4.3986537187862735e+00
-4.3982771722789744e+00
-4.3979007118841213e+00
-4.3975243376101725e+00
-4.3971480494654704e+00
-4.3967718474582460e+00
-4.3963957315966153e+00
-4.3960197018885818e+00
-4.3956437583420387e+00
-4.3952679009647628e+00
-4.3948921297644228e+00
-4.3945164447485734e+00
-4.3941408459246611e+00
-4.3937653333000180e+00
-4.3933899068818683e+00
-4.3930145666773246e+00
-4.3926393126933911e+00
-4.3922641449369628e+00
-4.3918890634148244e+00
-4.3915140681336506e+00
-4.3911391591000131e+00
-4.3907643363203679e+00
-4.3903895998010700e+00
-4.3900149495483642e+00
-4.3896403855683870e+00
-4.3892659078671716e+00
-4.3888915164506415e+00
-4.3885172113246149e+00
-4.3881429924948083e+00
-4.3877688599668261e+00
-4.3873948137461731e+00
-4.3870208538382469e+00
-4.3866469802483410e+00
-4.3862731929816450e+00
-4.3858994920432464e+00
-4.3855258774381269e+00
-4.3851523491711664e+00
-4.3847789072471413e+00
-4.3844055516707261e+00
-4.3840322824464941e+00
-4.3836590995789155e+00
-4.3832860030723584e+00
-4.3829129929310930e+00
-4.3825400691592851e+00
-4.3821672317610014e+00
-4.3817944807402087e+00
-4.3814218161007750e+00
-4.3810492378464652e+00
-4.3806767459809484e+00
-4.3803043405077950e+00
-4.3799320214304736e+00
-4.3795597887523563e+00
-4.3791876424767180e+00
-4.3788155826067348e+00
-4.3784436091454868e+00
-4.3780717220959540e+00
-4.3776999214610237e+00
-4.3773282072434840e+00
-4.3769565794460270e+00
-4.3765850380712505e+00
-4.3762135831216558e+00
-4.3758422145996478e+00
-4.3754709325075378e+00
-4.3750997368475435e+00
-4.3747286276217867e+00
-4.3743576048322952e+00
-4.3739866684810025e+00
-4.3736158185697507e+00
-4.3732450551002868e+00
-4.3728743780742674e+00
-4.3725037874932520e+00
-4.3721332833587123e+00
-4.3717628656720269e+00
-4.3713925344344808e+00
-4.3710222896472706e+00
-4.3706521313114983e+00
-4.3702820594281793e+00
-4.3699120739982336e+00
-4.3695421750224943e+00
-4.3691723625017049e+00
-4.3688026364365165e+00
-4.3684329968274938e+00
-4.3680634436751102e+00
-4.3676939769797505e+00
-4.3673245967417120e+00
-4.3669553029612036e+00
-4.3665860956383451e+00
-4.3662169747731694e+00
-4.3658479403656223e+00
-4.3654789924155626e+00
-4.3651101309227593e+00
-4.3647413558869008e+00
-4.3643726673075829e+00
-4.3640040651843179e+00
-4.3636355495165340e+00
-4.3632671203035711e+00
-4.3628987775446868e+00
-4.3625305212390497e+00
-4.3621623513857477e+00
-4.3617942679837824e+00
-4.3614262710320713e+00
-4.3610583605294488e+00
-4.3606905364746638e+00
-4.3603227988663837e+00
-4.3599551477031939e+00
-4.3595875829835933e+00
-4.3592201047060017e+00
-4.3588527128687540e+00
-4.3584854074701056e+00
-4.3581181885082279e+00
-4.3577510559812120e+00
-4.3573840098870678e+00
-4.3570170502237238e+00
-4.3566501769890271e+00
-4.3562833901807467e+00
-4.3559166897965680e+00
-4.3555500758340999e+00
-4.3551835482908690e+00
-4.3548171071643234e+00
-4.3544507524518332e+00
-4.3540844841506878e+00
-4.3537183022580974e+00
-4.3533522067711949e+00
-4.3529861976870370e+00
-4.3526202750025993e+00
-4.3522544387147803e+00
-4.3518886888204031e+00
-4.3515230253162107e+00
-4.3511574481988715e+00
-4.3507919574649758e+00
-4.3504265531110393e+00
-4.3500612351334977e+00
-4.3496960035287158e+00
-4.3493308582929782e+00
-4.3489657994224977e+00
-4.3486008269134100e+00
-4.3482359407617741e+00
-4.3478711409635773e+00
-4.3475064275147322e+00
-4.3471418004110749e+00
-4.3467772596483689e+00
-4.3464128052223039e+00
-4.3460484371284966e+00
-4.3456841553624885e+00
-4.3453199599197507e+00
-4.3449558507956780e+00
-4.3445918279855968e+00
-4.3442278914847563e+00
-4.3438640412883389e+00
-4.3435002773914508e+00
-4.3431365997891289e+00
-4.3427730084763372e+00
-4.3424095034479695e+00
-4.3420460846988478e+00
-4.3416827522237247e+00
-4.3413195060172818e+00
-4.3409563460741287e+00
-4.3405932723888050e+00
-4.3402302849557861e+00
-4.3398673837694695e+00
-4.3395045688241884e+00
-4.3391418401142055e+00
-4.3387791976337144e+00
-4.3384166413768419e+00
-4.3380541713376433e+00
-4.3376917875101064e+00
-4.3373294898881536e+00
-4.3369672784656359e+00
-4.3366051532363388e+00
-4.3362431141939801e+00
-4.3358811613322086e+00
-4.3355192946446106e+00
-4.3351575141246999e+00
-4.3347958197659278e+00
-4.3344342115616783e+00
-4.3340726895052688e+00
-4.3337112535899527e+00
-4.3333499038089140e+00
-4.3329886401552749e+00
-4.3326274626220904e+00
-4.3322663712023513e+00
-4.3319053658889830e+00
-4.3315444466748483e+00
-4.3311836135527413e+00
-4.3308228665153967e+00
-4.3304622055554827e+00
-4.3301016306656024e+00
-4.3297411418382996e+00
-4.3293807390660524e+00
-4.3290204223412729e+00
-4.3286601916563159e+00
-4.3283000470034692e+00
-4.3279399883749594e+00
-4.3275800157629520e+00
-4.3272201291595485e+00
-4.3268603285567879e+00
-4.3265006139466511e+00
-4.3261409853210546e+00
-4.3257814426718557e+00
-4.3254219859908458e+00
-4.3250626152697613e+00
-4.3247033305002756e+00
-4.3243441316739997e+00
-4.3239850187824880e+00
-4.3236259918172308e+00
-4.3232670507696627e+00
-4.3229081956311539e+00
-4.3225494263930209e+00
-4.3221907430465141e+00
-4.3218321455828299e+00
-4.3214736339931052e+00
-4.3211152082684157e+00
-4.3207568683997808e+00
-4.3203986143781599e+00
-4.3200404461944562e+00
-4.3196823638395134e+00
-4.3193243673041177e+00
-4.3189664565789974e+00
-4.3186086316548256e+00
-4.3182508925222161e+00
-4.3178932391717240e+00
-4.3175356715938538e+00
-4.3171781897790451e+00
-4.3168207937176870e+00
-4.3164634834001125e+00
-4.3161062588165935e+00
-4.3157491199573519e+00
-4.3153920668125494e+00
-4.3150350993722943e+00
-4.3146782176266401e+00
-4.3143214215655838e+00
-4.3139647111790680e+00
-4.3136080864569806e+00
-4.3132515473891537e+00
-4.3128950939653672e+00
-4.3125387261753465e+00
-4.3121824440087604e+00
-4.3118262474552269e+00
-4.3114701365043082e+00
-4.3111141111455140e+00
-4.3107581713682999e+00
-4.3104023171620689e+00
-4.3100465485161727e+00
-4.3096908654199062e+00
-4.3093352678625161e+00
-4.3089797558331924e+00
-4.3086243293210762e+00
-4.3082689883152554e+00
-4.3079137328047654e+00
-4.3075585627785902e+00
-4.3072034782256621e+00
-4.3068484791348629e+00
-4.3064935654950229e+00
-4.3061387372949200e+00
-4.3057839945232814e+00
-4.3054293371687873e+00
-4.3050747652200618e+00
-4.3047202786656813e+00
-4.3043658774941731e+00
-4.3040115616940131e+00
-4.3036573312536266e+00
-4.3033031861613900e+00
-4.3029491264056325e+00
-4.3025951519746295e+00
-4.3022412628566116e+00
-4.3018874590397553e+00
-4.3015337405121929e+00
-4.3011801072620077e+00
-4.3008265592772297e+00
-4.3004730965458462e+00
-4.3001197190557932e+00
-4.2997664267949602e+00
-4.2994132197511865e+00
-4.2990600979122657e+00
-4.2987070612659455e+00
-4.2983541097999209e+00
-4.2980012435018455e+00
-4.2976484623593212e+00
-4.2972957663599063e+00
-4.2969431554911095e+00
-4.2965906297403960e+00
-4.2962381890951820e+00
-4.2958858335428385e+00
-4.2955335630706903e+00
-4.2951813776660179e+00
-4.2948292773160510e+00
-4.2944772620079803e+00
-4.2941253317289449e+00
-4.2937734864660424e+00
-4.2934217262063248e+00
-4.2930700509367972e+00
-4.2927184606444229e+00
-4.2923669553161172e+00
-4.2920155349387530e+00
-4.2916641994991576e+00
-4.2913129489841149e+00
-4.2909617833803635e+00
-4.2906107026745994e+00
-4.2902597068534742e+00
-4.2899087959035969e+00
-4.2895579698115300e+00
-4.2892072285637965e+00
-4.2888565721468721e+00
-4.2885060005471924e+00
-4.2881555137511524e+00
-4.2878051117450973e+00
-4.2874547945153356e+00
-4.2871045620481301e+00
-4.2867544143297041e+00
-4.2864043513462375e+00
-4.2860543730838661e+00
-4.2857044795286869e+00
-4.2853546706667531e+00
-4.2850049464840785e+00
-4.2846553069666333e+00
-4.2843057521003471e+00
-4.2839562818711077e+00
-4.2836068962647635e+00
-4.2832575952671208e+00
-4.2829083788639464e+00
-4.2825592470409646e+00
-4.2822101997838597e+00
-4.2818612370782763e+00
-4.2815123589098212e+00
-4.2811635652640554e+00
-4.2808148561265069e+00
-4.2804662314826576e+00
-4.2801176913179528e+00
-4.2797692356177999e+00
-4.2794208643675642e+00
-4.2790725775525731e+00
-4.2787243751581157e+00
-4.2783762571694384e+00
-4.2780282235717531e+00
-4.2776802743502325e+00
-4.2773324094900094e+00
-4.2769846289761766e+00
-4.2766369327937950e+00
-4.2762893209278783e+00
-4.2759417933634110e+00
-4.2755943500853340e+00
-4.2752469910785518e+00
-4.2748997163279334e+00
-4.2745525258183079e+00
-4.2742054195344688e+00
-4.2738583974611704e+00
-4.2735114595831316e+00
-4.2731646058850359e+00
-4.2728178363515257e+00
-4.2724711509672106e+00
-4.2721245497166613e+00
-4.2717780325844146e+00
-4.2714315995549681e+00
-4.2710852506127859e+00
-4.2707389857422937e+00
-4.2703928049278836e+00
-4.2700467081539104e+00
-4.2697006954046941e+00
-4.2693547666645193e+00
-4.2690089219176341e+00
-4.2686631611482531e+00
-4.2683174843405531e+00
-4.2679718914786804e+00
-4.2676263825467409e+00
-4.2672809575288095e+00
-4.2669356164089267e+00
-4.2665903591710972e+00
-4.2662451857992902e+00
-4.2659000962774432e+00
-4.2655550905894568e+00
-4.2652101687192019e+00
-4.2648653306505100e+00
-4.2645205763671834e+00
-4.2641759058529898e+00
-4.2638313190916604e+00
-4.2634868160668979e+00
-4.2631423967623672e+00
-4.2627980611617033e+00
-4.2624538092485045e+00
-4.2621096410063419e+00
-4.2617655564187489e+00
-4.2614215554692274e+00
-4.2610776381412503e+00
-4.2607338044182503e+00
-4.2603900542836364e+00
-4.2600463877207790e+00
-4.2597028047130205e+00
-4.2593593052436702e+00
-4.2590158892960037e+00
-4.2586725568532682e+00
-4.2583293078986753e+00
-4.2579861424154100e+00
-4.2576430603866209e+00
-4.2573000617954291e+00
-4.2569571466249219e+00
-4.2566143148581581e+00
-4.2562715664781647e+00
-4.2559289014679367e+00
-4.2555863198104387e+00
-4.2552438214886061e+00
-4.2549014064853434e+00
-4.2545590747835238e+00
-4.2542168263659903e+00
-4.2538746612155576e+00
-4.2535325793150101e+00
-4.2531905806470984e+00
-4.2528486651945485e+00
-4.2525068329400550e+00
-4.2521650838662799e+00
-4.2518234179558601e+00
-4.2514818351914014e+00
-4.2511403355554798e+00
-4.2507989190306423e+00
-4.2504575855994089e+00
-4.2501163352442672e+00
-4.2497751679476785e+00
-4.2494340836920772e+00
-4.2490930824598632e+00
-4.2487521642334123e+00
-4.2484113289950720e+00
-4.2480705767271614e+00
-4.2477299074119683e+00
-4.2473893210317568e+00
-4.2470488175687606e+00
-4.2467083970051851e+00
-4.2463680593232098e+00
-4.2460278045049851e+00
-4.2456876325326354e+00
-4.2453475433882550e+00
-4.2450075370539144e+00
-4.2446676135116554e+00
-4.2443277727434907e+00
-4.2439880147314080e+00
-4.2436483394573692e+00
-4.2433087469033071e+00
-4.2429692370511285e+00
-4.2426298098827138e+00
-4.2422904653799183e+00
-4.2419512035245672e+00
-4.2416120242984627e+00
-4.2412729276833812e+00
-4.2409339136610695e+00
-4.2405949822132518e+00
-4.2402561333216253e+00
-4.2399173669678607e+00
-4.2395786831336046e+00
-4.2392400818004754e+00
-4.2389015629500690e+00
-4.2385631265639541e+00
-4.2382247726236741e+00
-4.2378865011107489e+00
-4.2375483120066706e+00
-4.2372102052929081e+00
-4.2368721809509058e+00
-4.2365342389620810e+00
-4.2361963793078292e+00
-4.2358586019695199e+00
-4.2355209069284969e+00
-4.2351832941660819e+00
-4.2348457636635697e+00
-4.2345083154022349e+00
-4.2341709493633228e+00
-4.2338336655280591e+00
-4.2334964638776418e+00
-4.2331593443932478e+00
-4.2328223070560291e+00
-4.2324853518471155e+00
-4.2321484787476109e+00
-4.2318116877385972e+00
-4.2314749788011321e+00
-4.2311383519162504e+00
-4.2308018070649638e+00
-4.2304653442282616e+00
-4.2301289633871084e+00
-4.2297926645224475e+00
-4.2294564476151981e+00
-4.2291203126462573e+00
-4.2287842595965008e+00
-4.2284482884467769e+00
-4.2281123991779186e+00
-4.2277765917707324e+00
-4.2274408662059990e+00
-4.2271052224644858e+00
-4.2267696605269309e+00
-4.2264341803740537e+00
-4.2260987819865488e+00
-4.2257634653450911e+00
-4.2254282304303334e+00
-4.2250930772229074e+00
-4.2247580057034231e+00
-4.2244230158524667e+00
-4.2240881076506067e+00
-4.2237532810783867e+00
-4.2234185361163323e+00
-4.2230838727449447e+00
-4.2227492909447060e+00
-4.2224147906960789e+00
-4.2220803719795015e+00
-4.2217460347753946e+00
-4.2214117790641525e+00
-4.2210776048261582e+00
-4.2207435120417660e+00
-4.2204095006913125e+00
-4.2200755707551156e+00
-4.2197417222134703e+00
-4.2194079550466537e+00
-4.2190742692349197e+00
-4.2187406647585037e+00
-4.2184071415976234e+00
-4.2180736997324741e+00
-4.2177403391432309e+00
-4.2174070598100508e+00
-4.2170738617130707e+00
-4.2167407448324079e+00
-4.2164077091481573e+00
-4.2160747546404007e+00
-4.2157418812891958e+00
-4.2154090890745826e+00
-4.2150763779765796e+00
-4.2147437479751915e+00
-4.2144111990503985e+00
-4.2140787311821661e+00
-4.2137463443504366e+00
-4.2134140385351380e+00
-4.2130818137161778e+00
-4.2127496698734435e+00
-4.2124176069868060e+00
-4.2120856250361172e+00
-4.2117537240012100e+00
-4.2114219038618996e+00
-4.2110901645979855e+00
-4.2107585061892436e+00
-4.2104269286154361e+00
-4.2100954318563053e+00
-4.2097640158915768e+00
-4.2094326807009574e+00
-4.2091014262641364e+00
-4.2087702525607869e+00
-4.2084391595705615e+00
-4.2081081472730988e+00
-4.2077772156480160e+00
-4.2074463646749161e+00
-4.2071155943333842e+00
-4.2067849046029870e+00
-4.2064542954632760e+00
-4.2061237668937830e+00
-4.2057933188740257e+00
-4.2054629513835016e+00
-4.2051326644016962e+00
-4.2048024579080741e+00
-4.2044723318820836e+00
-4.2041422863031572e+00
-4.2038123211507124e+00
-4.2034824364041476e+00
-4.2031526320428467e+00
-4.2028229080461763e+00
-4.2024932643934880e+00
-4.2021637010641140e+00
-4.2018342180373747e+00
-4.2015048152925720e+00
-4.2011754928089919e+00
-4.2008462505659043e+00
-4.2005170885425658e+00
-4.2001880067182134e+00
-4.1998590050720725e+00
-4.1995300835833484e+00
-4.1992012422312346e+00
-4.1988724809949085e+00
-4.1985437998535300e+00
-4.1982151987862464e+00
-4.1978866777721873e+00
-4.1975582367904689e+00
-4.1972298758201925e+00
-4.1969015948404422e+00
-4.1965733938302883e+00
-4.1962452727687882e+00
-4.1959172316349802e+00
-4.1955892704078925e+00
-4.1952613890665349e+00
-4.1949335875899045e+00
-4.1946058659569845e+00
-4.1942782241467418e+00
-4.1939506621381275e+00
-4.1936231799100838e+00
-4.1932957774415334e+00
-4.1929684547113855e+00
-4.1926412116985388e+00
-4.1923140483818742e+00
-4.1919869647402592e+00
-4.1916599607525491e+00
-4.1913330363975820e+00
-4.1910061916541865e+00
-4.1906794265011751e+00
-4.1903527409173442e+00
-4.1900261348814816e+00
-4.1896996083723579e+00
-4.1893731613687315e+00
-4.1890467938493465e+00
-4.1887205057929355e+00
-4.1883942971782160e+00
-4.1880681679838929e+00
-4.1877421181886572e+00
-4.1874161477711889e+00
-4.1870902567101513e+00
-4.1867644449841981e+00
-4.1864387125719693e+00
-4.1861130594520919e+00
-4.1857874856031776e+00
-4.1854619910038293e+00
-4.1851365756326357e+00
-4.1848112394681714e+00
-4.1844859824890008e+00
-4.1841608046736738e+00
-4.1838357060007292e+00
-4.1835106864486944e+00
-4.1831857459960800e+00
-4.1828608846213902e+00
-4.1825361023031125e+00
-4.1822113990197254e+00
-4.1818867747496942e+00
-4.1815622294714698e+00
-4.1812377631634945e+00
-4.1809133758041988e+00
-4.1805890673719981e+00
-4.1802648378452991e+00
-4.1799406872024978e+00
-4.1796166154219723e+00
-4.1792926224820963e+00
-4.1789687083612277e+00
-4.1786448730377153e+00
-4.1783211164898946e+00
-4.1779974386960914e+00
-4.1776738396346191e+00
-4.1773503192837786e+00
-4.1770268776218646e+00
-4.1767035146271541e+00
-4.1763802302779176e+00
-4.1760570245524136e+00
-4.1757338974288878e+00
-4.1754108488855781e+00
-4.1750878789007100e+00
-4.1747649874524964e+00
-4.1744421745191422e+00
-4.1741194400788419e+00
-4.1737967841097765e+00
-4.1734742065901198e+00
-4.1731517074980324e+00
-4.1728292868116652e+00
-4.1725069445091592e+00
-4.1721846805686464e+00
-4.1718624949682459e+00
-4.1715403876860684e+00
-4.1712183587002132e+00
-4.1708964079887698e+00
-4.1705745355298189e+00
-4.1702527413014296e+00
-4.1699310252816622e+00
-4.1696093874485669e+00
-4.1692878277801837e+00
-4.1689663462545417e+00
-4.1686449428496628e+00
-4.1683236175435585e+00
-4.1680023703142286e+00
-4.1676812011396667e+00
-4.1673601099978539e+00
-4.1670390968667634e+00
-4.1667181617243587e+00
-4.1663973045485934e+00
-4.1660765253174130e+00
-4.1657558240087527e+00
-4.1654352006005393e+00
-4.1651146550706892e+00
-4.1647941873971117e+00
-4.1644737975577053e+00
-4.1641534855303588e+00
-4.1638332512929566e+00
-4.1635130948233678e+00
-4.1631930160994592e+00
-4.1628730150990831e+00
-4.1625530918000857e+00
-4.1622332461803051e+00
-4.1619134782175706e+00
-4.1615937878897009e+00
-4.1612741751745075e+00
-4.1609546400497956e+00
-4.1606351824933583e+00
-4.1603158024829829e+00
-4.1599964999964465e+00
-4.1596772750115196e+00
-4.1593581275059641e+00
-4.1590390574575320e+00
-4.1587200648439699e+00
-4.1584011496430140e+00
-4.1580823118323949e+00
-4.1577635513898334e+00
-4.1574448682930418e+00
-4.1571262625197267e+00
-4.1568077340475833e+00
-4.1564892828543050e+00
-4.1561709089175718e+00
-4.1558526122150585e+00
-4.1555343927244319e+00
-4.1552162504233507e+00
-4.1548981852894666e+00
-4.1545801973004259e+00
-4.1542622864338608e+00
-4.1539444526674050e+00
-4.1536266959786783e+00
-4.1533090163452959e+00
-4.1529914137448642e+00
-4.1526738881549852e+00
-4.1523564395532508e+00
-4.1520390679172472e+00
-4.1517217732245530e+00
-4.1514045554527401e+00
-4.1510874145793730e+00
-4.1507703505820110e+00
-4.1504533634382037e+00
-4.1501364531254961e+00
-4.1498196196214243e+00
-4.1495028629035202e+00
-4.1491861829493075e+00
-4.1488695797363029e+00
-4.1485530532420176e+00
-4.1482366034439568e+00
-4.1479202303196159e+00
-4.1476039338464874e+00
-4.1472877140020561e+00
-4.1469715707637986e+00
-4.1466555041091882e+00
-4.1463395140156907e+00
-4.1460236004607642e+00
-4.1457077634218642e+00
-4.1453920028764362e+00
-4.1450763188019195e+00
-4.1447607111757510e+00
-4.1444451799753601e+00
-4.1441297251781668e+00
-4.1438143467615900e+00
-4.1434990447030406e+00
-4.1431838189799217e+00
-4.1428686695696353e+00
-4.1425535964495728e+00
-4.1422385995971220e+00
-4.1419236789896656e+00
-4.1416088346045798e+00
-4.1412940664192348e+00
-4.1409793744109971e+00
-4.1406647585572234e+00
-4.1403502188352714e+00
-4.1400357552224882e+00
-4.1397213676962155e+00
-4.1394070562337921e+00
-4.1390928208125528e+00
-4.1387786614098232e+00
-4.1384645780029263e+00
-4.1381505705691772e+00
-4.1378366390858883e+00
-4.1375227835303656e+00
-4.1372090038799136e+00
-4.1368953001118260e+00
-4.1365816722033948e+00
-4.1362681201319074e+00
-4.1359546438746433e+00
-4.1356412434088838e+00
-4.1353279187118952e+00
-4.1350146697609489e+00
-4.1347014965333049e+00
-4.1343883990062222e+00
-4.1340753771569529e+00
-4.1337624309627463e+00
-4.1334495604008463e+00
-4.1331367654484898e+00
-4.1328240460829146e+00
-4.1325114022813496e+00
-4.1321988340210201e+00
-4.1318863412791478e+00
-4.1315739240329501e+00
-4.1312615822596390e+00
-4.1309493159364230e+00
-4.1306371250405070e+00
-4.1303250095490904e+00
-4.1300129694393695e+00
-4.1297010046885356e+00
-4.1293891152737761e+00
-4.1290773011722743e+00
-4.1287655623612096e+00
-4.1284538988177584e+00
-4.1281423105190909e+00
-4.1278307974423765e+00
-4.1275193595647774e+00
-4.1272079968634543e+00
-4.1268967093155631e+00
-4.1265854968982554e+00
-4.1262743595886811e+00
-4.1259632973639855e+00
-4.1256523102013078e+00
-4.1253413980777873e+00
-4.1250305609705586e+00
-4.1247197988567503e+00
-4.1244091117134909e+00
-4.1240984995179035e+00
-4.1237879622471088e+00
-4.1234774998782227e+00
-4.1231671123883595e+00
-4.1228567997546284e+00
-4.1225465619541364e+00
-4.1222363989639881e+00
-4.1219263107612818e+00
-4.1216162973231167e+00
-4.1213063586265850e+00
-4.1209964946487787e+00
-4.1206867053667846e+00
-4.1203769907576886e+00
-4.1200673507985721e+00
-4.1197577854665131e+00
-4.1194482947385866e+00
-4.1191388785918681e+00
-4.1188295370034256e+00
-4.1185202699503272e+00
-4.1182110774096365e+00
-4.1179019593584147e+00
-4.1175929157737228e+00
-4.1172839466326145e+00
-4.1169750519121449e+00
-4.1166662315893632e+00
-4.1163574856413190e+00
-4.1160488140450573e+00
-4.1157402167776223e+00
-4.1154316938160527e+00
-4.1151232451373883e+00
-4.1148148707186634e+00
-4.1145065705369133e+00
-4.1141983445691670e+00
-4.1138901927924536e+00
-4.1135821151837986e+00
-4.1132741117202283e+00
-4.1129661823787629e+00
-4.1126583271364217e+00
-4.1123505459702221e+00
-4.1120428388571808e+00
-4.1117352057743082e+00
-4.1114276466986182e+00
-4.1111201616071167e+00
-4.1108127504768142e+00
-4.1105054132847130e+00
-4.1101981500078164e+00
-4.1098909606231278e+00
-4.1095838451076432e+00
-4.1092768034383607e+00
-4.1089698355922781e+00
-4.1086629415463856e+00
-4.1083561212776782e+00
-4.1080493747631444e+00
-4.1077427019797730e+00
-4.1074361029045505e+00
-4.1071295775144634e+00
-4.1068231257864944e+00
-4.1065167476976239e+00
-4.1062104432248345e+00
-4.1059042123451039e+00
-4.1055980550354096e+00
-4.1052919712727292e+00
-4.1049859610340347e+00
-4.1046800242963011e+00
-4.1043741610364988e+00
-4.1040683712315982e+00
-4.1037626548585697e+00
-4.1034570118943794e+00
-4.1031514423159949e+00
-4.1028459461003806e+00
-4.1025405232245022e+00
-4.1022351736653206e+00
-4.1019298973997991e+00
-4.1016246944048973e+00
-4.1013195646575760e+00
-4.1010145081347922e+00
-4.1007095248135048e+00
-4.1004046146706692e+00
-4.1000997776832424e+00
-4.0997950138281771e+00
-4.0994903230824287e+00
-4.0991857054229497e+00
-4.0988811608266902e+00
-4.0985766892706037e+00
-4.0982722907316393e+00
-4.0979679651867480e+00
-4.0976637126128779e+00
-4.0973595329869754e+00
-4.0970554262859906e+00
-4.0967513924868690e+00
-4.0964474315665562e+00
-4.0961435435019986e+00
-4.0958397282701418e+00
-4.0955359858479286e+00
-4.0952323162123045e+00
-4.0949287193402117e+00
-4.0946251952085939e+00
-4.0943217437943931e+00
-4.0940183650745521e+00
-4.0937150590260121e+00
-4.0934118256257142e+00
-4.0931086648506003e+00
-4.0928055766776108e+00
-4.0925025610836849e+00
-4.0921996180457656e+00
-4.0918967475407912e+00
-4.0915939495457012e+00
-4.0912912240374348e+00
-4.0909885709929332e+00
-4.0906859903891339e+00
-4.0903834822029772e+00
-4.0900810464114032e+00
-4.0897786829913487e+00
-4.0894763919197548e+00
-4.0891741731735589e+00
-4.0888720267297023e+00
-4.0885699525651225e+00
-4.0882679506567587e+00
-4.0879660209815532e+00
-4.0876641635164415e+00
-4.0873623782383657e+00
-4.0870606651242660e+00
-4.0867590241510818e+00
-4.0864574552957524e+00
-4.0861559585352198e+00
-4.0858545338464252e+00
-4.0855531812063086e+00
-4.0852519005918122e+00
-4.0849506919798788e+00
-4.0846495553474478e+00
-4.0843484906714655e+00
-4.0840474979288732e+00
-4.0837465770966146e+00
-4.0834457281516352e+00
-4.0831449510708762e+00
-4.0828442458312866e+00
-4.0825436124098093e+00
-4.0822430507833918e+00
-4.0819425609289812e+00
-4.0816421428235250e+00
-4.0813417964439713e+00
-4.0810415217672675e+00
-4.0807413187703654e+00
-4.0804411874302131e+00
-4.0801411277237625e+00
-4.0798411396279661e+00
-4.0795412231197750e+00
-4.0792413781761443e+00
-4.0789416047740268e+00
-4.0786419028903778e+00
-4.0783422725021534e+00
-4.0780427135863118e+00
-4.0777432261198081e+00
-4.0774438100796031e+00
-4.0771444654426556e+00
-4.0768451921859272e+00
-4.0765459902863785e+00
-4.0762468597209738e+00
-4.0759478004666754e+00
-4.0756488125004484e+00
-4.0753498957992598e+00
-4.0750510503400754e+00
-4.0747522760998649e+00
-4.0744535730555986e+00
-4.0741549411842453e+00
-4.0738563804627770e+00
-4.0735578908681669e+00
-4.0732594723773916e+00
-4.0729611249674251e+00
-4.0726628486152441e+00
-4.0723646432978278e+00
-4.0720665089921555e+00
-4.0717684456752083e+00
-4.0714704533239692e+00
-4.0711725319154217e+00
-4.0708746814265515e+00
-4.0705769018343458e+00
-4.0702791931157920e+00
-4.0699815552478800e+00
-4.0696839882076006e+00
-4.0693864919719491e+00
-4.0690890665179165e+00
-4.0687917118225014e+00
-4.0684944278627011e+00
-4.0681972146155143e+00
-4.0679000720579417e+00
-4.0676030001669874e+00
-4.0673059989196529e+00
-4.0670090682929461e+00
-4.0667122082638745e+00
-4.0664154188094486e+00
-4.0661186999066778e+00
-4.0658220515325754e+00
-4.0655254736641568e+00
-4.0652289662784398e+00
-4.0649325293524408e+00
-4.0646361628631809e+00
-4.0643398667876838e+00
-4.0640436411029714e+00
-4.0637474857860711e+00
-4.0634514008140110e+00
-4.0631553861638219e+00
-4.0628594418125346e+00
-4.0625635677371834e+00
-4.0622677639148046e+00
-4.0619720303224369e+00
-4.0616763669371192e+00
-4.0613807737358956e+00
-4.0610852506958084e+00
-4.0607897977939063e+00
-4.0604944150072360e+00
-4.0601991023128505e+00
-4.0599038596878003e+00
-4.0596086871091437e+00
-4.0593135845539354e+00
-4.0590185519992357e+00
-4.0587235894221081e+00
-4.0584286967996155e+00
-4.0581338741088260e+00
-4.0578391213268059e+00
-4.0575444384306278e+00
-4.0572498253973652e+00
-4.0569552822040960e+00
-4.0566608088278944e+00
-4.0563664052458446e+00
-4.0560720714350271e+00
-4.0557778073725306e+00
-4.0554836130354408e+00
-4.0551894884008490e+00
-4.0548954334458482e+00
-4.0546014481475341e+00
-4.0543075324830049e+00
-4.0540136864293599e+00
-4.0537199099637053e+00
-4.0534262030631441e+00
-4.0531325657047859e+00
-4.0528389978657415e+00
-4.0525454995231254e+00
-4.0522520706540526e+00
-4.0519587112356428e+00
-4.0516654212450192e+00
-4.0513722006593031e+00
-4.0510790494556232e+00
-4.0507859676111106e+00
-4.0504929551028974e+00
-4.0502000119081183e+00
-4.0499071380039116e+00
-4.0496143333674182e+00
-4.0493215979757844e+00
-4.0490289318061539e+00
-4.0487363348356773e+00
-4.0484438070415081e+00
-4.0481513484008014e+00
-4.0478589588907141e+00
-4.0475666384884086e+00
-4.0472743871710497e+00
-4.0469822049158033e+00
-4.0466900916998423e+00
-4.0463980475003352e+00
-4.0461060722944620e+00
-4.0458141660594000e+00
-4.0455223287723339e+00
-4.0452305604104462e+00
-4.0449388609509267e+00
-4.0446472303709671e+00
-4.0443556686477606e+00
-4.0440641757585070e+00
-4.0437727516804056e+00
-4.0434813963906615e+00
-4.0431901098664822e+00
-4.0428988920850770e+00
-4.0426077430236598e+00
-4.0423166626594487e+00
-4.0420256509696619e+00
-4.0417347079315240e+00
-4.0414438335222629e+00
-4.0411530277191048e+00
-4.0408622904992875e+00
-4.0405716218400443e+00
-4.0402810217186165e+00
-4.0399904901122472e+00
-4.0397000269981822e+00
-4.0394096323536726e+00
-4.0391193061559720e+00
-4.0388290483823353e+00
-4.0385388590100257e+00
-4.0382487380163044e+00
-4.0379586853784390e+00
-4.0376687010737013e+00
-4.0373787850793637e+00
-4.0370889373727055e+00
-4.0367991579310072e+00
-4.0365094467315519e+00
-4.0362198037516297e+00
-4.0359302289685326e+00
-4.0356407223595552e+00
-4.0353512839019956e+00
-4.0350619135731574e+00
-4.0347726113503466e+00
-4.0344833772108730e+00
-4.0341942111320490e+00
-4.0339051130911932e+00
-4.0336160830656249e+00
-4.0333271210326709e+00
-4.0330382269696567e+00
-4.0327494008539162e+00
-4.0324606426627829e+00
-4.0321719523735986e+00
-4.0318833299637049e+00
-4.0315947754104489e+00
-4.0313062886911810e+00
-4.0310178697832573e+00
-4.0307295186640335e+00
-4.0304412353108736e+00
-4.0301530197011441e+00
-4.0298648718122125e+00
-4.0295767916214551e+00
-4.0292887791062473e+00
-4.0290008342439716e+00
-4.0287129570120142e+00
-4.0284251473877637e+00
-4.0281374053486125e+00
-4.0278497308719583e+00
-4.0275621239352040e+00
-4.0272745845157534e+00
-4.0269871125910157e+00
-4.0266997081384028e+00
-4.0264123711353346e+00
-4.0261251015592308e+00
-4.0258378993875166e+00
-4.0255507645976207e+00
-4.0252636971669791e+00
-4.0249766970730274e+00
-4.0246897642932060e+00
-4.0244028988049632e+00
-4.0241161005857471e+00
-4.0238293696130114e+00
-4.0235427058642168e+00
-4.0232561093168231e+00
-4.0229695799482972e+00
-4.0226831177361095e+00
-4.0223967226577368e+00
-4.0221103946906558e+00
-4.0218241338123502e+00
-4.0215379400003091e+00
-4.0212518132320225e+00
-4.0209657534849876e+00
-4.0206797607367033e+00
-4.0203938349646755e+00
-4.0201079761464129e+00
-4.0198221842594277e+00
-4.0195364592812384e+00
-4.0192508011893677e+00
-4.0189652099613395e+00
-4.0186796855746865e+00
-4.0183942280069429e+00
-4.0181088372356468e+00
-4.0178235132383442e+00
-4.0175382559925819e+00
-4.0172530654759120e+00
-4.0169679416658921e+00
-4.0166828845400842e+00
-4.0163978940760527e+00
-4.0161129702513696e+00
-4.0158281130436082e+00
-4.0155433224303492e+00
-4.0152585983891758e+00
-4.0149739408976766e+00
-4.0146893499334437e+00
-4.0144048254740747e+00
-4.0141203674971715e+00
-4.0138359759803421e+00
-4.0135516509011957e+00
-4.0132673922373483e+00
-4.0129831999664205e+00
-4.0126990740660373e+00
-4.0124150145138282e+00
-4.0121310212874270e+00
-4.0118470943644722e+00
-4.0115632337226073e+00
-4.0112794393394804e+00
-4.0109957111927441e+00
-4.0107120492600563e+00
-4.0104284535190784e+00
-4.0101449239474771e+00
-4.0098614605229255e+00
-4.0095780632230973e+00
-4.0092947320256753e+00
-4.0090114669083450e+00
-4.0087282678487961e+00
-4.0084451348247239e+00
-4.0081620678138288e+00
-4.0078790667938149e+00
-4.0075961317423934e+00
-4.0073132626372772e+00
-4.0070304594561863e+00
-4.0067477221768444e+00
-4.0064650507769803e+00
-4.0061824452343275e+00
-4.0058999055266256e+00
-4.0056174316316184e+00
-4.0053350235270520e+00
-4.0050526811906808e+00
-4.0047704046002641e+00
-4.0044881937335637e+00
-4.0042060485683475e+00
-4.0039239690823889e+00
-4.0036419552534657e+00
-4.0033600070593609e+00
-4.0030781244778622e+00
-4.0027963074867623e+00
-4.0025145560638595e+00
-4.0022328701869547e+00
-4.0019512498338576e+00
-4.0016696949823807e+00
-4.0013882056103407e+00
-4.0011067816955617e+00
-4.0008254232158702e+00
-4.0005441301491000e+00
-4.0002629024730885e+00
-3.9999817401656794e+00
-3.9997006432047209e+00
-3.9994196115680651e+00
-3.9991386452335718e+00
-3.9988577441791033e+00
-3.9985769083825282e+00
-3.9982961378217206e+00
-3.9980154324745594e+00
-3.9977347923189281e+00
-3.9974542173327161e+00
-3.9971737074938170e+00
-3.9968932627801315e+00
-3.9966128831695631e+00
-3.9963325686400215e+00
-3.9960523191694222e+00
-3.9957721347356867e+00
-3.9954920153167381e+00
-3.9952119608905088e+00
-3.9949319714349336e+00
-3.9946520469279543e+00
-3.9943721873475169e+00
-3.9940923926715732e+00
-3.9938126628780806e+00
-3.9935329979450009e+00
-3.9932533978503018e+00
-3.9929738625719562e+00
-3.9926943920879423e+00
-3.9924149863762430e+00
-3.9921356454148471e+00
-3.9918563691817490e+00
-3.9915771576549490e+00
-3.9912980108124501e+00
-3.9910189286322644e+00
-3.9907399110924064e+00
-3.9904609581708961e+00
-3.9901820698457620e+00
-3.9899032460950337e+00
-3.9896244868967505e+00
-3.9893457922289524e+00
-3.9890671620696887e+00
-3.9887885963970127e+00
-3.9885100951889840e+00
-3.9882316584236643e+00
-3.9879532860791262e+00
-3.9876749781334433e+00
-3.9873967345646961e+00
-3.9871185553509720e+00
-3.9868404404703601e+00
-3.9865623899009606e+00
-3.9862844036208731e+00
-3.9860064816082077e+00
-3.9857286238410778e+00
-3.9854508302976015e+00
-3.9851731009559042e+00
-3.9848954357941162e+00
-3.9846178347903733e+00
-3.9843402979228157e+00
-3.9840628251695911e+00
-3.9837854165088524e+00
-3.9835080719187572e+00
-3.9832307913774687e+00
-3.9829535748631568e+00
-3.9826764223539959e+00
-3.9823993338281656e+00
-3.9821223092638531e+00
-3.9818453486392507e+00
-3.9815684519325534e+00
-3.9812916191219667e+00
-3.9810148501856970e+00
-3.9807381451019594e+00
-3.9804615038489741e+00
-3.9801849264049669e+00
-3.9799084127481681e+00
-3.9796319628568151e+00
-3.9793555767091511e+00
-3.9790792542834232e+00
-3.9788029955578859e+00
-3.9785268005107999e+00
-3.9782506691204289e+00
-3.9779746013650454e+00
-3.9776985972229264e+00
-3.9774226566723532e+00
-3.9771467796916160e+00
-3.9768709662590083e+00
-3.9765952163528286e+00
-3.9763195299513852e+00
-3.9760439070329876e+00
-3.9757683475759538e+00
-3.9754928515586068e+00
-3.9752174189592759e+00
-3.9749420497562951e+00
-3.9746667439280041e+00
-3.9743915014527511e+00
-3.9741163223088876e+00
-3.9738412064747708e+00
-3.9735661539287648e+00
-3.9732911646492397e+00
-3.9730162386145706e+00
-3.9727413758031385e+00
-3.9724665761933311e+00
-3.9721918397635423e+00
-3.9719171664921689e+00
-3.9716425563576179e+00
-3.9713680093382995e+00
-3.9710935254126296e+00
-3.9708191045590313e+00
-3.9705447467559329e+00
-3.9702704519817682e+00
-3.9699962202149792e+00
-3.9697220514340099e+00
-3.9694479456173148e+00
-3.9691739027433499e+00
-3.9688999227905808e+00
-3.9686260057374767e+00
-3.9683521515625135e+00
-3.9680783602441738e+00
-3.9678046317609441e+00
-3.9675309660913212e+00
-3.9672573632138013e+00
-3.9669838231068941e+00
-3.9667103457491075e+00
-3.9664369311189627e+00
-3.9661635791949821e+00
-3.9658902899556958e+00
-3.9656170633796388e+00
-3.9653438994453549e+00
-3.9650707981313915e+00
-3.9647977594163017e+00
-3.9645247832786463e+00
-3.9642518696969917e+00
-3.9639790186499102e+00
-3.9637062301159784e+00
-3.9634335040737820e+00
-3.9631608405019119e+00
-3.9628882393789646e+00
-3.9626157006835414e+00
-3.9623432243942514e+00
-3.9620708104897093e+00
-3.9617984589485373e+00
-3.9615261697493604e+00
-3.9612539428708127e+00
-3.9609817782915338e+00
-3.9607096759901683e+00
-3.9604376359453681e+00
-3.9601656581357911e+00
-3.9598937425400997e+00
-3.9596218891369657e+00
-3.9593500979050638e+00
-3.9590783688230764e+00
-3.9588067018696935e+00
-3.9585350970236068e+00
-3.9582635542635192e+00
-3.9579920735681369e+00
-3.9577206549161730e+00
-3.9574492982863463e+00
-3.9571780036573840e+00
-3.9569067710080152e+00
-3.9566356003169800e+00
-3.9563644915630216e+00
-3.9560934447248908e+00
-3.9558224597813436e+00
-3.9555515367111433e+00
-3.9552806754930576e+00
-3.9550098761058634e+00
-3.9547391385283417e+00
-3.9544684627392801e+00
-3.9541978487174716e+00
-3.9539272964417185e+00
-3.9536568058908261e+00
-3.9533863770436066e+00
-3.9531160098788809e+00
-3.9528457043754726e+00
-3.9525754605122136e+00
-3.9523052782679424e+00
-3.9520351576215025e+00
-3.9517650985517454e+00
-3.9514951010375272e+00
-3.9512251650577119e+00
-3.9509552905911667e+00
-3.9506854776167701e+00
-3.9504157261134014e+00
-3.9501460360599516e+00
-3.9498764074353137e+00
-3.9496068402183888e+00
-3.9493373343880860e+00
-3.9490678899233163e+00
-3.9487985068030023e+00
-3.9485291850060689e+00
-3.9482599245114489e+00
-3.9479907252980828e+00
-3.9477215873449141e+00
-3.9474525106308969e+00
-3.9471834951349876e+00
-3.9469145408361523e+00
-3.9466456477133609e+00
-3.9463768157455910e+00
-3.9461080449118273e+00
-3.9458393351910588e+00
-3.9455706865622835e+00
-3.9453020990045022e+00
-3.9450335724967274e+00
-3.9447651070179721e+00
-3.9444967025472599e+00
-3.9442283590636200e+00
-3.9439600765460865e+00
-3.9436918549737014e+00
-3.9434236943255119e+00
-3.9431555945805732e+00
-3.9428875557179470e+00
-3.9426195777166986e+00
-3.9423516605559032e+00
-3.9420838042146418e+00
-3.9418160086719984e+00
-3.9415482739070691e+00
-3.9412805998989513e+00
-3.9410129866267520e+00
-3.9407454340695840e+00
-3.9404779422065657e+00
-3.9402105110168226e+00
-3.9399431404794876e+00
-3.9396758305736990e+00
-3.9394085812786015e+00
-3.9391413925733469e+00
-3.9388742644370920e+00
-3.9386071968490031e+00
-3.9383401897882515e+00
-3.9380732432340122e+00
-3.9378063571654707e+00
-3.9375395315618187e+00
-3.9372727664022524e+00
-3.9370060616659752e+00
-3.9367394173321966e+00
-3.9364728333801349e+00
-3.9362063097890130e+00
-3.9359398465380595e+00
-3.9356734436065119e+00
-3.9354071009736145e+00
-3.9351408186186134e+00
-3.9348745965207668e+00
-3.9346084346593369e+00
-3.9343423330135932e+00
-3.9340762915628109e+00
-3.9338103102862725e+00
-3.9335443891632669e+00
-3.9332785281730893e+00
-3.9330127272950430e+00
-3.9327469865084352e+00
-3.9324813057925807e+00
-3.9322156851268031e+00
-3.9319501244904300e+00
-3.9316846238627958e+00
-3.9314191832232437e+00
-3.9311538025511195e+00
-3.9308884818257805e+00
-3.9306232210265870e+00
-3.9303580201329078e+00
-3.9300928791241159e+00
-3.9298277979795944e+00
-3.9295627766787313e+00
-3.9292978152009201e+00
-3.9290329135255617e+00
-3.9287680716320659e+00
-3.9285032894998455e+00
-3.9282385671083215e+00
-3.9279739044369228e+00
-3.9277093014650837e+00
-3.9274447581722445e+00
-3.9271802745378537e+00
-3.9269158505413650e+00
-3.9266514861622408e+00
-3.9263871813799471e+00
-3.9261229361739591e+00
-3.9258587505237581e+00
-3.9255946244088320e+00
-3.9253305578086746e+00
-3.9250665507027875e+00
-3.9248026030706780e+00
-3.9245387148918609e+00
-3.9242748861458572e+00
-3.9240111168121943e+00
-3.9237474068704081e+00
-3.9234837563000391e+00
-3.9232201650806342e+00
-3.9229566331917494e+00
-3.9226931606129467e+00
-3.9224297473237915e+00
-3.9221663933038613e+00
-3.9219030985327366e+00
-3.9216398629900047e+00
-3.9213766866552620e+00
-3.9211135695081092e+00
-3.9208505115281547e+00
-3.9205875126950134e+00
-3.9203245729883083e+00
-3.9200616923876668e+00
-3.9197988708727243e+00
-3.9195361084231237e+00
-3.9192734050185130e+00
-3.9190107606385478e+00
-3.9187481752628903e+00
-3.9184856488712101e+00
-3.9182231814431820e+00
-3.9179607729584891e+00
-3.9176984233968208e+00
-3.9174361327378726e+00
-3.9171739009613478e+00
-3.9169117280469554e+00
-3.9166496139744127e+00
-3.9163875587234411e+00
-3.9161255622737725e+00
-3.9158636246051417e+00
-3.9156017456972934e+00
-3.9153399255299774e+00
-3.9150781640829497e+00
-3.9148164613359757e+00
-3.9145548172688245e+00
-3.9142932318612740e+00
-3.9140317050931084e+00
-3.9137702369441185e+00
-3.9135088273941019e+00
-3.9132474764228635e+00
-3.9129861840102143e+00
-3.9127249501359715e+00
-3.9124637747799609e+00
-3.9122026579220144e+00
-3.9119415995419704e+00
-3.9116805996196731e+00
-3.9114196581349763e+00
-3.9111587750677375e+00
-3.9108979503978230e+00
-3.9106371841051053e+00
-3.9103764761694637e+00
-3.9101158265707849e+00
-3.9098552352889611e+00
-3.9095947023038931e+00
-3.9093342275954868e+00
-3.9090738111436560e+00
-3.9088134529283209e+00
-3.9085531529294086e+00
-3.9082929111268530e+00
-3.9080327275005962e+00
-3.9077726020305836e+00
-3.9075125346967718e+00
-3.9072525254791213e+00
-3.9069925743575999e+00
-3.9067326813121834e+00
-3.9064728463228540e+00
-3.9062130693695991e+00
-3.9059533504324149e+00
-3.9056936894913048e+00
-3.9054340865262769e+00
-3.9051745415173480e+00
-3.9049150544445412e+00
-3.9046556252878859e+00
-3.9043962540274193e+00
-3.9041369406431845e+00
-3.9038776851152330e+00
-3.9036184874236217e+00
-3.9033593475484136e+00
-3.9031002654696816e+00
-3.9028412411675033e+00
-3.9025822746219627e+00
-3.9023233658131518e+00
-3.9020645147211703e+00
-3.9018057213261224e+00
-3.9015469856081206e+00
-3.9012883075472855e+00
-3.9010296871237418e+00
-3.9007711243176222e+00
-3.9005126191090684e+00
-3.9002541714782257e+00
-3.8999957814052491e+00
-3.8997374488702974e+00
-3.8994791738535395e+00
-3.8992209563351499e+00
-3.8989627962953088e+00
-3.8987046937142047e+00
-3.8984466485720337e+00
-3.8981886608489971e+00
-3.8979307305253030e+00
-3.8976728575811688e+00
-3.8974150419968154e+00
-3.8971572837524744e+00
-3.8968995828283806e+00
-3.8966419392047786e+00
-3.8963843528619178e+00
-3.8961268237800559e+00
-3.8958693519394578e+00
-3.8956119373203926e+00
-3.8953545799031404e+00
-3.8950972796679855e+00
-3.8948400365952187e+00
-3.8945828506651408e+00
-3.8943257218580554e+00
-3.8940686501542765e+00
-3.8938116355341226e+00
-3.8935546779779213e+00
-3.8932977774660049e+00
-3.8930409339787144e+00
-3.8927841474963976e+00
-3.8925274179994074e+00
-3.8922707454681058e+00
-3.8920141298828597e+00
-3.8917575712240455e+00
-3.8915010694720444e+00
-3.8912446246072463e+00
-3.8909882366100446e+00
-3.8907319054608442e+00
-3.8904756311400543e+00
-3.8902194136280914e+00
-3.8899632529053791e+00
-3.8897071489523474e+00
-3.8894511017494344e+00
-3.8891951112770844e+00
-3.8889391775157476e+00
-3.8886833004458841e+00
-3.8884274800479588e+00
-3.8881717163024430e+00
-3.8879160091898162e+00
-3.8876603586905647e+00
-3.8874047647851806e+00
-3.8871492274541652e+00
-3.8868937466780249e+00
-3.8866383224372743e+00
-3.8863829547124329e+00
-3.8861276434840302e+00
-3.8858723887325990e+00
-3.8856171904386825e+00
-3.8853620485828291e+00
-3.8851069631455943e+00
-3.8848519341075409e+00
-3.8845969614492386e+00
-3.8843420451512629e+00
-3.8840871851941987e+00
-3.8838323815586362e+00
-3.8835776342251722e+00
-3.8833229431744116e+00
-3.8830683083869659e+00
-3.8828137298434533e+00
-3.8825592075244990e+00
-3.8823047414107354e+00
-3.8820503314828012e+00
-3.8817959777213438e+00
-3.8815416801070155e+00
-3.8812874386204768e+00
-3.8810332532423959e+00
-3.8807791239534453e+00
-3.8805250507343065e+00
-3.8802710335656672e+00
